<?xml version="1.0"?>
<opencv_storage>
<opencv_ml_svm>
  <format>3</format>
  <svmType>C_SVC</svmType>
  <kernel>
    <type>RBF</type>
    <gamma>0.50625000000000009</gamma></kernel>
  <C>62.5</C>
  <term_criteria><epsilon>1.1920928955078125e-07</epsilon>
    <iterations>1000</iterations></term_criteria>
  <var_count>50</var_count>
  <class_count>2</class_count>
  <class_labels type_id="opencv-matrix">
    <rows>2</rows>
    <cols>1</cols>
    <dt>i</dt>
    <data>
      0 1</data></class_labels>
  <sv_total>328</sv_total>
  <support_vectors>
    <_>
      0.00880281627 0.0123239439 0.0880281702 0.0211267602 0.0228873231
      0.0545774624 0.0140845068 0.0158450697 0.0264084507 0.0140845068
      0.0369718298 0.0264084507 0.00528169004 0.00704225339
      0.00880281627 0.0140845068 0.0158450697 0.0281690136 0.00704225339
      0.0246478878 0.0176056325 0.0193661973 0.0246478878 0.00704225339
      0.0193661973 0.0193661973 0.0176056325 0.0264084507 0.0193661973
      0.0264084507 0.0334507041 0.0211267602 0.00880281627 0.0158450697
      0.0193661973 0.0193661973 0.0105633801 0.0123239439 0.0140845068
      0.0264084507 0.0123239439 0.0140845068 0.0246478878 0.0140845068
      0.0123239439 0.0264084507 0.0158450697 0.0193661973 0.0158450697
      0.0140845068</_>
    <_>
      0.0115273772 0.025936598 0.0518731959 0.0144092217 0.0201729108
      0.0115273772 0.0115273772 0.0230547544 0.0201729108 0.0374639742
      0.0230547544 0.0230547544 0.0201729108 0.0172910653 0.00864553265
      0.025936598 0.0172910653 0.00864553265 0.0172910653 0.0172910653
      0.0144092217 0.0201729108 0.00576368859 0.00576368859 0.0144092217
      0.0230547544 0.0230547544 0.0115273772 0.0115273772 0.025936598
      0.0230547544 0.00576368859 0.0115273772 0.0144092217 0.0172910653
      0.0230547544 0.00576368859 0.025936598 0.0288184434 0.0172910653
      0.0144092217 0.0028818443 0.025936598 0.00576368859 0.0230547544
      0.0403458215 0.025936598 0.0432276651 0.0403458215 0.0432276651</_>
    <_>
      0.0558069386 0.0211161394 0.0150829563 0.0135746608 0.0150829563
      0.0150829563 0.0105580697 0.00904977415 0.0271493215 0.0165912528
      0.0331825055 0.0331825055 0.00603318261 0.0120663652 0.0211161394
      0.0165912528 0.0301659126 0.0165912528 0.0165912528 0.0135746608
      0.0196078438 0.0331825055 0.0150829563 0.0346908011 0.0196078438
      0.0165912528 0.0165912528 0.0226244349 0.0165912528 0.0180995483
      0.0150829563 0.00603318261 0.00754147815 0.0196078438 0.0180995483
      0.0165912528 0.00603318261 0.0135746608 0.0377073921 0.0135746608
      0.0377073921 0.028657617 0.025641026 0.0226244349 0.0180995483
      0.0135746608 0.03167421 0.00904977415 0.028657617 0.0196078438</_>
    <_>
      0.0106951874 0.0213903747 0.0427807495 0.0160427801 0.0133689847
      0.0240641721 0.0133689847 0.0213903747 0.0213903747 0.0240641721
      0.0267379694 0.0213903747 0.0213903747 0.0106951874 0.0267379694
      0.0133689847 0.0213903747 0.0213903747 0.00267379684 0.0133689847
      0.0213903747 0.0187165774 0.0267379694 0.0133689847 0.0133689847
      0.0213903747 0.0213903747 0.0106951874 0.0106951874 0.0213903747
      0.0240641721 0.0374331549 0.0213903747 0.0133689847 0.0213903747
      0.0106951874 0.0106951874 0.0294117648 0.0133689847 0.0187165774
      0.0160427801 0.0294117648 0.0187165774 0.0106951874 0.0320855603
      0.0374331549 0.0133689847 0.0267379694 0.0213903747 0.0267379694</_>
    <_>
      0.0135501362 0.016260162 0.0189701896 0.0189701896 0.008130081
      0.0460704602 0.016260162 0.0243902449 0.0135501362 0.0135501362
      0.032520324 0.0298102982 0.0216802172 0.0298102982 0.0271002725
      0.0298102982 0.016260162 0.00271002715 0.0352303535 0.0216802172
      0.016260162 0.032520324 0.0108401086 0.0189701896 0.0243902449
      0.016260162 0.032520324 0.0189701896 0.0271002725 0.0352303535
      0.0216802172 0.0216802172 0.00542005431 0.0108401086 0.0135501362
      0.016260162 0.0243902449 0.0189701896 0.0243902449 0.008130081
      0.008130081 0.008130081 0. 0.0243902449 0.0189701896 0.0216802172
      0.0189701896 0.0298102982 0.0271002725 0.008130081</_>
    <_>
      0.0380281694 0.0239436608 0.00704225339 0.0197183099 0.0197183099
      0.0169014074 0.0295774639 0.0126760555 0.0239436608 0.0309859142
      0.0352112651 0.0267605633 0.00281690131 0.00422535185 0.0112676052
      0.0154929571 0.0197183099 0.0169014074 0.00985915493 0.0169014074
      0.0281690136 0.0323943645 0.0281690136 0.0521126725 0.0323943645
      0.0140845068 0.0267605633 0.0183098577 0.0112676052 0.0169014074
      0.00985915493 0.0253521111 0.00704225339 0.0112676052 0.0140845068
      0.0183098577 0.00422535185 0.0126760555 0.0197183099 0.0239436608
      0.0225352105 0.0211267602 0.0225352105 0.0197183099 0.0281690136
      0.0126760555 0.0169014074 0.0225352105 0.0112676052 0.0338028148</_>
    <_>
      0.0114068445 0.0152091254 0.022813689 0.0190114062 0.0114068445
      0.0342205316 0.0152091254 0.0266159698 0.0152091254 0.0152091254
      0.022813689 0.0266159698 0.0266159698 0.0456273779 0.022813689
      0.0342205316 0.0190114062 0.0152091254 0.00380228134 0.0190114062
      0.0152091254 0.0190114062 0.0304182507 0.0114068445 0.022813689
      0.0190114062 0.0304182507 0.00380228134 0.022813689 0.0380228125
      0.0190114062 0.0266159698 0.0456273779 0.0152091254 0.0152091254
      0.00760456268 0.0152091254 0.0152091254 0.00760456268 0.0152091254
      0.00760456268 0.0114068445 0.0114068445 0.0380228125 0.00760456268
      0.0114068445 0.0152091254 0.0418250933 0.022813689 0.0152091254</_>
    <_>
      0.0593525209 0.0179856122 0.0143884895 0.00899280608 0.0161870513
      0.0215827338 0.019784173 0.00899280608 0.0215827338 0.0287769791
      0.0467625894 0.0143884895 0.0107913669 0.0215827338 0.00899280608
      0.0143884895 0.019784173 0.0161870513 0.0269784182 0.0233812947
      0.0161870513 0.0107913669 0.0143884895 0.0521582738 0.0287769791
      0.0161870513 0.0251798574 0.0161870513 0.0107913669 0.0161870513
      0.0125899287 0.039568346 0.0161870513 0.00359712238 0.0287769791
      0.00359712238 0.0143884895 0.0143884895 0.0251798574 0.019784173
      0.0107913669 0.0305755399 0.0143884895 0.0125899287 0.0179856122
      0.0143884895 0.0233812947 0.0107913669 0.0287769791 0.0305755399</_>
    <_>
      0.052863434 0.00660792924 0.0176211447 0.0154185016 0.00881057233
      0.0220264308 0.0176211447 0.0132158585 0.00660792924 0.0198237877
      0.0440528616 0.0154185016 0.0220264308 0.0198237877 0.00881057233
      0.026431717 0.0198237877 0.0154185016 0.0154185016 0.0110132154
      0.0176211447 0.0154185016 0.0220264308 0.0286343601 0.0198237877
      0.0286343601 0.00220264308 0. 0.0286343601 0.0286343601
      0.0374449342 0.0242290739 0.0220264308 0.0132158585 0.0704845786
      0.00440528616 0.0220264308 0.00881057233 0.0352422893 0.0154185016
      0.0198237877 0.0308370031 0.00881057233 0.0132158585 0.00440528616
      0.0220264308 0.0220264308 0.0330396444 0.0198237877 0.00220264308</_>
    <_>
      0.048780486 0.00975609757 0.0585365854 0.0219512191 0.0146341464
      0. 0.0170731712 0.00975609757 0.0195121951 0.0365853645
      0.0512195118 0.0170731712 0.00243902439 0.0341463424 0.0146341464
      0.0195121951 0.0121951215 0.00975609757 0.024390243 0.024390243
      0.0268292688 0.0219512191 0.0195121951 0.0268292688 0.024390243
      0.0219512191 0.0219512191 0.00975609757 0.0170731712 0.024390243
      0.0146341464 0.0121951215 0.0121951215 0.0146341464 0.0317073166
      0.0219512191 0.0195121951 0.00975609757 0.0146341464 0.0292682927
      0.0121951215 0.0341463424 0.00243902439 0.00731707318
      0.00487804879 0.0195121951 0.0146341464 0.0219512191 0.0268292688
      0.0146341464</_>
    <_>
      0.023504274 0.0128205139 0.0170940179 0.023504274 0.021367522
      0.0256410278 0.0170940179 0.0277777798 0.021367522 0.023504274
      0.0534188077 0.0192307699 0.0149572659 0.00854700897 0.0192307699
      0.0405982919 0.0170940179 0.00641025696 0.023504274 0.0170940179
      0.0170940179 0.021367522 0.0192307699 0.0149572659 0.0192307699
      0.0427350439 0.0299145319 0.010683761 0.023504274 0.0256410278
      0.00854700897 0.0341880359 0.0192307699 0.0149572659 0.0491452999
      0.010683761 0.0170940179 0.0128205139 0.00854700897 0.00854700897
      0.0149572659 0.00854700897 0.0170940179 0.0299145319 0.0149572659
      0.0128205139 0.0149572659 0.0341880359 0.00641025696 0.00427350448</_>
    <_>
      0.0118811885 0.0158415847 0.023762377 0.0217821784 0.023762377
      0.00792079233 0.023762377 0.023762377 0.0316831693 0.033663366
      0.0693069324 0.0297029708 0.0138613861 0.0158415847 0.0118811885
      0.0217821784 0.0178217832 0.0198019817 0.0138613861 0.0376237631
      0.0178217832 0.023762377 0.0158415847 0.0316831693 0.00990099087
      0.0356435664 0.0198019817 0.0138613861 0.0158415847 0.0316831693
      0.0118811885 0.033663366 0.0316831693 0.0198019817 0.0376237631
      0.0198019817 0.0198019817 0.00990099087 0.00396039616 0.0277227722
      0.0118811885 0.00792079233 0.00594059424 0.0118811885
      0.00594059424 0.0118811885 0.00990099087 0.0217821784
      0.00198019808 0.00990099087</_>
    <_>
      0.026252985 0.0119331749 0.026252985 0.00954653975 0.00715990458
      0.0286396183 0.0453460626 0.00477326987 0.00715990458 0.0143198092
      0.050119333 0.0143198092 0.0119331749 0.0190930795 0.0143198092
      0.0143198092 0.0119331749 0.0143198092 0.00954653975 0.0214797147
      0.0238663498 0.0238663498 0.0405727923 0.0310262535 0.0286396183
      0.00715990458 0.0310262535 0.026252985 0.0334128886 0.0238663498
      0.0286396183 0.0334128886 0.026252985 0.0334128886 0.0214797147
      0.0119331749 0.0119331749 0.0190930795 0.0143198092 0.00954653975
      0.026252985 0.0214797147 0.00715990458 0.00715990458 0.0143198092
      0.0167064443 0.0119331749 0.00477326987 0.0190930795 0.0286396183</_>
    <_>
      0. 0.00361010828 0.0108303251 0.00361010828 0.0180505421
      0.0144404331 0.0216606501 0.0108303251 0.0216606501 0.0216606501
      0.0685920566 0.0324909762 0.0252707582 0.00722021656 0.0324909762
      0.0216606501 0.0144404331 0.00722021656 0.00722021656 0.0108303251
      0.0288808662 0.0216606501 0.0252707582 0.00361010828 0.0252707582
      0.0216606501 0.0324909762 0.0180505421 0.0324909762 0.0397111923
      0.0361010842 0.0505415164 0.00722021656 0.0216606501 0.0361010842
      0.0144404331 0.0108303251 0.00361010828 0.00361010828 0.0108303251
      0.0108303251 0.0216606501 0.0180505421 0.0252707582 0.00722021656
      0.0252707582 0.0108303251 0.0433213003 0.0180505421 0.0216606501</_>
    <_>
      0.0188323911 0.011299435 0.0470809788 0.0225988701 0.00753295654
      0.0489642173 0.0150659131 0.0150659131 0.0244821087 0.0263653472
      0.0470809788 0.0338983051 0.011299435 0.0263653472 0.0244821087
      0.0169491526 0.0207156297 0.00753295654 0.00941619556 0.0282485876
      0.0263653472 0.0320150666 0.0320150666 0.011299435 0.0169491526
      0.0131826736 0.0150659131 0.0320150666 0.0244821087 0.0131826736
      0.0131826736 0.0301318262 0.0131826736 0.0131826736 0.0376647823
      0.011299435 0.011299435 0.00376647827 0.0188323911 0.0225988701
      0.0150659131 0.0150659131 0.00376647827 0.0244821087 0.00753295654
      0.0169491526 0.0207156297 0.011299435 0.0131826736 0.0169491526</_>
    <_>
      0.0180180185 0.0135135138 0.0135135138 0.0105105108 0.0255255252
      0.0345345363 0.022522524 0.0105105108 0.0255255252 0.0180180185
      0.0195195191 0.0180180185 0.00300300308 0.0120120123 0.00750750769
      0.0120120123 0.0285285302 0.0135135138 0.00750750769 0.0135135138
      0.0375375375 0.0270270277 0.0255255252 0.0105105108 0.0375375375
      0.0105105108 0.0255255252 0.0180180185 0.0195195191 0.0150150154
      0.0285285302 0.0105105108 0.0120120123 0.0285285302 0.0360360369
      0.0315315314 0.00750750769 0.0285285302 0.0240240246 0.0120120123
      0.0195195191 0.0270270277 0.0270270277 0.00750750769 0.0270270277
      0.0315315314 0.022522524 0.0150150154 0.0150150154 0.0345345363</_>
    <_>
      0.0240000002 0.00800000038 0.0560000017 0.0120000001 0.0120000001
      0.064000003 0.0320000015 0.0320000015 0.0240000002 0.00400000019
      0.0720000044 0.0200000014 0.0200000014 0.0120000001 0.0240000002
      0.0200000014 0.00400000019 0.0240000002 0.00800000038 0.0160000008
      0.0200000014 0.0160000008 0.0360000022 0.00400000019 0.0120000001
      0.0240000002 0.0240000002 0.00400000019 0.0200000014 0.00800000038
      0.0120000001 0.0160000008 0.00400000019 0.0160000008 0.0560000017
      0.00800000038 0.0280000009 0.0120000001 0.0160000008 0.0200000014
      0.00400000019 0.0120000001 0.0400000028 0.00800000038 0.0120000001
      0.0160000008 0.0160000008 0.0160000008 0.0240000002 0.00800000038</_>
    <_>
      0.0336538479 0.00961538497 0.00961538497 0. 0.00480769249
      0.00961538497 0.00480769249 0.0192307699 0.0288461559
      0.00480769249 0.0384615399 0.0192307699 0.0192307699 0.0192307699
      0.00480769249 0.0432692319 0.0144230779 0.00480769249
      0.00480769249 0.00961538497 0. 0.0144230779 0.00480769249
      0.052884616 0.00480769249 0.0384615399 0.0144230779 0.0144230779
      0.0336538479 0.024038462 0. 0.0432692319 0.0144230779 0.
      0.0480769239 0.00480769249 0.024038462 0.00961538497 0.0336538479
      0.0384615399 0.072115384 0.0673076957 0.00961538497 0.00961538497
      0.00961538497 0.00480769249 0.0480769239 0.024038462 0.00961538497
      0.024038462</_>
    <_>
      0.0128755365 0.0171673819 0.0450643785 0.0214592274 0.0257510729
      0.0386266112 0.0171673819 0.0278969966 0.0236051492 0.0128755365
      0.0321888402 0.0150214592 0.00643776823 0.0193133056 0.00643776823
      0.0236051492 0.0193133056 0.0128755365 0.00214592274 0.0214592274
      0.0128755365 0.00858369097 0.0321888402 0.0257510729 0.0171673819
      0.0236051492 0.0300429184 0.0236051492 0.0171673819 0.0193133056
      0.0128755365 0.0364806876 0.00643776823 0.0193133056 0.0472102985
      0.0150214592 0.0107296137 0.0171673819 0.0150214592 0.0171673819
      0.0214592274 0.0193133056 0.0214592274 0.00858369097 0.0193133056
      0.0214592274 0.0171673819 0.0321888402 0.0171673819 0.0128755365</_>
    <_>
      0.0297951587 0.0223463699 0.0223463699 0.0186219737 0.0186219737
      0.0260707643 0.011173185 0.0279329605 0.0260707643 0.0148975793
      0.0260707643 0.0167597774 0.00744878966 0.0260707643 0.011173185
      0.0223463699 0.0186219737 0.0223463699 0.0148975793 0.0186219737
      0.0279329605 0.0130353821 0.0316573568 0.00744878966 0.0130353821
      0.0223463699 0.0316573568 0.0260707643 0.00931098685 0.0223463699
      0.0260707643 0.0204841718 0.00744878966 0.0279329605 0.0204841718
      0.011173185 0.0204841718 0.0279329605 0.00931098685 0.00744878966
      0.0260707643 0.0186219737 0.0167597774 0.0167597774 0.011173185
      0.0204841718 0.0148975793 0.0353817493 0.0335195549 0.0204841718</_>
    <_>
      0.026378898 0.00479616318 0.00959232636 0.026378898 0.0143884895
      0.0167865716 0.0215827338 0.023980815 0.0287769791 0.0143884895
      0.026378898 0.0503597148 0.0143884895 0.0287769791 0.0359712243
      0.0335731432 0.00239808159 0.0167865716 0.0215827338 0.0143884895
      0.026378898 0.023980815 0.0119904075 0.00719424477 0.0191846527
      0.0407673866 0.0287769791 0.0143884895 0.0167865716 0.023980815
      0.0167865716 0.0503597148 0.0119904075 0.0119904075 0.0191846527
      0.0119904075 0.0191846527 0.0215827338 0.023980815 0.0119904075
      0.0191846527 0.0143884895 0.00479616318 0.0191846527 0.0119904075
      0.0191846527 0.0143884895 0.0311750602 0.0119904075 0.00959232636</_>
    <_>
      0.023346303 0.0129701681 0.0272373538 0.0129701681 0.0155642023
      0.0207522698 0.0220492873 0.0142671857 0.0181582365 0.0155642023
      0.036316473 0.023346303 0.00907911826 0.00778210117 0.00907911826
      0.0142671857 0.0246433206 0.0142671857 0.0207522698 0.0246433206
      0.0142671857 0.0194552522 0.0285343714 0.00389105058 0.0311284047
      0.0207522698 0.0324254222 0.0155642023 0.016861219 0.023346303
      0.0259403363 0.0207522698 0.0194552522 0.023346303 0.0324254222
      0.0285343714 0.0129701681 0.0194552522 0.016861219 0.016861219
      0.0129701681 0.0142671857 0.0220492873 0.0194552522 0.023346303
      0.0285343714 0.016861219 0.023346303 0.0246433206 0.0246433206</_>
    <_>
      0.0371179059 0.0174672492 0.0218340605 0.0109170303 0.0174672492
      0.0109170303 0.0240174681 0.0196506549 0.0152838435 0.0043668123
      0.0567685589 0.00873362459 0.0043668123 0.0131004369 0.0262008738
      0.0174672492 0.0152838435 0.0196506549 0.0196506549 0.0152838435
      0.0218340605 0.0174672492 0.0393013097 0.0349344984 0.0174672492
      0.0262008738 0.0327510908 0.0196506549 0.0152838435 0.00873362459
      0.0196506549 0.0436681211 0.0196506549 0.00873362459 0.0393013097
      0. 0.00655021844 0.00873362459 0.0262008738 0.0109170303
      0.0458515286 0.0458515286 0.0218340605 0.0043668123 0.0152838435
      0.00218340615 0.0218340605 0.00655021844 0.0371179059
      0.00655021844</_>
    <_>
      0.0179028139 0.0179028139 0.0230179019 0.015345268 0.0102301789
      0.0230179019 0.0255754478 0.00767263398 0.0306905359 0.0102301789
      0.0639386177 0.0179028139 0.0179028139 0.015345268 0.0127877239
      0.0255754478 0.0204603579 0.015345268 0.0204603579 0.0230179019
      0.0255754478 0.0230179019 0.0281329919 0.0102301789 0.0255754478
      0.0332480818 0.0255754478 0.0230179019 0.0102301789 0.0358056277
      0.0127877239 0.0409207158 0.0127877239 0.00511508947 0.0409207158
      0.00511508947 0.0127877239 0.0383631699 0.0230179019 0.00767263398
      0.0127877239 0.0204603579 0.0102301789 0.0179028139 0.0127877239
      0.0179028139 0.0179028139 0.0102301789 0.00767263398 0.0179028139</_>
    <_>
      0. 0. 0.012987013 0.019480519 0. 0.012987013 0.019480519
      0.0714285746 0.012987013 0.00649350649 0.0519480519 0.019480519
      0.038961038 0.00649350649 0.00649350649 0.0259740259 0.
      0.019480519 0.019480519 0.0259740259 0.019480519 0.019480519
      0.00649350649 0. 0.012987013 0.038961038 0.00649350649 0.019480519
      0.019480519 0.038961038 0.012987013 0.0649350658 0.012987013
      0.00649350649 0.0714285746 0.0259740259 0.0259740259 0.00649350649
      0.012987013 0.00649350649 0.019480519 0.0259740259 0.00649350649
      0.038961038 0. 0.0259740259 0. 0.0649350658 0.019480519 0.</_>
    <_>
      0.00837988779 0.0167597756 0.0558659211 0.0279329605 0.0391061455
      0.0530726239 0.00837988779 0.0195530728 0.0167597756 0.0223463681
      0.0307262558 0.0139664803 0.0167597756 0.0139664803 0.011173184
      0.0251396634 0.0474860333 0.00837988779 0.00837988779 0.0307262558
      0.0195530728 0.0167597756 0.0251396634 0.00837988779 0.0251396634
      0.00558659201 0.0139664803 0.00558659201 0.0167597756 0.0139664803
      0.0279329605 0.011173184 0.0139664803 0.0167597756 0.0251396634
      0.0223463681 0.0251396634 0.0195530728 0.011173184 0.0195530728
      0.00279329601 0.00837988779 0.0446927361 0.011173184 0.0251396634
      0.0307262558 0.00837988779 0.011173184 0.0307262558 0.00837988779</_>
    <_>
      0.0109289614 0.00819672085 0.0355191231 0. 0.0327868834
      0.013661202 0.0245901626 0.0245901626 0.0300546438 0.0327868834
      0.0601092875 0.0191256832 0.00819672085 0.0191256832 0.013661202
      0.0273224041 0.0218579229 0.0191256832 0.00819672085 0.00546448072
      0.00546448072 0.0191256832 0.0163934417 0.0109289614 0.0218579229
      0.0437158458 0.0163934417 0.00273224036 0.0218579229 0.0382513665
      0.0464480855 0.0163934417 0.00819672085 0.0109289614 0.0464480855
      0.0218579229 0.013661202 0.0300546438 0.0218579229 0.0109289614
      0.00273224036 0.0109289614 0.00819672085 0.0191256832 0.0273224041
      0.0327868834 0.0109289614 0.0273224041 0.00546448072 0.0163934417</_>
    <_>
      0.0403587446 0.00448430516 0.0358744413 0.0224215258 0.0179372206
      0.0538116619 0.00896861032 0.0224215258 0.0179372206 0.00448430516
      0.0224215258 0.0224215258 0.0134529155 0.00448430516 0.00896861032
      0.0179372206 0.031390138 0.031390138 0.00896861032 0.0269058309
      0.00896861032 0.00896861032 0.0134529155 0.0224215258 0.0134529155
      0.031390138 0.00448430516 0. 0.00896861032 0.0269058309
      0.0224215258 0.0403587446 0.0358744413 0.0224215258 0.031390138 0.
      0.00448430516 0.0269058309 0.0134529155 0.00896861032 0.0403587446
      0.0179372206 0.0224215258 0.0134529155 0.0224215258 0.0224215258
      0.0358744413 0.0224215258 0.0403587446 0.</_>
    <_>
      0. 0. 0.0412371121 0.0154639166 0.0154639166 0.0154639166
      0.010309278 0.0154639166 0.0206185561 0.0257731955 0.0876288638
      0.0257731955 0.00515463902 0.0154639166 0.010309278 0.0463917516
      0.010309278 0.0154639166 0.0154639166 0.0154639166 0.00515463902
      0.0154639166 0.0257731955 0.00515463902 0.0206185561 0.0515463911
      0. 0. 0.00515463902 0.0257731955 0.0309278332 0.010309278
      0.0309278332 0.0257731955 0.0618556663 0.00515463902 0.0257731955
      0.0154639166 0.0154639166 0.010309278 0.010309278 0. 0.00515463902
      0.0154639166 0.0154639166 0.0515463911 0.00515463902 0.0515463911
      0.0412371121 0.010309278</_>
    <_>
      0.022292994 0.0286624208 0.0796178356 0.0127388537 0.0286624208
      0.0191082805 0.022292994 0.0286624208 0.022292994 0.0127388537
      0.0414012745 0.0127388537 0.00955414027 0.0191082805 0.0159235671
      0.0191082805 0.0382165611 0.0159235671 0.00636942685 0.0159235671
      0.0254777074 0.0191082805 0.0159235671 0.0127388537 0.0286624208
      0.0127388537 0.0159235671 0.00318471342 0.0350318477 0.0159235671
      0.0191082805 0.0127388537 0. 0.0191082805 0.0509554148 0.022292994
      0.0127388537 0.00955414027 0.0191082805 0.0127388537 0.0159235671
      0.00318471342 0.0509554148 0.00636942685 0.00955414027
      0.0350318477 0.00955414027 0.0159235671 0.0127388537 0.00636942685</_>
    <_>
      0.0226244349 0.0113122175 0.0113122175 0.0113122175 0.0180995483
      0.00904977415 0.015837105 0.0226244349 0.0429864265 0.00904977415
      0.0475113131 0.0339366533 0.015837105 0.0248868782 0.0203619916
      0.0361990966 0.0135746617 0.0180995483 0.0180995483 0.0271493234
      0.0226244349 0.00904977415 0.0135746617 0.00904977415 0.0113122175
      0.0271493234 0.0203619916 0.0135746617 0.0384615399 0.03167421
      0.0113122175 0.0180995483 0.015837105 0.0180995483 0.0226244349
      0.0113122175 0.0226244349 0.0271493234 0.0294117667 0.0226244349
      0.00904977415 0.015837105 0.0203619916 0.0180995483 0.0135746617
      0.0113122175 0.0135746617 0.0271493234 0.0226244349 0.0226244349</_>
    <_>
      0.014035088 0.00701754401 0.0666666701 0.014035088 0.0210526325
      0.056140352 0.0175438598 0.0175438598 0.0315789469 0.00701754401
      0.0315789469 0.014035088 0.0175438598 0.014035088 0.014035088
      0.0105263162 0.028070176 0.0175438598 0.0210526325 0.0105263162
      0.0175438598 0.0210526325 0.0315789469 0.0105263162 0.028070176
      0.0175438598 0.0175438598 0.003508772 0.0210526325 0.0491228066
      0.0385964923 0.0350877196 0.0105263162 0.0175438598 0.0245614033
      0.00701754401 0.0105263162 0.014035088 0.0105263162 0.0175438598
      0.0105263162 0.0105263162 0.0175438598 0.0175438598 0.0245614033
      0.0245614033 0. 0.042105265 0.0175438598 0.</_>
    <_>
      0.0564102568 0.0205128212 0.0153846163 0.0282051284 0.0179487187
      0.00512820529 0.0153846163 0.0179487187 0.0282051284 0.0205128212
      0.0384615399 0.0179487187 0.0205128212 0.0435897447 0.0153846163
      0.0179487187 0.0230769236 0.012820513 0.0384615399 0.0153846163
      0.0102564106 0.0153846163 0.0230769236 0.0153846163 0.025641026
      0.0282051284 0.00769230817 0.012820513 0.00256410264 0.0230769236
      0.0153846163 0.0282051284 0.0282051284 0.00769230817 0.025641026
      0.012820513 0.0153846163 0.0153846163 0.0153846163 0.0153846163
      0.0153846163 0.0230769236 0.0307692327 0.0153846163 0.012820513
      0.0230769236 0.00512820529 0.0230769236 0.0102564106 0.0282051284</_>
    <_>
      0.0347394533 0.00744416844 0.0223325063 0.0173697267 0.0272952858
      0.0471464023 0.0148883369 0.0198511165 0.0223325063 0.0173697267
      0.0545905717 0.00992555823 0.012406948 0.024813896 0.0148883369
      0.0272952858 0.00992555823 0.0297766738 0.012406948 0.00992555823
      0.0173697267 0.00992555823 0.012406948 0.0173697267 0.0173697267
      0.0372208431 0.00744416844 0.0347394533 0.0272952858 0.0198511165
      0.0198511165 0.012406948 0.00744416844 0.0223325063 0.024813896
      0.0397022329 0.0198511165 0.0198511165 0.0223325063 0.012406948
      0.00992555823 0.0198511165 0.0173697267 0.0173697267 0.0148883369
      0.024813896 0.0173697267 0.00992555823 0.0223325063 0.00744416844</_>
    <_>
      0.00473933667 0.01421801 0.0189573467 0.00473933667 0.01421801
      0.01421801 0.01421801 0.0236966833 0.02843602 0. 0.0379146934
      0.0379146934 0.00947867334 0.04265403 0.0189573467 0.0331753567
      0.0236966833 0.00473933667 0.0189573467 0.0379146934 0.0189573467
      0.04265403 0.04265403 0. 0.0521327034 0.0189573467 0.02843602
      0.00473933667 0.02843602 0.0379146934 0.01421801 0.0236966833
      0.00947867334 0.00947867334 0.0236966833 0.0236966833
      0.00473933667 0.00947867334 0.0189573467 0.0189573467
      0.00947867334 0.0189573467 0.01421801 0.0331753567 0.01421801
      0.01421801 0.01421801 0.00473933667 0.0379146934 0.00473933667</_>
    <_>
      0.00510204071 0.00510204071 0.076530613 0.0102040814 0.0204081628
      0.0102040814 0.00510204071 0.0255102031 0.0204081628 0.0204081628
      0.0102040814 0.0204081628 0.0204081628 0.0408163257 0.0153061226
      0.0204081628 0.0102040814 0.00510204071 0.0408163257 0.0153061226
      0. 0. 0.00510204071 0.00510204071 0.00510204071 0.0510204062
      0.0204081628 0.0102040814 0.0204081628 0.0306122452 0.0204081628
      0.0153061226 0.0204081628 0.0102040814 0.0663265288 0.0102040814
      0.0204081628 0.0357142836 0.0102040814 0.0204081628 0.0153061226
      0.00510204071 0.0255102031 0.0153061226 0.0459183678 0.0102040814
      0.0306122452 0.0255102031 0.0306122452 0.0204081628</_>
    <_>
      0.0450236984 0.00473933667 0.0260663517 0.0308056884 0.0165876783
      0.007109005 0.01421801 0.02843602 0.0260663517 0.0189573467
      0.0592417084 0.021327015 0.0118483417 0.0236966833 0.0189573467
      0.0118483417 0.02843602 0.0260663517 0.0331753567 0.0331753567
      0.01421801 0.0118483417 0.0189573467 0.021327015 0.0165876783
      0.01421801 0.01421801 0.0165876783 0.0236966833 0.0165876783
      0.00947867334 0.0165876783 0.007109005 0.00947867334 0.049763035
      0.0165876783 0.0165876783 0.0236966833 0.0308056884 0.0118483417
      0.007109005 0.0118483417 0.00947867334 0.00947867334 0.02843602
      0.00473933667 0.0189573467 0.01421801 0.04265403 0.007109005</_>
    <_>
      0.0501672253 0.0117056854 0.020066889 0.0150501672 0.0133779263
      0.0133779263 0.0133779263 0.0217391308 0.020066889 0.00668896316
      0.0167224072 0.0117056854 0.00501672225 0.0250836127 0.018394649
      0.0217391308 0.0351170562 0.0133779263 0.0100334445 0.0267558526
      0.0117056854 0.0133779263 0.0083612036 0.0150501672 0.018394649
      0.0150501672 0.0234113708 0.0100334445 0.020066889 0.0234113708
      0.0250836127 0.0117056854 0.0167224072 0.020066889 0.0367892981
      0.0100334445 0.0167224072 0.0317725763 0.0083612036 0.0167224072
      0.0117056854 0.00501672225 0.0301003344 0.020066889 0.0836120397
      0.0351170562 0.0100334445 0.0301003344 0.0284280926 0.0234113708</_>
    <_>
      0.0195804201 0.00419580424 0.0335664339 0.0237762239 0.0195804201
      0.026573427 0.0181818195 0.0181818195 0.026573427 0.0279720295
      0.0321678333 0.0209790226 0.0111888116 0.0181818195 0.016783217
      0.0195804201 0.00979021005 0.0321678333 0.0223776232 0.0335664339
      0.0139860148 0.0209790226 0.0181818195 0.0237762239 0.0139860148
      0.016783217 0.0251748264 0.0181818195 0.0349650346 0.0237762239
      0.0139860148 0.0349650346 0.0125874132 0.0181818195 0.0377622396
      0.0111888116 0.0181818195 0.0111888116 0.0279720295 0.0237762239
      0.0181818195 0.0153846163 0.016783217 0.00979021005 0.00839160848
      0.00979021005 0.0223776232 0.0125874132 0.026573427 0.00559440581</_>
    <_>
      0.0282776356 0.0205655526 0.0668380484 0.0205655526 0.0231362469
      0.0514138825 0.0205655526 0.030848328 0.0102827763 0.0102827763
      0.0231362469 0.0205655526 0.0128534706 0.0334190242 0.0179948583
      0.0257069413 0.0231362469 0.00771208201 0.015424164 0.0128534706
      0.015424164 0.0179948583 0.0179948583 0.00771208201 0.0179948583
      0.0334190242 0.0102827763 0.00257069408 0.0231362469 0.0282776356
      0.0282776356 0.0179948583 0.0179948583 0.0231362469 0.0102827763
      0.0205655526 0.015424164 0.0205655526 0.0231362469 0.015424164
      0.0205655526 0.0257069413 0.0179948583 0.00257069408 0.0257069413
      0.0231362469 0.00257069408 0.0179948583 0.00771208201 0.0128534706</_>
    <_>
      0.00849256944 0.010615712 0.0467091314 0.0233545657 0.0297239926
      0.0318471342 0.0148619963 0.0212314241 0.0191082805 0.0212314241
      0.0530785583 0.0339702778 0.00212314236 0.0233545657 0.00849256944
      0.0127388537 0.00849256944 0.010615712 0.00424628472 0.0191082805
      0.010615712 0.0233545657 0.0254777074 0.00849256944 0.0233545657
      0.0212314241 0.0191082805 0.0297239926 0.0148619963 0.0318471342
      0.0360934213 0.0276008509 0.0127388537 0.0169851389 0.0445859879
      0.0318471342 0.00212314236 0.00849256944 0.0169851389 0.0233545657
      0.0169851389 0.0169851389 0.0148619963 0.0127388537 0.010615712
      0.0254777074 0.0212314241 0.0148619963 0.0233545657 0.010615712</_>
    <_>
      0.0102564106 0.00769230817 0.025641026 0.0102564106 0.00769230817
      0.00512820529 0.0333333351 0.0384615399 0.025641026 0.0179487187
      0.0384615399 0.0230769236 0.0153846163 0.00769230817 0.012820513
      0.0384615399 0.0179487187 0.012820513 0.0102564106 0.0307692327
      0.0179487187 0.0153846163 0.0282051284 0.0102564106 0.0153846163
      0.0410256423 0.0153846163 0.0153846163 0.0179487187 0.0461538471
      0.0153846163 0.0384615399 0.00769230817 0.00512820529 0.0487179495
      0.00256410264 0.0179487187 0.0282051284 0.0230769236 0.00769230817
      0.012820513 0.0102564106 0.0179487187 0.0179487187 0.0205128212
      0.00769230817 0.00256410264 0.0384615399 0.025641026 0.0384615399</_>
    <_>
      0.00366300368 0.00366300368 0.0402930416 0.00732600736
      0.00366300368 0.0146520147 0.025641026 0.0402930416 0.025641026
      0.00366300368 0.0659340695 0.0146520147 0.0329670347 0.0146520147
      0.0109890113 0.0293040294 0.0146520147 0.025641026 0.0219780225
      0.0219780225 0.0109890113 0.0146520147 0.0476190485 0.0439560451
      0.0183150191 0.0219780225 0.0109890113 0.00366300368 0.025641026
      0.0293040294 0.0439560451 0.025641026 0.00732600736 0.0146520147
      0.0439560451 0.0109890113 0.0219780225 0.0146520147 0.00732600736
      0.0146520147 0.00366300368 0.0109890113 0.00366300368 0.0109890113
      0. 0.0476190485 0. 0.0402930416 0.0219780225 0.00732600736</_>
    <_>
      0.010615712 0.010615712 0.0339702778 0.0297239926 0.0212314241
      0.0297239926 0.0169851389 0.0254777074 0.0191082805 0.0318471342
      0.0318471342 0.0127388537 0.00849256944 0.0148619963 0.00849256944
      0.0127388537 0.0191082805 0.0191082805 0.00424628472 0.00849256944
      0.0148619963 0.0127388537 0.0212314241 0.0233545657 0.0254777074
      0.0191082805 0.00849256944 0.00212314236 0.0254777074 0.0233545657
      0.0424628481 0.010615712 0.0254777074 0.0233545657 0.0403397046
      0.048832275 0.0169851389 0.0276008509 0.0169851389 0.010615712
      0.00424628472 0.00636942685 0.0169851389 0.0191082805 0.0212314241
      0.0445859879 0.0148619963 0.0297239926 0.0127388537 0.0212314241</_>
    <_>
      0.0305555556 0.013888889 0.00555555569 0.0194444451 0.0194444451
      0.0333333351 0.0305555556 0.0166666675 0.0222222228 0.0111111114
      0.0500000007 0.013888889 0.0111111114 0.013888889 0.0111111114
      0.0166666675 0.027777778 0.0305555556 0.0194444451 0.013888889
      0.013888889 0.013888889 0.0222222228 0.00555555569 0.0250000004
      0.0250000004 0.0388888903 0.00555555569 0.0194444451 0.00555555569
      0.0250000004 0.0166666675 0.027777778 0.0194444451 0.0194444451
      0.0194444451 0.013888889 0.0166666675 0.0416666679 0.00833333377
      0.0166666675 0.0166666675 0.0194444451 0.0166666675 0.0361111127
      0.027777778 0.0222222228 0.0166666675 0.0166666675 0.0166666675</_>
    <_>
      0.0262664165 0.0168855526 0.0393996239 0.0206378996 0.0206378996
      0.0281425901 0.024390243 0.0281425901 0.0131332083 0.0150093809
      0.0562851802 0.0112570357 0.0112570357 0.0206378996 0.0150093809
      0.0225140713 0.00750469044 0.0131332083 0.0112570357 0.0187617261
      0.0187617261 0.0112570357 0.0150093809 0.0131332083 0.0150093809
      0.0281425901 0.0168855526 0.0356472805 0.00375234522 0.0187617261
      0.0262664165 0.0187617261 0.0300187618 0.0206378996 0.0356472805
      0.0168855526 0.0187617261 0.00938086305 0.0168855526 0.00938086305
      0.0150093809 0.024390243 0.024390243 0.0112570357 0.0112570357
      0.0225140713 0.0112570357 0.0356472805 0.0225140713 0.0225140713</_>
    <_>
      0.0129701681 0.016861219 0.0246433206 0.0181582365 0.023346303
      0.0389105044 0.016861219 0.0181582365 0.0129701681 0.0259403363
      0.036316473 0.0285343714 0.00518806744 0.0194552522 0.0155642023
      0.0129701681 0.0298313871 0.00907911826 0.0246433206 0.0220492873
      0.0207522698 0.0155642023 0.0142671857 0.0142671857 0.0246433206
      0.0194552522 0.0181582365 0.0194552522 0.0311284047 0.0207522698
      0.0259403363 0.0324254222 0.0129701681 0.0246433206 0.023346303
      0.0246433206 0.0142671857 0.0246433206 0.016861219 0.0207522698
      0.016861219 0.0194552522 0.0142671857 0.0142671857 0.0194552522
      0.0220492873 0.0259403363 0.00778210117 0.0181582365 0.0103761349</_>
    <_>
      0.020833334 0.0125000011 0.00833333377 0.0145833343 0.00833333377
      0.0229166672 0.0270833354 0.0354166701 0.0229166672 0.020833334
      0.0604166687 0.020833334 0.0250000022 0.0187500007 0.020833334
      0.0166666675 0.020833334 0.0125000011 0.0125000011 0.0187500007
      0.010416667 0.0270833354 0.0270833354 0.0145833343 0.0229166672
      0.0166666675 0.020833334 0.0166666675 0.00416666688 0.0187500007
      0.0187500007 0.0270833354 0.00416666688 0.0187500007 0.0583333373
      0.0125000011 0.010416667 0.0333333351 0.0145833343 0.00625000056
      0.0250000022 0.0250000022 0.0166666675 0.010416667 0.010416667
      0.0166666675 0.0229166672 0.020833334 0.0333333351 0.0145833343</_>
    <_>
      0.0141843967 0.0236406624 0.0283687934 0.0141843967 0.0283687934
      0.0236406624 0. 0.00709219836 0.0212765951 0.0260047279
      0.0472813249 0.00472813239 0.0141843967 0.0189125296 0.0354609936
      0.0189125296 0.0307328608 0.0141843967 0.0212765951 0.0330969281
      0.00709219836 0.00945626479 0.00472813239 0.0189125296
      0.0189125296 0.0165484641 0.0165484641 0.0141843967 0.0307328608
      0.0118203312 0.0330969281 0. 0.0330969281 0.0189125296
      0.0567375869 0.0307328608 0. 0.0260047279 0.0165484641
      0.0165484641 0.0141843967 0.0189125296 0.0283687934 0.0023640662
      0.0260047279 0.0236406624 0.0189125296 0.00945626479 0.0283687934
      0.0236406624</_>
    <_>
      0.0276243109 0.0331491716 0.0220994484 0.0193370171 0.0165745858
      0.00828729291 0.00828729291 0.0248618796 0.0193370171
      0.00828729291 0.0718232095 0.0165745858 0.0193370171 0.0220994484
      0.0138121555 0.00552486209 0.0359116048 0.00552486209 0.0110497242
      0.0303867422 0.0110497242 0.0193370171 0.00828729291 0.0138121555
      0.00552486209 0.0138121555 0.0165745858 0.00552486209 0.0193370171
      0.0110497242 0.0110497242 0.00828729291 0.0607734844 0.0165745858
      0.0497237593 0.00276243105 0.0165745858 0.0276243109 0.0220994484
      0.0248618796 0.0138121555 0.0138121555 0.0331491716 0.0110497242
      0.0441988967 0.0220994484 0.0248618796 0.0303867422 0.0165745858
      0.00552486209</_>
    <_>
      0.0183673464 0.00408163248 0.0367346928 0.0204081628 0.0244897939
      0.0346938744 0.0224489793 0.0224489793 0.012244897 0.0244897939
      0.0510204062 0.012244897 0.012244897 0.0285714269 0.012244897
      0.012244897 0.0346938744 0.00816326495 0.0183673464 0.0326530598
      0.0142857134 0.0244897939 0.0224489793 0.0102040814 0.0224489793
      0.0163265299 0.0163265299 0.0306122433 0.0142857134 0.012244897
      0.0346938744 0.012244897 0.012244897 0.0142857134 0.0346938744
      0.0306122433 0.0142857134 0.0224489793 0.0163265299 0.012244897
      0.0102040814 0.0163265299 0.0224489793 0.00816326495 0.0142857134
      0.0306122433 0.0163265299 0.0163265299 0.0163265299 0.0183673464</_>
    <_>
      0.0179372206 0.00224215258 0.0403587446 0.015695069 0.0246636793
      0.0246636793 0.00896861032 0.015695069 0.00896861032 0.0201793723
      0.0605381206 0.0246636793 0.015695069 0.0112107629 0.0201793723
      0.0112107629 0.0224215258 0.00672645774 0.00896861032 0.0179372206
      0.0179372206 0.0112107629 0.0179372206 0.0179372206 0.0291479826
      0.0224215258 0.0179372206 0.0201793723 0.0291479826 0.0179372206
      0.0291479826 0.0134529155 0.0134529155 0.0246636793 0.0470852032
      0.0291479826 0.0201793723 0.00896861032 0.00896861032 0.0134529155
      0.0134529155 0.0201793723 0.0269058309 0.0201793723 0.0134529155
      0.0358744413 0.0201793723 0.0224215258 0.00672645774 0.031390138</_>
    <_>
      0.0121951215 0.0040650405 0.040650405 0.0304878037 0.0121951215
      0.0365853645 0.0142276417 0.0345528424 0.032520324 0.0182926822
      0.040650405 0.0203252025 0.016260162 0.0182926822 0.0142276417
      0.0264227632 0.00609756075 0.0182926822 0.0040650405 0.0142276417
      0.0101626012 0.00609756075 0.0121951215 0.032520324 0.0142276417
      0.0264227632 0.008130081 0.0101626012 0.0223577227 0.0304878037
      0.0284552835 0.0264227632 0.0142276417 0.0223577227 0.0528455265
      0.0345528424 0.0121951215 0.0182926822 0.016260162 0.016260162
      0.0101626012 0.0182926822 0.00609756075 0.024390243 0.0142276417
      0.008130081 0.0223577227 0.0284552835 0.0264227632 0.0121951215</_>
    <_>
      0.0241935477 0.0161290318 0.0504032224 0.0201612897 0.0181451607
      0.0362903215 0.0141129028 0.00806451589 0.0201612897 0.0120967738
      0.0463709682 0.0241935477 0.00604838692 0.0120967738 0.0221774187
      0.0181451607 0.0362903215 0.0161290318 0.00806451589 0.0221774187
      0.0241935477 0.0120967738 0.0221774187 0.00806451589 0.0141129028
      0.0221774187 0.0201612897 0.0282258056 0.0100806449 0.00806451589
      0.0201612897 0.0241935477 0.00604838692 0.0161290318 0.0362903215
      0.0282258056 0. 0.0161290318 0.0403225794 0.00403225794
      0.0161290318 0.0100806449 0.0322580636 0.0201612897 0.0181451607
      0.0161290318 0.0302419346 0.00806451589 0.0241935477 0.0322580636</_>
    <_>
      0.075000003 0.00277777785 0.0152777778 0.0166666675 0.0125000002
      0.0180555563 0.00972222257 0.0152777778 0.0125000002 0.020833334
      0.0291666668 0.013888889 0.0069444445 0.027777778 0.00833333377
      0.00833333377 0.013888889 0.0194444451 0.0180555563 0.0166666675
      0.013888889 0.0194444451 0.0194444451 0.013888889 0.0125000002
      0.0222222228 0.0152777778 0.00833333377 0.013888889 0.00833333377
      0.0291666668 0.0125000002 0.00555555569 0.0236111116 0.0305555556
      0.0291666668 0.0166666675 0.0361111127 0.0152777778 0.0194444451
      0.013888889 0.013888889 0.0222222228 0.0194444451 0.0833333358
      0.027777778 0.013888889 0.0125000002 0.0402777791 0.0263888892</_>
    <_>
      0.0154142585 0.0115606934 0.0289017353 0.0231213868 0.0250481702
      0.0385356471 0.0231213868 0.0327553004 0.0173410401 0.0115606934
      0.0404624268 0.0211946052 0.0192678235 0.0192678235 0.0173410401
      0.0308285169 0.0134874759 0.0134874759 0.00385356462 0.0192678235
      0.0154142585 0.0211946052 0.0308285169 0.0115606934 0.0192678235
      0.0134874759 0.0154142585 0.00770712923 0.0115606934 0.0154142585
      0.0192678235 0.0154142585 0.0192678235 0.0327553004 0.0192678235
      0.0462427735 0.0250481702 0.00578034669 0.0134874759 0.0192678235
      0.0115606934 0.0211946052 0.0192678235 0.0308285169 0.0115606934
      0.0192678235 0.0134874759 0.0366088636 0.0115606934 0.0211946052</_>
    <_>
      0.013586957 0.00543478271 0.00543478271 0.0190217402 0.027173914
      0.0108695654 0.0217391308 0.00815217383 0.0108695654 0.0298913047
      0.0190217402 0.027173914 0.00815217383 0.0190217402 0.0380434804
      0.0163043477 0.0298913047 0.027173914 0.00815217383 0.0163043477
      0.0190217402 0.0244565215 0.027173914 0.013586957 0.027173914
      0.0244565215 0.0108695654 0.00815217383 0.027173914 0.00815217383
      0.0326086953 0.00815217383 0.0244565215 0.054347828 0.0298913047
      0.0108695654 0.0108695654 0.0190217402 0.027173914 0.0244565215
      0.0108695654 0.013586957 0.00815217383 0.0244565215 0.0298913047
      0.0434782617 0.0108695654 0.0190217402 0.00271739135 0.0434782617</_>
    <_>
      0.0326086953 0.0170807466 0.0403726697 0.0124223605 0.0201863348
      0.0372670814 0.0232919268 0.0170807466 0.0186335407 0.00931677036
      0.0170807466 0.0155279506 0.00621118024 0.0155279506 0.0279503111
      0.0077639753 0.0388198756 0.0124223605 0.0295031071 0.0341614932
      0.00621118024 0.0263975151 0.0217391308 0.0186335407 0.0186335407
      0.0170807466 0.0124223605 0.00621118024 0.0232919268 0.0155279506
      0.0295031071 0.024844721 0.0310559012 0.0186335407 0.024844721
      0.0124223605 0.0108695654 0.0217391308 0.0170807466 0.0170807466
      0.0170807466 0.0170807466 0.0263975151 0.024844721 0.024844721
      0.0263975151 0.0170807466 0.0108695654 0.0139751555 0.0139751555</_>
    <_>
      0.0874635577 0.0145772602 0.046647232 0.011661808 0.0145772602
      0.0145772602 0.0174927115 0.002915452 0.0145772602 0.0145772602
      0.0320699736 0.0174927115 0.002915452 0.023323616 0.00874635577
      0.0145772602 0.0262390673 0.002915452 0.002915452 0.0262390673
      0.0204081647 0.0379008763 0.0174927115 0.046647232 0.0204081647
      0.00874635577 0.023323616 0.0408163294 0.0145772602 0.0174927115
      0.00874635577 0.0174927115 0.011661808 0.005830904 0.00874635577
      0.0204081647 0.005830904 0.0291545205 0.0379008763 0.011661808
      0.0349854231 0.0291545205 0.0204081647 0.011661808 0.0437317789 0.
      0.0145772602 0.002915452 0.00874635577 0.0320699736</_>
    <_>
      0.0366972499 0.0183486249 0.0152905202 0.0259938855 0.00764526008
      0.0198776759 0.0152905202 0.00611620815 0.0214067288 0.0137614682
      0.0504587181 0.0214067288 0.0168195721 0.035168197 0.0198776759
      0.00917431246 0.0137614682 0.00917431246 0.0229357798 0.035168197
      0.00917431246 0.0275229365 0.0183486249 0.0336391442 0.0229357798
      0.0137614682 0.0290519893 0.0229357798 0.0259938855 0.0168195721
      0.0168195721 0.0229357798 0.0229357798 0.0137614682 0.0321100913
      0.0152905202 0.0214067288 0.0107033644 0.0198776759 0.0290519893
      0.00917431246 0.0183486249 0.0137614682 0.0168195721 0.0152905202
      0.0107033644 0.0321100913 0.0183486249 0.0122324163 0.0137614682</_>
    <_>
      0.0282485876 0.0244821087 0.0489642173 0.0169491526 0.0131826736
      0.00188323914 0.00941619556 0. 0.00941619556 0.00753295654
      0.0433145016 0.0150659131 0.00376647827 0.0225988701 0.011299435
      0.00753295654 0.0903954804 0.00941619556 0.0169491526 0.0150659131
      0.0169491526 0.0207156297 0.0188323911 0.0150659131 0.0207156297
      0.011299435 0.0225988701 0.0451977402 0.0169491526 0.00753295654
      0.0169491526 0.0169491526 0.00564971752 0.011299435 0.0207156297
      0.00941619556 0.00753295654 0.0188323911 0.0395480208 0.0188323911
      0.0188323911 0.0357815437 0.0357815437 0.0131826736 0.0564971752
      0.0131826736 0.0225988701 0.00376647827 0.00941619556 0.0338983051</_>
    <_>
      0.0479573719 0.00888099521 0.0355239809 0.0230905861 0.0213143881
      0.0390763767 0.0230905861 0.00355239795 0.00888099521 0.0142095918
      0.0426287763 0.0284191836 0.0124333929 0.0301953834 0.00532859704
      0.0213143881 0.0248667859 0.00710479589 0.0124333929 0.0301953834
      0.0159857906 0.0195381884 0.0213143881 0.0284191836 0.0284191836
      0.0159857906 0.0266429838 0.0195381884 0.0230905861 0.0230905861
      0.0142095918 0.0373001769 0.0159857906 0.0248667859 0.0142095918
      0.0106571941 0.0177619904 0.00710479589 0.0213143881 0.0159857906
      0.0142095918 0.0230905861 0.0213143881 0.0106571941 0.0248667859
      0.0177619904 0.0177619904 0.0106571941 0.0124333929 0.00532859704</_>
    <_>
      0.0418848172 0.0139616057 0.0191972069 0.012216405 0.00872600358
      0.0209424086 0.0209424086 0.00872600358 0.0157068074 0.0191972069
      0.0261780098 0.0174520072 0.0174520072 0.00698080286 0.0157068074
      0.012216405 0.0191972069 0.0157068074 0.0191972069 0.02443281
      0.0174520072 0.0226876102 0.0157068074 0.0331588127 0.0209424086
      0.0226876102 0.0209424086 0.012216405 0.0191972069 0.0226876102
      0.0157068074 0.0174520072 0.0331588127 0.00523560215 0.0261780098
      0.0104712043 0.0104712043 0.036649216 0.0296684131 0.0157068074
      0.0174520072 0.0226876102 0.02443281 0.0226876102 0.036649216
      0.012216405 0.0226876102 0.0209424086 0.0174520072 0.0383944139</_>
    <_>
      0.0382775106 0.00956937764 0.00956937764 0.00956937764
      0.0143540669 0.00956937764 0.0239234436 0.00956937764 0.0239234436
      0.0143540669 0.100478463 0.0239234436 0.0239234436 0.0143540669
      0.0239234436 0.0239234436 0.00956937764 0.00956937764
      0.00956937764 0.0143540669 0.0143540669 0.0143540669 0.0143540669
      0.0526315756 0.0191387553 0.00478468882 0.0191387553 0.0430621989
      0.0143540669 0.0239234436 0.0143540669 0.0526315756 0.00956937764
      0.0287081338 0.0239234436 0.00956937764 0.0143540669 0.00478468882
      0.0287081338 0.00956937764 0.0239234436 0.0526315756 0.00956937764
      0.00956937764 0.00478468882 0.0239234436 0.0191387553
      0.00956937764 0.00478468882 0.00956937764</_>
    <_>
      0.0216216221 0.024324324 0.0459459461 0.0189189203 0.0135135138
      0.0702702701 0.0135135138 0.0216216221 0.0216216221 0.0216216221
      0.0378378406 0.0135135138 0.0135135138 0.0216216221 0.0135135138
      0.024324324 0.0270270277 0.00540540554 0.0081081083 0.0270270277
      0.00270270277 0.0081081083 0.0162162166 0. 0.0081081083
      0.024324324 0.0135135138 0.00540540554 0.0135135138 0.0270270277
      0.0459459461 0.00540540554 0.0162162166 0.0270270277 0.0324324332
      0.0135135138 0.0351351351 0.0189189203 0.0216216221 0.0135135138
      0.0108108111 0.0108108111 0.0270270277 0.0216216221 0.0189189203
      0.0378378406 0.0162162166 0.0216216221 0.0108108111 0.0108108111</_>
    <_>
      0.00729927002 0.0182481743 0.01459854 0.0218978096 0.0291970801
      0.00729927002 0.0182481743 0.0182481743 0.0255474448 0.0291970801
      0.0474452563 0.0291970801 0.0291970801 0.0218978096 0.0218978096
      0.0218978096 0.00729927002 0.0218978096 0.00364963501 0.0291970801
      0.0218978096 0.0255474448 0.0255474448 0.0109489048 0.0255474448
      0.0218978096 0.0291970801 0.0109489048 0.0291970801 0.0364963487
      0.0218978096 0.00729927002 0.0182481743 0.0109489048 0.0401459858
      0.0255474448 0.0291970801 0.0255474448 0.0218978096 0.0109489048
      0.00729927002 0.00364963501 0.01459854 0.01459854 0.01459854
      0.0218978096 0.00729927002 0.0218978096 0.00729927002 0.01459854</_>
    <_>
      0.0357142873 0.0178571437 0.0232142862 0.0142857144 0.0196428578
      0.0250000004 0.0125000002 0.0160714295 0.0178571437 0.0196428578
      0.0410714298 0.0250000004 0.005357143 0.021428572 0.0196428578
      0.0232142862 0.00714285718 0.010714286 0.00892857183 0.0285714287
      0.0178571437 0.0178571437 0.010714286 0.0410714298 0.0232142862
      0.0178571437 0.0160714295 0.0250000004 0.0125000002 0.0250000004
      0.0267857146 0.0285714287 0.0142857144 0.0017857143 0.0339285731
      0.0232142862 0.0142857144 0.010714286 0.032142859 0.0142857144
      0.0250000004 0.0303571429 0.00892857183 0.0142857144 0.0125000002
      0.0196428578 0.0357142873 0.0178571437 0.0178571437 0.0178571437</_>
    <_>
      0.0348837227 0.00581395347 0.0639534891 0.0174418613 0.0232558139
      0.0174418613 0.0348837227 0.00581395347 0.0174418613 0.0174418613
      0.0174418613 0.0465116277 0.0232558139 0.00581395347 0.0116279069
      0.0232558139 0.00581395347 0.0232558139 0. 0.0290697664
      0.00581395347 0.0174418613 0.0174418613 0.0232558139 0.00581395347
      0.00581395347 0.0290697664 0. 0.0290697664 0.0406976752
      0.0290697664 0.0232558139 0.0174418613 0.0290697664 0.0348837227
      0.0232558139 0.00581395347 0.0116279069 0.00581395347 0.0116279069
      0.0116279069 0.00581395347 0.0290697664 0.0523255803 0.00581395347
      0.0465116277 0.00581395347 0.0232558139 0.0116279069 0.0174418613</_>
    <_>
      0.0519480519 0.0151515156 0.00865800865 0.0216450207 0.0151515156
      0.0151515156 0.00865800865 0.00649350649 0.0151515156 0.019480519
      0.0909090936 0.012987013 0.0108225103 0.0303030312 0.0281385276
      0.0151515156 0.0238095243 0.0173160173 0.0173160173 0.0216450207
      0.0108225103 0.0151515156 0.00649350649 0.0259740259 0.0173160173
      0.00865800865 0.0151515156 0.0476190485 0.0281385276 0.00649350649
      0.0173160173 0.019480519 0.0303030312 0.00865800865 0.0303030312
      0.019480519 0.012987013 0.0216450207 0.0281385276 0.0173160173
      0.0303030312 0.019480519 0.00649350649 0.012987013 0.0216450207
      0.00649350649 0.0238095243 0.00432900432 0.0151515156 0.0259740259</_>
    <_>
      0.0141987829 0.0121703856 0.0324543603 0.00912778918 0.0212981738
      0.0243407711 0.0172413792 0.00405679503 0.00912778918 0.0324543603
      0.00507099368 0.0162271801 0.00304259639 0.00608519278
      0.0111561865 0.00608519278 0.113590263 0.00608519278 0.00608519278
      0.00709939143 0.0223123729 0.015212981 0.0202839747 0.0141987829
      0.0263691675 0.00608519278 0.0192697756 0.0243407711 0.015212981
      0.0101419874 0.0131845837 0.0111561865 0.0131845837 0.0253549684
      0.0141987829 0.0202839747 0.00202839752 0.0395537503 0.0202839747
      0.00709939143 0.015212981 0.0182555784 0.0415821485 0.0111561865
      0.133874238 0.0111561865 0.0131845837 0.00608519278 0.0141987829
      0.0385395512</_>
    <_>
      0.0665137619 0.0160550456 0.0321100913 0.00688073365 0.00917431153
      0.00688073365 0.0137614673 0.011467889 0.0137614673 0.0321100913
      0.0779816508 0.0252293572 0.00688073365 0.00458715577 0.011467889
      0.0252293572 0.011467889 0.0137614673 0.0160550456 0.0344036669
      0.0275229346 0.00917431153 0.011467889 0.0252293572 0.0229357779
      0.0252293572 0.00917431153 0.0160550456 0.029816512 0.0183486231
      0.00917431153 0.0229357779 0.00917431153 0.00917431153
      0.0366972461 0.0229357779 0.00229357788 0.0160550456 0.029816512
      0.0183486231 0.0229357779 0.0183486231 0.00917431153 0.011467889
      0.0229357779 0.0137614673 0.0344036669 0.0160550456 0.011467889
      0.0321100913</_>
    <_>
      0.0157303363 0.00224719103 0.0157303363 0.00898876414 0.0112359552
      0.0359550565 0.0269662924 0.0224719103 0.0269662924 0.0157303363
      0.0202247202 0.0247191004 0.00898876414 0.0067415731 0.0179775283
      0.0404494405 0.0224719103 0.0134831462 0.0112359552 0.0314606726
      0.0179775283 0.0179775283 0.0314606726 0.0202247202 0.0247191004
      0.0426966287 0.0179775283 0.0179775283 0.0134831462 0.0247191004
      0.0202247202 0.0359550565 0.0202247202 0.0134831462 0.0314606726
      0.00898876414 0.00449438207 0.0314606726 0.0314606726 0.0202247202
      0.0179775283 0.0112359552 0.0134831462 0.0224719103 0.0157303363
      0.0202247202 0.0202247202 0.0337078646 0.0067415731 0.0112359552</_>
    <_>
      0.0157480314 0.00393700786 0.0413385816 0.0118110236 0.0177165344
      0.0236220472 0.0157480314 0.0196850393 0.0314960629 0.0118110236
      0.0236220472 0.0393700786 0.0137795275 0.00984251965 0.0216535442
      0.0374015756 0.00393700786 0.0137795275 0.00787401572 0.0433070883
      0.0236220472 0.0177165344 0.0157480314 0.00787401572 0.0157480314
      0.0413385816 0.0196850393 0.0118110236 0.0118110236 0.0413385816
      0.027559055 0.0393700786 0.027559055 0.0196850393 0.0452755913
      0.0255905502 0.00984251965 0.0157480314 0.0118110236 0.0216535442
      0.0196850393 0.00393700786 0.00590551179 0.0137795275 0.0118110236
      0.0314960629 0.00787401572 0.0236220472 0.0137795275 0.00984251965</_>
    <_>
      0.00686498825 0.00686498825 0.0137299765 0.016018305 0.0114416471
      0.00686498825 0.0366132706 0.00915331766 0.016018305 0.016018305
      0.0686498806 0.0411899313 0. 0.016018305 0.0251716226 0.016018305
      0.00915331766 0.00915331766 0. 0.0114416471 0.038901601
      0.0183066353 0.0320366099 0.0228832942 0.0137299765 0.0114416471
      0.0228832942 0.043478258 0.00457665883 0.0228832942 0.0183066353
      0.0183066353 0. 0.00686498825 0.0823798627 0.0137299765
      0.016018305 0.00457665883 0.0251716226 0.00686498825 0.0457665883
      0.0411899313 0.00457665883 0.0114416471 0.00686498825 0.0228832942
      0.0320366099 0.00457665883 0.0297482833 0.0411899313</_>
    <_>
      0.0358974375 0.0153846163 0.025641026 0.00512820529 0.0230769236
      0.0230769236 0.00512820529 0.0205128212 0.0102564106 0.0205128212
      0.071794875 0.00256410264 0.0179487187 0.0230769236 0.00512820529
      0.0282051284 0.0179487187 0.0179487187 0.00512820529 0.0205128212
      0.00256410264 0.00769230817 0.00769230817 0.0461538471
      0.00512820529 0.0282051284 0.0102564106 0.012820513 0.00769230817
      0.00769230817 0.0410256423 0.0153846163 0.0307692327 0.0153846163
      0.0564102568 0.00512820529 0.0230769236 0.0282051284 0.0282051284
      0.00256410264 0.0205128212 0.0153846163 0.0205128212 0.00769230817
      0.025641026 0.0333333351 0.0333333351 0.00769230817 0.0333333351
      0.025641026</_>
    <_>
      0.040305011 0.0130718946 0.0119825704 0.0141612198 0.0185185187
      0.00653594732 0.0108932462 0.00326797366 0.00871459674 0.034858387
      0.0784313679 0.0141612198 0.00653594732 0.0185185187 0.0174291935
      0.00762527203 0.0108932462 0.0108932462 0.00108932459 0.0185185187
      0.0185185187 0.019607842 0.0206971671 0.0664488003 0.0206971671
      0.00980392098 0.0326797366 0.0522875786 0.0174291935 0.00871459674
      0.0272331145 0.0185185187 0.00653594732 0.019607842 0.0272331145
      0.0272331145 0.00762527203 0.00980392098 0.0315904133 0.0174291935
      0.0283224396 0.0239651408 0.00762527203 0.00871459674 0.0217864923
      0.0239651408 0.0305010881 0.00980392098 0.00980392098 0.0294117648</_>
    <_>
      0.0720720738 0. 0.00900900923 0.00900900923 0.00900900923
      0.0270270277 0.0180180185 0.0270270277 0.0270270277 0.00900900923
      0.0270270277 0.0180180185 0.0540540554 0.00900900923 0.
      0.0180180185 0.0270270277 0. 0. 0.0180180185 0.0180180185
      0.0270270277 0.00900900923 0.0990990996 0. 0.0270270277
      0.00900900923 0.0180180185 0.0270270277 0.045045048 0.0180180185
      0.0270270277 0. 0.0270270277 0. 0.0270270277 0.0180180185
      0.00900900923 0.0360360369 0.0270270277 0.00900900923 0.0180180185
      0.00900900923 0.0360360369 0.0540540554 0. 0.0180180185
      0.00900900923 0. 0.</_>
    <_>
      0.0285714306 0.0142857153 0.0261904765 0.0119047621 0.0119047621
      0.0571428612 0.0166666675 0.0166666675 0.0238095243 0.0166666675
      0.0333333351 0.0119047621 0.0166666675 0.0142857153 0.021428572
      0.0190476198 0.0142857153 0.0190476198 0.0261904765 0.0380952395
      0.00714285765 0.00714285765 0.0190476198 0.0547619052
      0.00714285765 0.00714285765 0.00714285765 0.0119047621
      0.0357142873 0.0142857153 0.0190476198 0.0119047621 0.0190476198
      0.021428572 0.0238095243 0.0238095243 0.0190476198 0.0285714306
      0.0190476198 0.0238095243 0.0309523828 0.0309523828 0.00952380989
      0.0166666675 0.0166666675 0.0380952395 0.0142857153 0.0119047621
      0.00476190494 0.00714285765</_>
    <_>
      0.0569620281 0.0189873427 0.0189873427 0.0189873427 0.0189873427
      0. 0.0126582282 0.00632911408 0. 0.00632911408 0.0569620281
      0.0126582282 0. 0.0126582282 0.0126582282 0.00632911408
      0.0253164563 0. 0.0189873427 0.0379746854 0.00632911408
      0.00632911408 0.0126582282 0.0253164563 0.00632911408 0.0189873427
      0.0189873427 0.0759493709 0. 0.00632911408 0.03164557 0.03164557
      0.0126582282 0.03164557 0.0189873427 0.0126582282 0.00632911408
      0.0569620281 0.03164557 0.0126582282 0.0253164563 0.03164557
      0.0253164563 0.0126582282 0.0506329127 0.0253164563 0.0443037972
      0. 0. 0.0189873427</_>
    <_>
      0.0229132567 0.0229132567 0.0163666122 0.00327332248 0.0130932899
      0.0392798707 0.00981996767 0.0180032738 0.0245499182 0.0310965627
      0.0392798707 0.0180032738 0.00654664496 0.00981996767
      0.00654664496 0.00654664496 0.0180032738 0.00654664496
      0.0212765969 0.0147299515 0.0229132567 0.0278232414 0.00490998384
      0.0638297871 0.0180032738 0.0130932899 0.0278232414 0.0474631749
      0.0114566283 0.00818330608 0.0180032738 0.0278232414 0.0261865798
      0.00654664496 0.0163666122 0.0245499182 0.029459903 0.0196399353
      0.0343698859 0.0180032738 0.0278232414 0.0180032738 0.0261865798
      0.00981996767 0.0212765969 0.0163666122 0.0212765969 0.00327332248
      0.00818330608 0.0327332243</_>
    <_>
      0.0109890113 0.0164835174 0.0439560451 0.00549450563 0.0329670347
      0.0109890113 0.0274725277 0.0219780225 0.0164835174 0.0109890113
      0.0329670347 0.0274725277 0.00549450563 0.0164835174 0.0164835174
      0.0384615399 0.0274725277 0.00549450563 0. 0.0109890113
      0.0109890113 0.00549450563 0.0274725277 0.0329670347 0.0109890113
      0.0274725277 0.0164835174 0.0219780225 0.00549450563 0.0274725277
      0.0219780225 0.0329670347 0.0219780225 0.0274725277 0.0494505502
      0.0109890113 0.0109890113 0.0164835174 0.0219780225 0.
      0.0109890113 0.0109890113 0.0329670347 0.0329670347 0.0274725277
      0.0274725277 0.0329670347 0.00549450563 0.0164835174 0.0219780225</_>
    <_>
      0.0153846163 0.0153846163 0.0205128212 0.00512820529 0.0205128212
      0.0153846163 0.025641026 0.025641026 0.0153846163 0.00512820529
      0.0461538471 0.025641026 0.0153846163 0.0102564106 0.0102564106
      0.051282052 0.0102564106 0.00512820529 0.00512820529 0.0153846163
      0.00512820529 0.00512820529 0.0153846163 0.0102564106 0.0205128212
      0.0358974375 0.0102564106 0.0153846163 0.0153846163 0.0307692327
      0.0205128212 0.0153846163 0.0205128212 0.0307692327 0.0461538471
      0.0153846163 0.0153846163 0.0307692327 0.0358974375 0.0102564106
      0.0410256423 0.0205128212 0.025641026 0.025641026 0.025641026
      0.0102564106 0.025641026 0.0358974375 0.025641026 0.</_>
    <_>
      0.0379746854 0.0126582282 0.0632911399 0.00632911408 0.03164557
      0.0189873427 0.0253164563 0.0253164563 0.0189873427 0.0189873427
      0.0253164563 0.0126582282 0.00632911408 0. 0.00632911408
      0.03164557 0.00632911408 0.00632911408 0. 0. 0.0189873427
      0.0189873427 0.0506329127 0. 0.0379746854 0.0126582282
      0.0189873427 0.00632911408 0. 0.0126582282 0.0379746854
      0.0189873427 0.00632911408 0.0126582282 0.0949367136 0.03164557
      0.0189873427 0.0189873427 0.0189873427 0.00632911408 0.0506329127
      0. 0.0569620281 0. 0.0126582282 0.0126582282 0.0126582282
      0.0126582282 0.0253164563 0.0189873427</_>
    <_>
      0.0326797403 0.00653594779 0.045751635 0.00653594779 0.0261437912
      0.0196078438 0.0261437912 0.0196078438 0.0326797403 0.00653594779
      0.0784313753 0.0326797403 0.0130718956 0. 0.00653594779
      0.0326797403 0. 0.0196078438 0.045751635 0. 0.0196078438
      0.0130718956 0.0130718956 0.00653594779 0.0261437912 0.0196078438
      0.0261437912 0.0261437912 0.00653594779 0.0130718956 0.0392156877
      0.0392156877 0.0196078438 0.0392156877 0.0653594807 0.00653594779
      0.00653594779 0.00653594779 0.00653594779 0.00653594779
      0.0196078438 0. 0.00653594779 0. 0.00653594779 0.045751635
      0.0130718956 0.0130718956 0.0261437912 0.0130718956</_>
    <_>
      0.021008404 0.00840336177 0.021008404 0.00420168089 0.021008404
      0.0168067235 0.0252100863 0.00420168089 0.00840336177 0.0462184884
      0.0378151275 0.0546218529 0.0126050431 0. 0.0294117667
      0.0294117667 0.00840336177 0.0126050431 0.0378151275 0.00840336177
      0.00840336177 0.0252100863 0.021008404 0. 0.0126050431
      0.0168067235 0.021008404 0.0126050431 0.00420168089 0.00840336177
      0.0294117667 0. 0.0252100863 0.0252100863 0.0588235334
      0.0588235334 0.00420168089 0.0252100863 0.0168067235 0.0168067235
      0.0378151275 0.021008404 0.0126050431 0.021008404 0. 0.021008404
      0.021008404 0.00840336177 0.0126050431 0.0462184884</_>
    <_>
      0.0390625 0.0296874996 0.0390625 0.0140625006 0.0250000004
      0.0218749996 0.0078125 0.0078125 0.0140625006 0.0218749996
      0.00937500037 0.0140625006 0.00312500005 0.00625000009
      0.0109374998 0.00625000009 0.0437499993 0.0125000002 0.0437499993
      0.0296874996 0.0125000002 0.0281250011 0.0140625006 0.0281250011
      0.03125 0.0125000002 0.0171875004 0.0125000002 0.0140625006
      0.00468750019 0.0125000002 0.00937500037 0.0421875007 0.0140625006
      0.0140625006 0.0109374998 0.0109374998 0.0218749996 0.0218749996
      0.0125000002 0.0281250011 0.0390625 0.0453125015 0.00937500037
      0.0406250022 0.0203125011 0.015625 0.00468750019 0.0375000015
      0.0140625006</_>
    <_>
      0.0729926974 0.0510948896 0.00729927002 0.00729927002 0.0218978096
      0.00729927002 0.00729927002 0.00729927002 0.0218978096
      0.0364963487 0.0437956192 0. 0.00729927002 0.00729927002
      0.00729927002 0.0291970801 0.01459854 0.00729927002 0.
      0.00729927002 0.01459854 0.0218978096 0.0364963487 0.0510948896
      0.0291970801 0.0364963487 0.0291970801 0.0291970801 0.
      0.00729927002 0.0291970801 0.0291970801 0. 0.01459854 0.01459854
      0.0291970801 0.00729927002 0. 0.0291970801 0.01459854 0.0437956192
      0.0729926974 0.0291970801 0.01459854 0. 0. 0.0291970801
      0.00729927002 0.01459854 0.</_>
    <_>
      0.0462287106 0.0291970801 0.00973236002 0.01946472 0.0316301696
      0.0121654496 0.00486618001 0.0121654496 0.0121654496 0.0170316305
      0.0291970801 0.01946472 0.00243309001 0.01459854 0.00973236002
      0.0170316305 0.0364963487 0.0243308991 0.0121654496 0.0243308991
      0.0170316305 0.0267639905 0.0170316305 0.0170316305 0.0218978096
      0.0170316305 0.0218978096 0.0437956192 0.01459854 0.0121654496
      0.0291970801 0.0218978096 0.00973236002 0.0170316305 0.0121654496
      0.01459854 0.0121654496 0.01459854 0.0364963487 0.01946472
      0.0267639905 0.01946472 0.0267639905 0.00729927002 0.0510948896
      0.034063261 0.01946472 0.0121654496 0.00729927002 0.01459854</_>
    <_>
      0.038961038 0.0363636352 0.0051948051 0.00779220741 0.0181818176
      0.0259740259 0.00779220741 0. 0.0207792204 0.0155844148
      0.0623376593 0.0259740259 0.0051948051 0.0051948051 0.00259740255
      0.0103896102 0.0181818176 0.00779220741 0.00779220741 0.0259740259
      0.0103896102 0.0181818176 0.0103896102 0.0493506491 0.0207792204
      0.0051948051 0.038961038 0.0363636352 0.0207792204 0.0233766232
      0.0103896102 0.0493506491 0.0233766232 0.012987013 0.0103896102
      0.0181818176 0.0051948051 0.012987013 0.0337662324 0.0259740259
      0.0181818176 0.0181818176 0.012987013 0.012987013 0.0337662324
      0.0155844148 0.038961038 0.012987013 0.0207792204 0.0311688296</_>
    <_>
      0. 0. 0.0496453866 0.0212765951 0.0212765951 0.00709219836
      0.0212765951 0.00709219836 0.0283687934 0. 0.0780141801
      0.0283687934 0.0141843967 0. 0.0354609936 0.0283687934
      0.00709219836 0.0425531901 0.0212765951 0.0212765951 0.
      0.0212765951 0.0283687934 0.0354609936 0.0212765951 0.0496453866
      0. 0. 0.00709219836 0.0425531901 0.0425531901 0.0283687934 0.
      0.0212765951 0.0567375869 0.0283687934 0.0141843967 0. 0. 0.
      0.0141843967 0.0141843967 0.00709219836 0.0212765951 0.
      0.0567375869 0. 0.0212765951 0.0283687934 0.00709219836</_>
    <_>
      0.0338345878 0.0112781953 0.0300751887 0.0187969934 0.00751879718
      0.0225563906 0.0150375944 0.0225563906 0.0338345878 0.0150375944
      0.0676691756 0.0338345878 0.0150375944 0.0187969934 0.0263157897
      0.0225563906 0. 0.0300751887 0.0526315793 0.0150375944 0.
      0.0187969934 0.0225563906 0.00751879718 0.0150375944 0.0300751887
      0.0112781953 0.00751879718 0.0150375944 0.0413533859 0.0225563906
      0.0112781953 0.0413533859 0.0112781953 0.0300751887 0.0263157897
      0.0150375944 0.0150375944 0.00751879718 0.0150375944 0.0112781953
      0.00751879718 0.00751879718 0.0187969934 0.00751879718
      0.0225563906 0.0150375944 0.0300751887 0.0112781953 0.0112781953</_>
    <_>
      0.023346303 0.0142671857 0.00259403372 0.0142671857 0.0246433206
      0.00648508407 0.00907911826 0.00389105058 0.0259403363
      0.0505836569 0.00907911826 0.0259403363 0.00129701686
      0.00778210117 0.0207522698 0.0129701681 0.0155642023 0.0155642023
      0.0181582365 0.0246433206 0.0285343714 0.036316473 0.023346303
      0.0298313871 0.0415045395 0.0194552522 0.0272373538 0.0272373538
      0.0129701681 0.023346303 0.0272373538 0.00778210117 0.0103761349
      0.0272373538 0.00778210117 0.0570687428 0.00129701686
      0.00907911826 0.0285343714 0.0194552522 0.0220492873 0.0259403363
      0.00907911826 0.0259403363 0.0116731515 0.0259403363 0.0298313871
      0.00259403372 0.00778210117 0.0466926061</_>
    <_>
      0.0222222228 0.0111111114 0.027777778 0.00555555569 0.0111111114
      0.00555555569 0.0166666675 0. 0.0166666675 0.0222222228
      0.0777777806 0.055555556 0. 0. 0.0111111114 0.00555555569
      0.0222222228 0.0111111114 0.0111111114 0.0444444455 0.0222222228
      0.0333333351 0.0333333351 0.0222222228 0.0388888903 0.0111111114
      0.027777778 0.055555556 0.0222222228 0.0111111114 0.0222222228
      0.0388888903 0.0111111114 0.0166666675 0.0333333351 0.0166666675
      0. 0. 0.0111111114 0. 0.0166666675 0.027777778 0.0444444455
      0.0166666675 0.00555555569 0.0111111114 0.0222222228 0.0111111114
      0.0111111114 0.027777778</_>
    <_>
      0.0868725851 0.0154440152 0.0154440152 0.0115830116 0.0135135129
      0.0115830116 0.0154440152 0.00386100379 0.0231660232 0.0154440152
      0.0366795361 0.0270270258 0.0115830116 0.00772200758 0.00965250935
      0.00965250935 0.0308880303 0.0115830116 0.0405405387 0.0386100374
      0.00772200758 0.0250965245 0.0115830116 0.0270270258 0.0115830116
      0.0135135129 0.0115830116 0.0308880303 0.0173745174 0.00965250935
      0.0154440152 0.0154440152 0.0328185335 0.00772200758 0.0193050187
      0.0154440152 0.0057915058 0.0270270258 0.0328185335 0.0193050187
      0.0193050187 0.0270270258 0.0308880303 0.00965250935 0.0444015451
      0.02123552 0.028957529 0.00193050189 0.00772200758 0.0154440152</_>
    <_>
      0.0714285746 0.0317460336 0.0714285746 0.039682541 0.0238095261
      0.0158730168 0. 0.0158730168 0.0317460336 0.00793650839
      0.0238095261 0. 0.00793650839 0.00793650839 0.0158730168
      0.00793650839 0.0158730168 0.00793650839 0.00793650839
      0.0158730168 0. 0.00793650839 0.0317460336 0. 0.0238095261
      0.0317460336 0.00793650839 0.0238095261 0.0238095261 0.00793650839
      0.0317460336 0.00793650839 0.00793650839 0.039682541 0.0555555597
      0.039682541 0.0158730168 0.0158730168 0.0158730168 0.0238095261
      0.00793650839 0.0317460336 0.00793650839 0.0158730168 0.0158730168
      0.0317460336 0.0238095261 0.00793650839 0.0238095261 0.</_>
    <_>
      0.0533333346 0. 0.00666666683 0. 0. 0.0466666669 0.0266666673
      0.00666666683 0.00666666683 0.0333333351 0.0600000024 0.0199999996
      0.00666666683 0. 0.00666666683 0.00666666683 0. 0. 0.0266666673
      0.0133333337 0.00666666683 0.0266666673 0.0333333351 0.0333333351
      0.0399999991 0.0133333337 0.0266666673 0.0199999996 0.
      0.0133333337 0.0333333351 0.0666666701 0.00666666683 0.00666666683
      0.0333333351 0.0199999996 0.0133333337 0.00666666683 0.0266666673
      0.00666666683 0.0266666673 0.0399999991 0. 0.0266666673
      0.0266666673 0.0266666673 0.0533333346 0.0199999996 0.0266666673
      0.</_>
    <_>
      0.0155172413 0.0155172413 0.0293103456 0.0137931034 0.0137931034
      0.0172413792 0.0396551713 0.00344827585 0.0172413792 0.0344827585
      0.0189655162 0.0310344826 0.00172413792 0.00344827585
      0.00862068962 0.022413794 0.0137931034 0.00862068962 0.00344827585
      0.022413794 0.0500000007 0.0482758619 0.043103449 0.0258620679
      0.0396551713 0.0155172413 0.0293103456 0.022413794 0.0103448275
      0.0137931034 0.0103448275 0.0327586196 0.00344827585 0.0120689655
      0.0327586196 0.0155172413 0.0103448275 0.0103448275 0.0189655162
      0.0068965517 0.0293103456 0.0275862068 0.0155172413 0.0120689655
      0.0137931034 0.0172413792 0.022413794 0.00517241377 0.0241379309
      0.046551723</_>
    <_>
      0.0457142852 0.0142857144 0.0114285713 0.0114285713 0.0199999996
      0.0142857144 0.0171428565 0.00285714283 0.0285714287 0.0142857144
      0.0199999996 0.0142857144 0. 0.0257142857 0.0114285713
      0.00857142825 0.0114285713 0.00857142825 0.0457142852 0.0371428579
      0.0142857144 0.0199999996 0.0142857144 0.0485714264 0.0257142857
      0.0142857144 0.0228571426 0.0199999996 0.0114285713 0.00285714283
      0.0171428565 0.0114285713 0.0457142852 0.00571428565 0.0257142857
      0.00857142825 0.00857142825 0.0457142852 0.0399999991 0.0142857144
      0.0314285718 0.0228571426 0.0142857144 0.00857142825 0.0228571426
      0.0285714287 0.0314285718 0.00285714283 0.0257142857 0.0314285718</_>
    <_>
      0.0482180268 0.0398322828 0.0377358496 0.0125786159 0.0230607949
      0.0209643599 0.0188679248 0.00419287197 0.0167714879 0.0146750519
      0.0419287197 0.00628930796 0.00419287197 0.0167714879 0.0104821799
      0.0125786159 0.0272536688 0.0125786159 0.0125786159 0.0230607949
      0.0293501038 0.0251572318 0.0146750519 0.0209643599 0.0314465389
      0.00419287197 0.0293501038 0.0398322828 0.0146750519 0.0104821799
      0.0125786159 0.0188679248 0.0104821799 0.00838574395 0.00838574395
      0.00419287197 0.00628930796 0.0607966445 0.0251572318 0.0146750519
      0.0230607949 0.0230607949 0.0419287197 0.0125786159 0.0482180268
      0.0125786159 0.0209643599 0.00419287197 0.00628930796 0.0125786159</_>
    <_>
      0.0336749628 0.0322108343 0.0161054172 0.0190336742 0.0117130307
      0.02489019 0.0204978045 0.0117130307 0.0102489023 0.0336749628
      0.0278184488 0.00732064433 0.00292825769 0.0175695457 0.0161054172
      0.00585651537 0.0380673483 0.0146412887 0.0161054172 0.0131771592
      0.0307467058 0.0307467058 0.0190336742 0.0204978045 0.0234260615
      0.0175695457 0.0307467058 0.0175695457 0.0190336742 0.00439238641
      0.0146412887 0.0234260615 0.0204978045 0.0190336742 0.0336749628
      0.0278184488 0.00878477283 0.02489019 0.02489019 0.0175695457
      0.0161054172 0.0146412887 0.021961933 0.0117130307 0.0234260615
      0.0234260615 0.0234260615 0.00732064433 0.0351390913 0.0204978045</_>
    <_>
      0.0241758246 0.0219780225 0.0153846163 0.0285714306 0.0153846163
      0.0241758246 0.0285714306 0.0153846163 0.0175824184 0.0043956046
      0.0373626389 0.0263736285 0.0197802205 0.0219780225 0.0153846163
      0.0329670347 0.0131868143 0.00659340713 0.0131868143 0.0219780225
      0.0285714306 0.0153846163 0.0197802205 0.0153846163 0.0307692327
      0.0197802205 0.0197802205 0.0329670347 0.0197802205 0.0263736285
      0.0241758246 0.0197802205 0.0109890113 0.0131868143 0.0153846163
      0.0131868143 0.0219780225 0.0285714306 0.0219780225 0.0219780225
      0.0175824184 0.0285714306 0.0307692327 0.0219780225 0.0109890113
      0.0351648368 0.0153846163 0.0021978023 0.00659340713 0.00659340713</_>
    <_>
      0.00800000038 0.0240000002 0.0320000015 0.0320000015 0.0240000002
      0.00800000038 0.00800000038 0.0160000008 0.0160000008 0.0560000017
      0.0320000015 0.0400000028 0.00800000038 0. 0.0160000008
      0.00800000038 0. 0. 0.00800000038 0.00800000038 0. 0.0240000002
      0.0320000015 0.00800000038 0.0160000008 0.0400000028 0.00800000038
      0.0160000008 0.00800000038 0.0160000008 0.0480000004 0.0320000015
      0.0160000008 0. 0.00800000038 0.088000007 0.00800000038
      0.00800000038 0.0160000008 0.0320000015 0.0240000002 0.0320000015
      0.00800000038 0.0400000028 0.0160000008 0.0160000008 0.0160000008
      0.0160000008 0.0240000002 0.0400000028</_>
    <_>
      0.025641026 0.0146520147 0.0109890113 0.00732600736 0.0109890113
      0.0146520147 0.0183150191 0.0293040294 0.0366300382 0.0183150191
      0.0439560451 0.0183150191 0.00732600736 0. 0.0219780225
      0.0146520147 0.00732600736 0.0219780225 0.00366300368 0.0183150191
      0.0219780225 0.0329670347 0.0146520147 0.0109890113 0.0146520147
      0.0219780225 0.00366300368 0.0219780225 0.025641026 0.051282052
      0.0329670347 0.0219780225 0.0329670347 0.0219780225 0.00732600736
      0.0476190485 0.00366300368 0.025641026 0.0219780225 0.0329670347
      0.0219780225 0.0183150191 0.0219780225 0.0183150191 0.025641026
      0.025641026 0.00366300368 0.0146520147 0.025641026 0.0109890113</_>
    <_>
      0.0421686731 0.0481927693 0.0301204808 0.0180722885 0.0120481923
      0.00602409616 0.0180722885 0.0120481923 0.0240963846 0.0120481923
      0.0240963846 0.0240963846 0.0180722885 0.00602409616 0.00602409616
      0.0301204808 0.0240963846 0.0120481923 0. 0.0180722885
      0.0301204808 0.0120481923 0.0240963846 0.0180722885 0.0481927693
      0.0120481923 0.0180722885 0.00602409616 0.0301204808 0.0120481923
      0.00602409616 0.0602409616 0.036144577 0.00602409616 0.0602409616
      0.0120481923 0.0180722885 0.00602409616 0.0180722885 0.00602409616
      0.0301204808 0.036144577 0.0240963846 0. 0.0120481923 0.0180722885
      0.0240963846 0.0120481923 0. 0.0180722885</_>
    <_>
      0.056910567 0.040650405 0.024390243 0.0121951215 0.0040650405
      0.0365853645 0.0121951215 0. 0.008130081 0.016260162 0.0691056848
      0.0040650405 0.008130081 0.0121951215 0.016260162 0.016260162
      0.016260162 0.024390243 0.008130081 0.0121951215 0.016260162
      0.024390243 0.0203252025 0.024390243 0.016260162 0.0203252025
      0.0284552835 0.0691056848 0.008130081 0.0203252025 0.016260162
      0.0284552835 0.0040650405 0.008130081 0.0203252025 0.0121951215
      0.0121951215 0.016260162 0.0284552835 0.024390243 0.016260162
      0.0203252025 0.024390243 0.0203252025 0.048780486 0.0040650405
      0.0284552835 0.0040650405 0.0040650405 0.0121951215</_>
    <_>
      0.025641026 0.025641026 0.0541310534 0.0199430194 0.00569800567
      0.0113960113 0.0199430194 0.0199430194 0.0113960113 0.0113960113
      0.0227920227 0.0170940161 0.025641026 0.0313390307 0.0199430194
      0.0142450146 0.0341880322 0.00854700804 0.0113960113 0.025641026
      0.0199430194 0.0113960113 0.0142450146 0.0142450146 0.0113960113
      0.0113960113 0.025641026 0.0227920227 0.0227920227 0.0170940161
      0.0227920227 0.0170940161 0.0341880322 0.0199430194 0.0427350439
      0. 0.0199430194 0.0427350439 0.0227920227 0.0199430194
      0.0170940161 0.0113960113 0.0313390307 0.0170940161 0.0313390307
      0.0170940161 0.0113960113 0.0113960113 0.0142450146 0.00854700804</_>
    <_>
      0.0726643652 0.00692041544 0.0242214538 0.0138408309 0.0207612459
      0.0138408309 0.0173010379 0.00346020772 0.0103806229 0.0138408309
      0.0899654031 0.0276816618 0.00346020772 0.0242214538 0.0173010379
      0.0103806229 0.0173010379 0.0138408309 0.0242214538 0.0276816618
      0.0173010379 0.0138408309 0.0173010379 0.0415224917 0.0380622856
      0.0346020758 0.0207612459 0.0311418697 0.0138408309 0.0103806229
      0.0207612459 0.0242214538 0.00692041544 0.0103806229 0.0173010379
      0. 0.00692041544 0.0276816618 0.0207612459 0.00692041544
      0.0138408309 0.0276816618 0.0207612459 0.0138408309 0.0103806229
      0.0242214538 0.0242214538 0.0103806229 0.00692041544 0.0138408309</_>
    <_>
      0.0492227972 0.018134715 0.0207253881 0.0336787552 0.010362694
      0.0207253881 0.018134715 0.018134715 0.0155440411 0.0155440411
      0.0777202025 0.0284974091 0.0284974091 0.0284974091 0.0155440411
      0.00777202053 0.0233160611 0.00518134702 0.00259067351
      0.0233160611 0.0362694301 0.00777202053 0.0129533671 0.0388601013
      0.010362694 0.0336787552 0.0233160611 0.010362694 0.0362694301
      0.0129533671 0.0155440411 0.0414507762 0.0207253881 0.0155440411
      0.0284974091 0.0129533671 0.0336787552 0.00259067351 0.0259067342
      0.00259067351 0.0129533671 0.018134715 0.010362694 0.0155440411
      0.00518134702 0.00777202053 0.0155440411 0.00777202053
      0.00259067351 0.0207253881</_>
    <_>
      0.0406091362 0.0253807101 0.0507614203 0.0203045681 0.0152284261
      0.0304568522 0.00507614203 0. 0.0355329961 0.0203045681
      0.0355329961 0.0203045681 0. 0. 0.0152284261 0.0203045681
      0.00507614203 0.00507614203 0.0152284261 0.0101522841 0.0152284261
      0.0101522841 0.0152284261 0.0355329961 0.0203045681 0.00507614203
      0.0152284261 0.0456852764 0.0152284261 0.0101522841 0.0203045681
      0.0203045681 0.0304568522 0.0253807101 0.0355329961 0.0152284261
      0.0152284261 0.0253807101 0.00507614203 0.0253807101 0.0152284261
      0.0304568522 0.0152284261 0.0101522841 0.0253807101 0.0304568522
      0.0304568522 0. 0.0406091362 0.0253807101</_>
    <_>
      0.0367346928 0.0285714269 0.0326530598 0.0163265299 0.0285714269
      0. 0. 0.00408163248 0.00816326495 0.0448979586 0.0734693855
      0.012244897 0. 0.00408163248 0.0204081628 0.0204081628
      0.0326530598 0.0367346928 0.0244897939 0.0244897939 0.012244897
      0.0163265299 0.012244897 0.012244897 0.0204081628 0.012244897
      0.00408163248 0.0408163257 0.012244897 0.0163265299 0.0204081628
      0.0244897939 0.0244897939 0.0367346928 0.0326530598 0.0326530598
      0. 0.0163265299 0.0285714269 0. 0.012244897 0.0163265299
      0.0326530598 0.00408163248 0.0204081628 0. 0.0326530598
      0.00816326495 0.0204081628 0.0285714269</_>
    <_>
      0.0124223605 0.00621118024 0.0310559012 0.00621118024 0.0310559012
      0.00621118024 0.0310559012 0.0124223605 0.0186335407 0.0186335407
      0.024844721 0.0124223605 0.00621118024 0.024844721 0.00621118024
      0.024844721 0.0186335407 0.00621118024 0.0372670814 0.
      0.00621118024 0.0372670814 0.0372670814 0.0186335407 0.024844721
      0.0372670814 0.0186335407 0.0186335407 0. 0.0186335407 0.024844721
      0.0372670814 0.0372670814 0.024844721 0.0310559012 0.00621118024
      0.0124223605 0.0496894419 0.00621118024 0. 0.0186335407
      0.024844721 0.0186335407 0.0186335407 0.0186335407 0.0372670814
      0.0186335407 0.0186335407 0.0310559012 0.0124223605</_>
    <_>
      0.0278745648 0.0209059231 0.0104529615 0.0243902449 0.0139372824
      0.0174216032 0.022648083 0.00696864119 0.0139372824 0.0209059231
      0.0365853645 0.0156794433 0.0104529615 0.0104529615 0.0087108016
      0.0104529615 0.0209059231 0.0174216032 0.0121951224 0.0348432064
      0.0209059231 0.0296167247 0.0278745648 0.0243902449 0.0209059231
      0.0087108016 0.0261324048 0.0191637632 0.0191637632 0.0104529615
      0.0191637632 0.0313588865 0.022648083 0.0156794433 0.0156794433
      0.0278745648 0.0191637632 0.0209059231 0.0296167247 0.022648083
      0.022648083 0.0331010446 0.0243902449 0.0156794433 0.0243902449
      0.0243902449 0.0296167247 0.00522648077 0.0174216032 0.0139372824</_>
    <_>
      0. 0.0157894753 0.0210526325 0.0157894753 0.0315789506
      0.00526315812 0.0368421078 0.0157894753 0.0210526325 0.0315789506
      0.0210526325 0. 0. 0.00526315812 0.00526315812 0.0263157897
      0.0157894753 0.0315789506 0. 0.0210526325 0.00526315812
      0.0473684222 0.0526315793 0.0157894753 0.0263157897 0.0105263162
      0.0473684222 0.042105265 0.0210526325 0.0315789506 0.0263157897
      0.0526315793 0. 0.00526315812 0.0473684222 0.0368421078
      0.0157894753 0.00526315812 0.0105263162 0.0210526325 0.0315789506
      0.0263157897 0.0263157897 0.0105263162 0.0105263162 0.0368421078
      0.00526315812 0.00526315812 0.00526315812 0.</_>
    <_>
      0.0220000017 0.00400000019 0.0180000011 0.0200000014 0.00800000038
      0.0400000028 0.0160000008 0.0100000007 0.0300000012 0.0260000005
      0.074000001 0.0200000014 0.0160000008 0.0320000015 0.0100000007
      0.0140000004 0.0360000022 0.0160000008 0.0220000017 0.0200000014
      0.0120000001 0.0140000004 0.0300000012 0.0160000008 0.0160000008
      0.0100000007 0.0200000014 0.0100000007 0.0260000005 0.0200000014
      0.0220000017 0.00800000038 0.0340000018 0.00800000038 0.0320000015
      0.0120000001 0.00600000005 0.0120000001 0.0220000017 0.0300000012
      0.0260000005 0.0180000011 0.0240000002 0.0200000014 0.0180000011
      0.0160000008 0.0180000011 0.0100000007 0.0100000007 0.0260000005</_>
    <_>
      0.021739129 0.0173913036 0.0173913036 0. 0.0173913036 0.0391304344
      0.0130434781 0.0130434781 0.0173913036 0.0478260852 0.0739130378
      0.021739129 0. 0. 0.0260869563 0.00869565178 0. 0.00869565178
      0.021739129 0.0260869563 0.0260869563 0.0173913036 0.0173913036
      0.00869565178 0.0478260852 0.00869565178 0.0130434781 0.021739129
      0.0173913036 0.021739129 0.0130434781 0.0347826071 0.00434782589
      0.0304347817 0.0608695634 0.043478258 0.0130434781 0. 0.0304347817
      0.0173913036 0.0260869563 0.0130434781 0.00869565178 0.021739129
      0.00434782589 0.0260869563 0.0173913036 0.00869565178
      0.00434782589 0.0304347817</_>
    <_>
      0.0333333351 0. 0.0333333351 0.00666666683 0.00666666683
      0.00666666683 0.0399999991 0.00666666683 0.0133333337 0.0133333337
      0.086666666 0.0133333337 0.00666666683 0.00666666683 0.0266666673
      0.0133333337 0. 0.00666666683 0.0333333351 0.0133333337
      0.00666666683 0.0333333351 0.0333333351 0.0133333337 0.0266666673
      0.0199999996 0.0133333337 0.0266666673 0.0133333337 0.0133333337
      0.0333333351 0.0133333337 0.0266666673 0.00666666683 0.0399999991
      0.0266666673 0.0133333337 0.0133333337 0.0466666669 0.
      0.0333333351 0.0199999996 0.0133333337 0. 0.00666666683
      0.0333333351 0.0466666669 0.0199999996 0.0133333337 0.0266666673</_>
    <_>
      0.0495049506 0.00990098994 0.0495049506 0. 0.0198019799 0.
      0.0198019799 0.00990098994 0.0495049506 0. 0.0198019799
      0.0297029689 0.0198019799 0. 0. 0.00990098994 0.0297029689 0. 0.
      0.0297029689 0. 0.00990098994 0.0297029689 0.0792079195
      0.00990098994 0.0198019799 0.0198019799 0.00990098994
      0.00990098994 0.0297029689 0.0297029689 0.0198019799 0.00990098994
      0.0198019799 0.0594059378 0.00990098994 0.0396039598 0.
      0.0198019799 0. 0.0594059378 0.00990098994 0.0396039598
      0.00990098994 0.0693069324 0.0297029689 0. 0. 0.00990098994 0.</_>
    <_>
      0.019480519 0.012987013 0.038961038 0.012987013 0.00649350649
      0.012987013 0.019480519 0.00649350649 0.0259740259 0.0259740259
      0.058441557 0.0324675329 0.00649350649 0. 0.012987013 0.0259740259
      0. 0.00649350649 0.038961038 0.012987013 0.019480519 0.0714285746
      0. 0. 0.012987013 0.0259740259 0.0324675329 0.097402595
      0.012987013 0.019480519 0.0324675329 0.0324675329 0.0259740259 0.
      0.038961038 0.0259740259 0.00649350649 0.00649350649 0.00649350649
      0.00649350649 0.0259740259 0.00649350649 0.00649350649
      0.0324675329 0. 0.038961038 0.0259740259 0.012987013 0. 0.</_>
    <_>
      0.0275862068 0.0413793102 0.0344827585 0.0068965517 0.0068965517
      0.0344827585 0.0344827585 0.0137931034 0. 0.0206896551
      0.0620689653 0.0137931034 0.0068965517 0.0137931034 0.0275862068
      0.0137931034 0. 0.0137931034 0.0068965517 0.0068965517 0.
      0.0344827585 0.0068965517 0.0344827585 0.0275862068 0.0275862068
      0.0413793102 0.0137931034 0.0206896551 0.0275862068 0.0482758619
      0.0275862068 0.0137931034 0.0137931034 0.0344827585 0.0068965517
      0.0206896551 0.0068965517 0.0068965517 0.0275862068 0.0206896551
      0.0275862068 0. 0.0275862068 0.0206896551 0.0275862068
      0.0137931034 0.0206896551 0. 0.0137931034</_>
    <_>
      0.0142857144 0.00714285718 0.0357142873 0.0285714287 0.0142857144
      0.0285714287 0.00714285718 0.00714285718 0.0142857144 0.0357142873
      0.0571428575 0.0142857144 0. 0.00714285718 0.021428572
      0.0642857179 0. 0.00714285718 0.00714285718 0. 0.021428572
      0.042857144 0.021428572 0.00714285718 0.021428572 0.0142857144
      0.021428572 0.0357142873 0. 0.021428572 0.021428572 0.00714285718
      0.0142857144 0.0357142873 0.0571428575 0.0357142873 0. 0.
      0.021428572 0.0142857144 0.021428572 0.021428572 0.021428572
      0.0285714287 0. 0.042857144 0.0142857144 0.021428572 0.0285714287
      0.0142857144</_>
    <_>
      0. 0.00606060587 0.0484848469 0.0181818176 0.0363636352
      0.0242424235 0.0303030293 0.00606060587 0.0181818176 0.0242424235
      0.0424242392 0.0303030293 0.0121212117 0. 0.0242424235
      0.0424242392 0.0242424235 0.00606060587 0.00606060587 0.0181818176
      0.0303030293 0.0242424235 0.0242424235 0.0424242392 0.0121212117
      0.0545454547 0.0242424235 0.0121212117 0.00606060587 0.0242424235
      0.0181818176 0.0242424235 0.00606060587 0.00606060587 0.0424242392
      0.0303030293 0.0303030293 0.0121212117 0.0121212117 0.00606060587
      0.0121212117 0.00606060587 0.0242424235 0. 0.0121212117
      0.0121212117 0.0181818176 0.00606060587 0.0181818176 0.0303030293</_>
    <_>
      0.0372670814 0.024844721 0.00621118024 0.00621118024 0.0124223605
      0.0186335407 0.0310559012 0.0124223605 0.0186335407 0.00621118024
      0.0124223605 0.0372670814 0.0186335407 0. 0.0124223605
      0.0186335407 0. 0.0124223605 0.0310559012 0. 0.00621118024
      0.0124223605 0.0186335407 0.0559006222 0.0310559012 0.0310559012
      0.00621118024 0.0124223605 0.0124223605 0.00621118024 0.024844721
      0.0310559012 0.0807453394 0.0124223605 0.0186335407 0.
      0.0186335407 0.0124223605 0.024844721 0.0186335407 0.0434782617
      0.0372670814 0.0124223605 0.0186335407 0.0186335407 0.024844721
      0.0372670814 0.00621118024 0.0310559012 0.0186335407</_>
    <_>
      0. 0.00719424477 0.0431654677 0.0215827338 0.00719424477
      0.0287769791 0.00719424477 0.00719424477 0.0503597148 0.0215827338
      0.0215827338 0.0215827338 0.0143884895 0.00719424477 0.0287769791
      0.0431654677 0. 0.0359712243 0.0575539581 0.0215827338
      0.0143884895 0.0143884895 0.0287769791 0. 0.0287769791
      0.0431654677 0.0143884895 0.00719424477 0.00719424477 0.0287769791
      0.0935251787 0.00719424477 0. 0.0143884895 0.0215827338
      0.00719424477 0.0215827338 0.0143884895 0. 0.00719424477
      0.0215827338 0.00719424477 0.00719424477 0.0287769791 0.0143884895
      0.0287769791 0.0143884895 0.0215827338 0.0143884895 0.0215827338</_>
    <_>
      0.0377358496 0.0188679248 0.0566037744 0.0094339624 0.0094339624
      0. 0.0283018872 0.0283018872 0.0283018872 0. 0.0377358496
      0.0377358496 0.0377358496 0.0188679248 0. 0.0566037744 0. 0. 0.
      0.0094339624 0.0188679248 0.0377358496 0.0283018872 0.
      0.0188679248 0.0283018872 0. 0. 0. 0.0188679248 0.0660377368
      0.0094339624 0.0283018872 0.0188679248 0.0849056616 0.0188679248
      0.0283018872 0.0283018872 0.0188679248 0. 0.0188679248
      0.0094339624 0.0094339624 0. 0. 0.0566037744 0.0094339624
      0.0283018872 0. 0.</_>
    <_>
      0.0476190448 0.0204081628 0.0136054419 0.00680272095 0.0136054419
      0.0136054419 0.0136054419 0. 0.0204081628 0.0340136066
      0.0340136066 0.00680272095 0.00680272095 0.00680272095
      0.0136054419 0.0272108838 0.0204081628 0.0136054419 0.0136054419
      0. 0. 0.0204081628 0.00680272095 0.0816326514 0.00680272095
      0.0408163257 0.0136054419 0.00680272095 0.00680272095 0.0136054419
      0.0476190448 0.0204081628 0.0340136066 0.0204081628 0.0408163257
      0.00680272095 0.0204081628 0.0272108838 0. 0.00680272095
      0.0340136066 0.0204081628 0.0204081628 0. 0.0272108838
      0.0680272132 0.0408163257 0.0204081628 0.0136054419 0.00680272095</_>
    <_>
      0.03125 0. 0.046875 0. 0. 0.0234375 0.0078125 0.03125 0.0234375
      0.0078125 0.0390625 0.03125 0.0390625 0.0234375 0. 0.0234375 0.
      0.015625 0.0234375 0.0234375 0.0078125 0.0234375 0. 0.015625
      0.03125 0.0390625 0.0078125 0.0234375 0.0078125 0.0234375 0.015625
      0.015625 0.0234375 0.03125 0.03125 0.015625 0.015625 0.0234375
      0.0390625 0.015625 0.046875 0.0078125 0.0234375 0.015625 0.015625
      0.0390625 0. 0.0078125 0.03125 0.015625</_>
    <_>
      0.0104712043 0.0104712043 0.0471204184 0.0157068074 0.0104712043
      0.00523560215 0.0209424086 0.0261780098 0.0209424086 0.0157068074
      0.0261780098 0.0314136147 0.0157068074 0.0157068074 0.0157068074
      0.0471204184 0.0104712043 0.0104712043 0.0104712043 0.00523560215
      0. 0.0209424086 0.00523560215 0. 0.0261780098 0.0314136147
      0.0261780098 0.0104712043 0.0104712043 0.0157068074 0.0471204184
      0.036649216 0.0209424086 0.0104712043 0.068062827 0.036649216
      0.0104712043 0.0209424086 0.0157068074 0.0104712043 0.00523560215
      0.0209424086 0.0261780098 0.0209424086 0.0104712043 0.0471204184
      0.0157068074 0.0314136147 0.0209424086 0.00523560215</_>
    <_>
      0.0250000022 0.0250000022 0.00833333377 0. 0.0333333351
      0.0500000045 0.0583333373 0.00833333377 0.0166666675 0.0666666701
      0.0333333351 0.00833333377 0.00833333377 0. 0. 0. 0.00833333377
      0.0250000022 0. 0.00833333377 0.0250000022 0.0250000022
      0.0166666675 0.0583333373 0. 0.0250000022 0.0166666675
      0.00833333377 0.00833333377 0.00833333377 0.0333333351
      0.0333333351 0.0166666675 0.0416666679 0.0416666679 0.0333333351
      0.0166666675 0. 0. 0. 0.0416666679 0.0166666675 0. 0.0166666675 0.
      0.0250000022 0.0500000045 0.0166666675 0.0333333351 0.00833333377</_>
    <_>
      0.0117647061 0. 0.0411764719 0.0117647061 0.0294117648
      0.0352941193 0.0117647061 0.0294117648 0.0176470596 0.0411764719
      0.0352941193 0.052941177 0.0235294122 0.00588235306 0.00588235306
      0.0117647061 0.00588235306 0.0176470596 0.00588235306 0.0294117648
      0.0117647061 0.0352941193 0.0235294122 0.00588235306 0.0117647061
      0.0176470596 0.0117647061 0. 0.0294117648 0.0235294122 0.052941177
      0.00588235306 0. 0.0117647061 0.0294117648 0.0352941193
      0.0235294122 0. 0.0235294122 0.0117647061 0.0235294122
      0.0117647061 0.0294117648 0.0411764719 0. 0.0235294122
      0.00588235306 0.0470588244 0.0176470596 0.0117647061</_>
    <_>
      0.00492610829 0.0197044332 0.0443349741 0. 0. 0.0344827585
      0.0147783253 0.0147783253 0.0197044332 0.00985221658 0.0837438405
      0.0147783253 0.00985221658 0. 0.00985221658 0.00985221658 0.
      0.0197044332 0.0147783253 0.00985221658 0.0147783253 0.00492610829
      0.0295566507 0. 0.0344827585 0.0197044332 0.024630541 0.0295566507
      0.0147783253 0.0147783253 0.049261082 0.0394088663 0.0147783253
      0.024630541 0.0837438405 0.0541871898 0.00492610829 0.
      0.0197044332 0.00985221658 0.0344827585 0.0197044332 0.
      0.0147783253 0.00985221658 0.0443349741 0.0197044332 0.00492610829
      0.00492610829 0.024630541</_>
    <_>
      0.021428572 0.0285714287 0.0500000007 0. 0. 0. 0.042857144
      0.0142857144 0.00714285718 0.021428572 0.0285714287 0.0142857144
      0.00714285718 0. 0. 0.021428572 0.00714285718 0.0142857144
      0.00714285718 0. 0.0357142873 0.00714285718 0.0500000007
      0.021428572 0.0285714287 0.0357142873 0.0357142873 0.00714285718
      0. 0.021428572 0.0357142873 0.0642857179 0.021428572 0.0142857144
      0.021428572 0.0142857144 0.00714285718 0.0142857144 0.042857144 0.
      0.021428572 0.042857144 0.021428572 0.021428572 0.0142857144
      0.0285714287 0. 0.021428572 0.0357142873 0.0285714287</_>
    <_>
      0.0199999996 0.0399999991 0.0266666673 0. 0.0133333337
      0.0199999996 0.0266666673 0. 0.0133333337 0. 0.0333333351
      0.00666666683 0.00666666683 0. 0.00666666683 0.0333333351
      0.0133333337 0.00666666683 0.0266666673 0.0133333337 0.0133333337
      0.0133333337 0.0333333351 0.0399999991 0.0333333351 0.0133333337
      0.0199999996 0.0733333379 0.00666666683 0.00666666683 0.0133333337
      0.0466666669 0.00666666683 0.0133333337 0.0199999996 0.0333333351
      0.00666666683 0.0133333337 0.0333333351 0.0199999996 0.0399999991
      0.0266666673 0.0199999996 0.00666666683 0.0399999991 0.0266666673
      0.0266666673 0.00666666683 0.0266666673 0.0133333337</_>
    <_>
      0. 0.0396039598 0. 0.00990098994 0.00990098994 0.0297029689
      0.0297029689 0. 0.0396039598 0. 0.0594059378 0.00990098994 0. 0.
      0.00990098994 0.0396039598 0. 0.00990098994 0. 0.0198019799
      0.0198019799 0.0297029689 0.0198019799 0. 0.00990098994
      0.00990098994 0.0297029689 0.0891089067 0.00990098994
      0.00990098994 0.0198019799 0.0396039598 0. 0.0198019799
      0.0495049506 0.00990098994 0.00990098994 0.00990098994
      0.0495049506 0.0297029689 0.0396039598 0.0396039598 0.
      0.0198019799 0. 0.0396039598 0.0693069324 0. 0.0198019799 0.</_>
    <_>
      0.020833334 0.0347222239 0.0069444445 0.0069444445 0.0069444445
      0.020833334 0.013888889 0.013888889 0. 0. 0.0416666679 0.020833334
      0.013888889 0.0069444445 0. 0.013888889 0.020833334 0.0347222239
      0. 0.013888889 0.013888889 0.020833334 0.0416666679 0.0347222239
      0.013888889 0.0347222239 0.027777778 0.0069444445 0.013888889
      0.0347222239 0.020833334 0.055555556 0.0069444445 0.0416666679
      0.020833334 0.0069444445 0.013888889 0. 0.027777778 0.013888889
      0.0694444478 0.0625 0.020833334 0.027777778 0.0069444445
      0.020833334 0.027777778 0.0069444445 0.0069444445 0.0069444445</_>
    <_>
      0.0409836024 0.0327868834 0.00819672085 0. 0.00819672085 0.
      0.0573770478 0. 0.0573770478 0.0163934417 0.0655737668
      0.0327868834 0. 0. 0.00819672085 0.00819672085 0. 0.00819672085
      0.0163934417 0.00819672085 0.00819672085 0.0245901626 0.0819672048
      0.00819672085 0.0163934417 0.0163934417 0.0245901626 0.0245901626
      0. 0.00819672085 0.0163934417 0.0409836024 0.0409836024 0.
      0.0163934417 0.0491803251 0.0245901626 0.00819672085 0.0409836024
      0.0163934417 0.0491803251 0.0245901626 0.00819672085 0.
      0.00819672085 0.0245901626 0.00819672085 0.0409836024 0. 0.</_>
    <_>
      0.016260162 0.024390243 0.016260162 0. 0.016260162 0.032520324
      0.024390243 0. 0.008130081 0.016260162 0.016260162 0.008130081
      0.008130081 0. 0.032520324 0. 0.008130081 0. 0. 0. 0.008130081
      0.016260162 0.024390243 0.073170729 0.016260162 0.032520324
      0.016260162 0. 0.008130081 0.032520324 0.056910567 0.008130081
      0.040650405 0.024390243 0.024390243 0.032520324 0.008130081
      0.008130081 0.016260162 0.024390243 0.024390243 0.040650405 0.
      0.032520324 0.056910567 0.08130081 0.024390243 0.016260162
      0.016260162 0.008130081</_>
    <_>
      0.0533642657 0.0116009274 0.0116009274 0.0139211137 0.0116009274
      0.0301624127 0.00928074215 0.0208816696 0.032482598 0.0139211137
      0.032482598 0.016241299 0.0116009274 0.0185614843 0.00928074215
      0.00696055684 0.016241299 0.0139211137 0.0371229686 0.0464037098
      0.0301624127 0.0139211137 0.00696055684 0.032482598 0.0348027833
      0.0301624127 0.0185614843 0.0232018549 0.0208816696 0.0208816696
      0.016241299 0.0371229686 0.032482598 0.0139211137 0.016241299
      0.00928074215 0.0208816696 0.016241299 0.0255220402 0.0139211137
      0.0185614843 0.0208816696 0.0116009274 0.00464037107 0.0208816696
      0.0185614843 0.0255220402 0.00464037107 0.0116009274 0.0116009274</_>
    <_>
      0.0362318829 0. 0.108695656 0.00724637695 0.0217391308
      0.00724637695 0.00724637695 0.0289855078 0.0217391308 0.
      0.0289855078 0.0217391308 0.00724637695 0.00724637695 0.
      0.0217391308 0.00724637695 0.00724637695 0.0289855078 0.0289855078
      0. 0.0217391308 0.00724637695 0.0144927539 0.0289855078
      0.0217391308 0.0289855078 0.0144927539 0. 0.0362318829
      0.0289855078 0.0507246405 0.0144927539 0.0144927539 0.0144927539
      0.0144927539 0.0144927539 0.0652173907 0.0144927539 0.00724637695
      0.0217391308 0.0434782617 0.00724637695 0.0217391308 0.0144927539
      0.0289855078 0.0144927539 0.0217391308 0.00724637695 0.00724637695</_>
    <_>
      0.036057692 0.00721153896 0.036057692 0.00961538497 0.0673076957
      0.0769230798 0.0144230779 0.00480769249 0.012019231 0.00480769249
      0.0504807718 0.0168269239 0.00480769249 0.021634616 0.012019231
      0.00961538497 0.021634616 0.0168269239 0.012019231 0.0336538479
      0.0168269239 0.00961538497 0.00961538497 0.0432692319
      0.00721153896 0.00480769249 0.0168269239 0.00721153896 0.012019231
      0.012019231 0.0144230779 0.0168269239 0.00240384624 0.0432692319
      0.00961538497 0.00240384624 0.00721153896 0.0432692319
      0.0144230779 0.00480769249 0.0192307699 0.0192307699 0.0408653878
      0.012019231 0.084134616 0.0144230779 0.00961538497 0.00240384624
      0.0168269239 0.0144230779</_>
    <_>
      0.0553745925 0.026058631 0.00651465775 0.0162866451 0.0293159597
      0.0162866451 0.026058631 0. 0.00977198686 0.0162866451
      0.0553745925 0.0130293155 0.00325732888 0.0228013024 0.
      0.0130293155 0.0390879475 0.00977198686 0.0293159597 0.0162866451
      0.0488599315 0.0228013024 0.00977198686 0.0390879475 0.0325732902
      0. 0.035830617 0.0390879475 0.00977198686 0.00651465775
      0.0130293155 0.0325732902 0.0130293155 0.00977198686 0.026058631
      0.0195439737 0.00651465775 0.0195439737 0.0390879475 0.00325732888
      0.0293159597 0.0130293155 0.0390879475 0.00651465775 0.026058631
      0.0130293155 0.0325732902 0. 0.00325732888 0.00651465775</_>
    <_>
      0.054347828 0.0253623202 0. 0.0144927539 0.0108695654
      0.00724637695 0.0289855078 0.0181159414 0.0253623202 0.0181159414
      0.0471014492 0.0289855078 0.00724637695 0.00724637695 0.0181159414
      0.0144927539 0.0108695654 0.0144927539 0.00724637695 0.0217391308
      0.0253623202 0.00724637695 0.0217391308 0.054347828 0.0253623202
      0.0289855078 0.0217391308 0.0434782617 0.0144927539 0.0181159414
      0.0217391308 0.0507246405 0. 0.00724637695 0.00724637695 0.
      0.0108695654 0.00362318847 0.0253623202 0. 0.0579710156
      0.054347828 0.00724637695 0.0253623202 0.0144927539 0.0144927539
      0.0289855078 0.0144927539 0.0108695654 0.00362318847</_>
    <_>
      0.032520324 0.0189701896 0.0189701896 0.0135501362 0.00271002715
      0.0271002725 0.0108401086 0.0108401086 0.0108401086 0.016260162
      0.065040648 0.00542005431 0.008130081 0.008130081 0.0189701896
      0.00542005431 0.0379403792 0.016260162 0.0379403792 0.0406504087
      0.0135501362 0.0243902449 0.0135501362 0.0352303535 0.0135501362
      0.0271002725 0.032520324 0.0243902449 0.0243902449 0.008130081
      0.008130081 0.016260162 0.00542005431 0.0189701896 0.00271002715
      0.016260162 0.0189701896 0.0379403792 0.0271002725 0.0216802172
      0.008130081 0.0216802172 0.0596205965 0.0108401086 0.0298102982
      0.016260162 0.0243902449 0.008130081 0.00542005431 0.0189701896</_>
    <_>
