<?xml version="1.0"?>
<opencv_storage>
<opencv_ml_svm>
  <format>3</format>
  <svmType>C_SVC</svmType>
  <kernel>
    <type>RBF</type>
    <gamma>0.50625000000000009</gamma></kernel>
  <C>312.5</C>
  <term_criteria><epsilon>1.1920928955078125e-07</epsilon>
    <iterations>1000</iterations></term_criteria>
  <var_count>50</var_count>
  <class_count>10</class_count>
  <class_labels type_id="opencv-matrix">
    <rows>10</rows>
    <cols>1</cols>
    <dt>i</dt>
    <data>
      0 1 2 3 4 5 6 7 8 9</data></class_labels>
  <sv_total>4179</sv_total>
  <support_vectors>
    <_>
      0.0123022851 0.0263620391 0.00702987704 0.105448157 0.00527240802
      0.00527240802 0.00702987704 0.00878734607 0.0298769772
      0.0228471011 0.0316344462 0.0158172231 0.0158172231 0.0298769772
      0.0316344462 0.00702987704 0.0316344462 0.0123022851 0.010544816
      0.0228471011 0.0298769772 0.0123022851 0.00351493852 0.0140597541
      0.0210896321 0.0439367332 0.00878734607 0.0193321612 0.0140597541
      0.00527240802 0.0386643223 0.0158172231 0.0123022851 0.0281195082
      0.00527240802 0.0175746921 0.0281195082 0.0158172231 0.00702987704
      0.0123022851 0.0158172231 0.0263620391 0.0210896321 0.0158172231
      0.0246045701 0.0298769772 0.0158172231 0.0123022851 0.0281195082
      0.0175746921</_>
    <_>
      0.00232558139 0.0162790697 0.00232558139 0.095348835 0.
      0.0116279069 0.00697674416 0.00232558139 0.0255813953 0.0348837227
      0.0488372073 0.00697674416 0.0116279069 0.0441860482 0.041860465
      0.0139534883 0.0348837227 0.0116279069 0.0116279069 0.0139534883
      0.0488372073 0.0255813953 0.00232558139 0.00697674416 0.0116279069
      0.0232558139 0.0186046511 0.041860465 0.0139534883 0.00697674416
      0.0232558139 0.0209302325 0.0186046511 0.0279069766 0.00697674416
      0.0139534883 0.0325581394 0.0116279069 0.00465116277 0.0116279069
      0.0116279069 0.00465116277 0.0209302325 0.0139534883 0.0162790697
      0.0558139533 0.0139534883 0.0139534883 0.0116279069 0.0279069766</_>
    <_>
      0. 0.0205479451 0.0205479451 0.0719178095 0.00684931502 0.01369863
      0.0102739725 0.00342465751 0.0205479451 0.0205479451 0.0513698608
      0.0171232875 0.0171232875 0.00684931502 0.0102739725 0.00684931502
      0.0445205495 0.0239726026 0.01369863 0.0342465751 0.0308219176
      0.0205479451 0.0102739725 0.0171232875 0.01369863 0.0616438352
      0.0102739725 0.0410958901 0.00684931502 0.00684931502
      0.00684931502 0.0171232875 0.0102739725 0.0513698608 0.0239726026
      0.0205479451 0.0308219176 0.01369863 0.00342465751 0.01369863
      0.00684931502 0.00342465751 0.0102739725 0.00684931502
      0.0342465751 0.0376712307 0.0171232875 0.0171232875 0.0171232875
      0.0239726026</_>
    <_>
      0.00568181835 0.0227272734 0.00852272753 0.122159094 0.0170454551
      0.0142045459 0.0113636367 0.00568181835 0.0340909101 0.0227272734
      0.00568181835 0.0170454551 0.0284090918 0.0227272734 0.0142045459
      0.0227272734 0.0397727266 0.0142045459 0. 0.0142045459
      0.0482954569 0.0142045459 0.00284090918 0.0113636367 0.03125
      0.0909090936 0.00568181835 0.0284090918 0.0113636367 0.0113636367
      0.00852272753 0.0426136367 0.00568181835 0.0369318202 0.
      0.0113636367 0.0284090918 0.0113636367 0. 0.0113636367
      0.0113636367 0.0198863633 0.0113636367 0.00568181835 0.00852272753
      0.0340909101 0.0198863633 0.0142045459 0.0113636367 0.00852272753</_>
    <_>
      0.00783289783 0.0261096619 0.013054831 0.12010444 0.0104438644
      0.00783289783 0.0104438644 0.00783289783 0.0339425579 0.0156657957
      0.0287206266 0.00783289783 0.0156657957 0.00783289783 0.0261096619
      0.013054831 0.0365535244 0.013054831 0.00783289783 0.0156657957
      0.0522193238 0.0156657957 0.0026109661 0.00783289783 0.0104438644
      0.078328982 0.0052219322 0.0469973907 0.0234986953 0.0104438644
      0.0182767622 0.0313315913 0.0156657957 0.0626631826 0.0052219322
      0.00783289783 0.0234986953 0.00783289783 0.0052219322 0.0104438644
      0.00783289783 0.0052219322 0.0234986953 0. 0.0052219322
      0.039164491 0.0026109661 0.0156657957 0.0208877288 0.013054831</_>
    <_>
      0.00573613774 0.0267686415 0.0133843208 0.101338431 0.00573613774
      0.00573613774 0.0133843208 0.00382409175 0.0267686415 0.0191204585
      0.0191204585 0.00191204587 0.0114722755 0.0516252369 0.022944551
      0.0133843208 0.0172084123 0.015296367 0.0133843208 0.0191204585
      0.0286806878 0.0210325047 0. 0.0248565972 0.00382409175
      0.0573613755 0.030592734 0.0286806878 0.00573613774 0.0133843208
      0.0363288708 0.0191204585 0.00573613774 0.0325047784 0.00573613774
      0.0286806878 0.0267686415 0.0172084123 0.00382409175 0.00956022926
      0.0172084123 0.0114722755 0.030592734 0.015296367 0.0133843208
      0.0554493293 0.0076481835 0.00956022926 0.0172084123 0.015296367</_>
    <_>
      0.00936768111 0.0257611237 0.00936768111 0.114754096 0.00468384055
      0.00936768111 0.00936768111 0.0070257606 0.0327868834 0.0140515212
      0.0140515212 0.0163934417 0.0117096016 0.0374707244 0.0117096016
      0.0117096016 0.0421545655 0.0140515212 0.0117096016 0.00936768111
      0.0398126431 0.00936768111 0.0210772827 0.0117096016 0.0210772827
      0.0702576116 0.0117096016 0.0304449629 0.0117096016 0.0117096016
      0.0304449629 0.0234192032 0.0117096016 0.0304449629 0.00234192028
      0.0140515212 0.0163934417 0.0163934417 0.00468384055 0.0163934417
      0.0234192032 0.00936768111 0.00234192028 0.0117096016 0.0210772827
      0.0421545655 0.00936768111 0.0234192032 0.0210772827 0.0140515212</_>
    <_>
      0.00626304839 0.0208768267 0.0125260968 0.131524011 0.0208768267
      0.00417536544 0.00835073087 0.0104384134 0.0250521936 0.0104384134
      0.0250521936 0.0104384134 0.0167014617 0.0417536534 0.0187891442
      0.0104384134 0.0334029235 0.0229645092 0.00626304839 0.00835073087
      0.0417536534 0.0125260968 0.0167014617 0.00626304839 0.0187891442
      0.062630482 0.00417536544 0.0208768267 0.0167014617 0.0104384134
      0.0417536534 0.0208768267 0.00835073087 0.0250521936 0.00626304839
      0.0104384134 0.0208768267 0.0104384134 0.0104384134 0.00626304839
      0.0167014617 0.0229645092 0.0167014617 0.0187891442 0.0125260968
      0.0438413359 0.00626304839 0.00417536544 0.0187891442 0.0229645092</_>
    <_>
      0.00636942685 0.0254777074 0.00955414027 0.136942685 0.00955414027
      0.00318471342 0.0127388537 0.0191082805 0.0318471342 0.00318471342
      0.0191082805 0.00636942685 0.022292994 0.0191082805 0.0191082805
      0.0127388537 0.0254777074 0.00955414027 0.0127388537 0.00955414027
      0.0350318477 0.00955414027 0.022292994 0.00318471342 0.0191082805
      0.0286624208 0.0127388537 0.0477707013 0.00636942685 0.00955414027
      0.0668789819 0.0254777074 0.0254777074 0.022292994 0.00636942685
      0. 0.0191082805 0.00636942685 0.00636942685 0.00636942685
      0.0127388537 0.0796178356 0.00636942685 0.00636942685 0.0286624208
      0.0318471342 0.00636942685 0.0159235671 0.0159235671 0.00318471342</_>
    <_>
      0.00992555823 0.0471464023 0.00248138956 0.121588089 0.00744416844
      0.00248138956 0.00496277912 0.00744416844 0.0645161271
      0.00744416844 0.00744416844 0.00744416844 0.0198511165
      0.0297766738 0.00744416844 0.00496277912 0.0223325063
      0.00496277912 0.00496277912 0.0223325063 0.0471464023
      0.00496277912 0.0496277921 0.00496277912 0.0198511165 0.024813896
      0.012406948 0.0421836227 0.00992555823 0.00496277912 0.0521091819
      0.0297766738 0.0272952858 0.0322580636 0.00248138956 0.00744416844
      0.00744416844 0.00744416844 0.00248138956 0.00248138956
      0.00744416844 0.0421836227 0.0223325063 0.024813896 0.0397022329
      0.0297766738 0.0173697267 0.00496277912 0.00496277912
      0.00744416844</_>
    <_>
      0.00473933667 0.0126382308 0.00157977885 0.0679304898 0.0205371249
      0.00157977885 0.00157977885 0.00789889414 0.0173775665
      0.0110584516 0.00947867334 0.0205371249 0.00473933667 0.293838859
      0.0110584516 0.00947867334 0.0110584516 0.0331753567 0.00157977885
      0.0331753567 0.0126382308 0.0063191154 0.120063193 0.00473933667
      0.0126382308 0.00473933667 0.0126382308 0.01421801 0.01421801
      0.00473933667 0.0315955766 0.0221169032 0.00947867334
      0.00473933667 0.00473933667 0.00789889414 0.0063191154
      0.00947867334 0.00789889414 0. 0.00473933667 0.0221169032
      0.0157977883 0.0063191154 0.0189573467 0.0157977883 0.00473933667
      0.0110584516 0.00789889414 0.0063191154</_>
    <_>
      0.00206611562 0.0289256182 0.0103305783 0.13429752 0.0165289249
      0.0103305783 0.0123966932 0.00206611562 0.0268595032 0.0185950398
      0.0185950398 0.0227272715 0.0144628091 0.0557851233 0.0206611566
      0.00826446246 0.0206611566 0.0123966932 0.00206611562 0.0165289249
      0.0268595032 0.0247933865 0.0433884263 0.00206611562 0.00826446246
      0.0599173531 0.0123966932 0.0227272715 0.0123966932 0.0123966932
      0.0185950398 0.0227272715 0.0165289249 0.0185950398 0.00206611562
      0.0103305783 0.0206611566 0.00826446246 0.00619834661 0.0103305783
      0.0185950398 0.0123966932 0.0165289249 0.0247933865 0.0165289249
      0.0516528897 0.0103305783 0.0123966932 0.0144628091 0.00826446246</_>
    <_>
      0.0297397766 0.0185873602 0.0334572494 0.0453531593 0.0498141274
      0.00743494416 0.00966542773 0.0394052044 0.0215613376 0.0156133827
      0.016356878 0.00892193336 0.00594795542 0.0126394052 0.0156133827
      0.0118959108 0.0178438667 0.0208178442 0.00743494416 0.0289962832
      0.0297397766 0.0148698883 0.040892195 0.0193308555 0.0133828996
      0.0200743489 0.0126394052 0.0156133827 0.0126394052 0.0104089221
      0.0193308555 0.0215613376 0.00892193336 0.0208178442 0.00371747208
      0.0223048329 0.0178438667 0.0126394052 0.0475836433 0.00594795542
      0.0141263939 0.0557620823 0.0148698883 0.0364312269 0.0178438667
      0.0297397766 0.00520446105 0.0126394052 0.0141263939 0.0118959108</_>
    <_>
      0.041538462 0.0246153846 0.0276923068 0.0384615399 0.057692308
      0.0069230767 0.0115384618 0.0299999993 0.0169230774 0.0184615385
      0.0161538459 0.0130769229 0.00384615385 0.0146153849 0.0161538459
      0.00999999978 0.0138461534 0.0184615385 0.00999999978 0.0169230774
      0.0253846161 0.00923076924 0.041538462 0.0215384625 0.0076923077
      0.020769231 0.0115384618 0.0215384625 0.0184615385 0.0107692312
      0.0215384625 0.0199999996 0.0084615387 0.0169230774 0.00384615385
      0.0230769236 0.0192307699 0.0115384618 0.057692308 0.00923076924
      0.0123076923 0.0615384616 0.0115384618 0.0199999996 0.0238461532
      0.0276923068 0.00999999978 0.0123076923 0.0153846154 0.0184615385</_>
    <_>
      0.0322981365 0.014906832 0.0236024838 0.0534161478 0.0347826071
      0.001242236 0.00869565178 0.0347826071 0.0236024838 0.00993788801
      0.0111801242 0.00745341601 0.001242236 0.0260869563 0.0173913036
      0.00993788801 0.0223602485 0.0335403718 0.0124223605 0.0422360227
      0.024844721 0.00869565178 0.0409937873 0.0173913036 0.00745341601
      0.0285714287 0.00621118024 0.0124223605 0.0124223605 0.00869565178
      0.024844721 0.00745341601 0.00621118024 0.0161490683 0.00621118024
      0.0186335407 0.0236024838 0.029813664 0.0484472029 0.00621118024
      0.0236024838 0.0770186335 0.0136645958 0.0223602485 0.0260869563
      0.0161490683 0.00745341601 0.0124223605 0.0173913036 0.00745341601</_>
    <_>
      0.0334101394 0.0184331797 0.0264976956 0.0495391712 0.0311059915
      0.00345622119 0.0126728108 0.0391705073 0.0207373276 0.0115207378
      0.0218894016 0.0115207378 0.00691244239 0.0345622115 0.0218894016
      0.00921658985 0.0138248848 0.0184331797 0.00576036889 0.0368663594
      0.0184331797 0.00806451589 0.0357142873 0.0161290318 0.0184331797
      0.0449308753 0.0103686638 0.0184331797 0.0218894016 0.00345622119
      0.0288018435 0.0195852537 0.00691244239 0.0264976956 0.00460829493
      0.00921658985 0.0172811057 0.0172811057 0.0322580636 0.0103686638
      0.0138248848 0.0610599071 0.0172811057 0.0253456216 0.0172811057
      0.0218894016 0.0103686638 0.0184331797 0.00921658985 0.00921658985</_>
    <_>
      0.0295454543 0.0147727272 0.0454545431 0.0420454517 0.019318182
      0.00568181789 0.0045454544 0.0306818169 0.0261363629 0.0170454532
      0.0136363637 0.0136363637 0.0113636358 0.0522727259 0.023863636
      0.0136363637 0.0159090906 0.0170454532 0.0090909088 0.038636364
      0.021590909 0.00681818184 0.0352272727 0.0306818169 0.0136363637
      0.0295454543 0.0045454544 0.0159090906 0.0113636358 0.0102272723
      0.0306818169 0.0113636358 0.00795454532 0.0204545446 0.00681818184
      0.0136363637 0.0181818176 0.019318182 0.0284090899 0.00681818184
      0.0159090906 0.0352272727 0.021590909 0.0397727266 0.023863636
      0.0272727273 0.0102272723 0.0102272723 0.0102272723 0.0181818176</_>
    <_>
      0.0448625162 0.0231548473 0.0260492042 0.0513748191 0.053545583
      0.0123010129 0.00506512262 0.0426917486 0.0159189571 0.0202604905
      0.0115774237 0.00578871183 0.00651230104 0.0151953688 0.0108538345
      0.00868306775 0.0166425463 0.0137481904 0.00723588979 0.0296671484
      0.0354558602 0.0144717796 0.0448625162 0.0217076689 0.0115774237
      0.0246020257 0.0115774237 0.0137481904 0.0130246021 0.00795947853
      0.0166425463 0.0137481904 0.00795947853 0.0173661355 0.00940665696
      0.0108538345 0.0137481904 0.0115774237 0.0593342967 0.00940665696
      0.0144717796 0.0542691723 0.0231548473 0.0296671484 0.0202604905
      0.0238784365 0.00940665696 0.00868306775 0.0144717796 0.0115774237</_>
    <_>
      0.0239361692 0.0212765951 0.0319148935 0.0141843967 0.0966311991
      0.0115248226 0.0301418435 0.0257092193 0.0132978717 0.0141843967
      0.00709219836 0.00443262421 0.0186170209 0.0301418435
      0.00797872338 0.0115248226 0.0177304968 0.00886524841 0.019503545
      0.00620567333 0.00797872338 0.00975177251 0.00975177251 0.03900709
      0.00443262421 0.0150709217 0.0336879417 0.0106382975 0.0177304968
      0.0186170209 0.0221631192 0.0186170209 0.0115248226 0.00797872338
      0.039893616 0.0292553175 0.0150709217 0.0248226933 0.0248226933
      0.0124113467 0.0301418435 0.060283687 0.00886524841 0.00797872338
      0.019503545 0.00975177251 0.0124113467 0.0115248226 0.0336879417
      0.0177304968</_>
    <_>
      0.0205479451 0.0127201565 0.0303326808 0.0156555772 0.126223087
      0.0107632093 0.0146771036 0.0205479451 0.0117416829 0.00978473574
      0.00293542072 0.00684931502 0.0176125243 0.0225048922 0.0146771036
      0.0107632093 0.0283757336 0.00489236787 0.0293542072 0.00880626217
      0.0146771036 0.0146771036 0.0117416829 0.0264187865 0.00587084144
      0.0127201565 0.0313111544 0.0117416829 0.0215264186 0.0127201565
      0.0313111544 0.0195694715 0.0146771036 0.0127201565 0.0420743637
      0.0322896279 0.00684931502 0.0254403129 0.0303326808 0.0176125243
      0.0332681015 0.0450097844 0.00782778859 0.00195694715 0.0234833658
      0.0127201565 0.0117416829 0.00880626217 0.0244618393 0.0146771036</_>
    <_>
      0.0118110236 0.0255905502 0.027559055 0.0374015756 0.027559055
      0.0216535442 0.0118110236 0.0196850393 0.0177165344 0.00787401572
      0.00590551179 0.0137795275 0.0137795275 0.0196850393 0.0118110236
      0.0196850393 0.0118110236 0.00590551179 0.0177165344 0.027559055
      0.0255905502 0.0118110236 0.0118110236 0.027559055 0.00787401572
      0.0393700786 0.0137795275 0.0177165344 0.0137795275 0.0157480314
      0.0118110236 0.0314960629 0.0236220472 0.0295275599 0.00984251965
      0.0216535442 0.0118110236 0.0295275599 0.00984251965 0.0157480314
      0.0334645659 0.0964566916 0.00590551179 0.00590551179 0.0255905502
      0.0295275599 0.0177165344 0.0157480314 0.0255905502 0.00787401572</_>
    <_>
      0.014423077 0.0176282059 0.025641026 0.0384615399 0.0352564119
      0.011217949 0.012820513 0.020833334 0.02724359 0.00641025649
      0.00801282097 0.011217949 0.011217949 0.0160256419 0.012820513
      0.012820513 0.02724359 0.012820513 0.024038462 0.0176282059
      0.022435898 0.00320512825 0.00801282097 0.011217949 0.0192307699
      0.030448718 0.014423077 0.025641026 0.014423077 0.022435898
      0.00480769249 0.02724359 0.0160256419 0.0432692319 0.024038462
      0.024038462 0.00801282097 0.028846154 0.00480769249 0.022435898
      0.02724359 0.0641025677 0.025641026 0.00961538497 0.0192307699
      0.022435898 0.025641026 0.02724359 0.024038462 0.0160256419</_>
    <_>
      0.0267011207 0.0172265284 0.0301464256 0.0249784682 0.0413436703
      0.0129198972 0.0137812234 0.0284237731 0.0163652021 0.00602928549
      0.00947459135 0.012058571 0.0206718352 0.0292850994 0.00602928549
      0.00861326419 0.0172265284 0.00689061172 0.0163652021 0.0146425497
      0.0111972438 0.0189491827 0.012058571 0.0301464256 0.0129198972
      0.0215331614 0.0387596898 0.00947459135 0.0163652021 0.0163652021
      0.0223944876 0.0223944876 0.0103359176 0.0163652021 0.0396210179
      0.0292850994 0.0146425497 0.0353143848 0.0292850994 0.0155038759
      0.0327304043 0.0594315268 0.00861326419 0.012058571 0.024117142
      0.0155038759 0.0155038759 0.00689061172 0.0275624469 0.0155038759</_>
    <_>
      0.0200845655 0.0274841432 0.0221987311 0.0507399589 0.0443974622
      0.016913319 0.0158562362 0.0179704018 0.0137420716 0.0116279069
      0.0158562362 0.0116279069 0.0105708241 0.0221987311 0.0137420716
      0.0126849897 0.0105708241 0.0084566595 0.0137420716 0.0158562362
      0.0211416483 0.00951374229 0.0285412259 0.0137420716 0.0158562362
      0.0496828742 0.0243128967 0.0158562362 0.0200845655 0.0147991544
      0.0126849897 0.0179704018 0.0179704018 0.0137420716 0.0264270604
      0.0211416483 0.0147991544 0.0147991544 0.0190274846 0.0253699794
      0.0137420716 0.0634249449 0.0137420716 0.0306553915 0.016913319
      0.0253699794 0.0232558139 0.00634249486 0.0200845655 0.0126849897</_>
    <_>
      0.0178173725 0.0378619172 0.0322939865 0.0590200461 0.0467706025
      0.0111358576 0.0122494437 0.0233853012 0.0189309586 0.0222717151
      0.0155902011 0.0122494437 0.0155902011 0.0244988874 0.0100222724
      0.00445434311 0.0122494437 0.0100222724 0.0122494437 0.0167037863
      0.0233853012 0.0100222724 0.0400890894 0.014476615 0.00890868623
      0.0334075727 0.0178173725 0.0155902011 0.0189309586 0.0167037863
      0.0111358576 0.00779510057 0.0100222724 0.0133630298 0.0233853012
      0.021158129 0.0178173725 0.0267260596 0.02895323 0.0200445447
      0.021158129 0.0601336323 0.0133630298 0.0133630298 0.0200445447
      0.0267260596 0.0200445447 0.0066815149 0.0155902011 0.00779510057</_>
    <_>
      0.0118764853 0.0285035633 0.0166270789 0.102137774 0.061757721
      0.00712589081 0.0142517816 0.0118764853 0.0261282679 0.0190023761
      0.0190023761 0.00712589081 0.0285035633 0.0118764853 0.0142517816
      0.0142517816 0.0166270789 0.00950118806 0.0237529706 0.00950118806
      0.0522565357 0.00475059403 0.045130644 0.0166270789 0.00712589081
      0.035629455 0.0237529706 0.00950118806 0.00950118806 0.00712589081
      0.0166270789 0.0166270789 0.00950118806 0.0190023761 0.0118764853
      0.0142517816 0.0118764853 0.0213776734 0.0142517816 0.00712589081
      0.0237529706 0.0760095045 0.00712589081 0.0118764853 0.0166270789
      0.0213776734 0.00950118806 0.00475059403 0.0166270789
      0.00475059403</_>
    <_>
      0.0285714269 0.0408163257 0.00816326495 0.0897959173 0.0285714269
      0.0102040814 0.0102040814 0.012244897 0.0183673464 0.012244897
      0.0163265299 0.0102040814 0.0224489793 0.0142857134 0.00204081624
      0.0183673464 0.0183673464 0.00408163248 0.0142857134 0.012244897
      0.0367346928 0.0102040814 0.0224489793 0.012244897 0.012244897
      0.0714285672 0.0163265299 0.0163265299 0.00816326495 0.00204081624
      0.0142857134 0.0163265299 0.0142857134 0.0285714269 0.00612244848
      0.00612244848 0.00204081624 0.0163265299 0.0285714269 0.012244897
      0.0204081628 0.102040812 0.012244897 0.0346938744 0.00408163248
      0.0367346928 0.0163265299 0.00816326495 0.00816326495 0.012244897</_>
    <_>
      0.0407830328 0.0326264277 0.0309951063 0.0522022843 0.0277324636
      0.0130505711 0.0114192497 0.0244698208 0.0179445352 0.0114192497
      0.0163132139 0.00815660693 0.0130505711 0.00652528554 0.0130505711
      0.0114192497 0.0244698208 0.00978792831 0.00978792831 0.0114192497
      0.0179445352 0.0130505711 0.0473083183 0.0114192497 0.00978792831
      0.0342577472 0.0195758566 0.0179445352 0.0114192497 0.021207178
      0.0244698208 0.021207178 0.0163132139 0.0163132139 0.0163132139
      0.021207178 0.0114192497 0.0146818925 0.0358890705 0.00489396416
      0.0146818925 0.0668841749 0.021207178 0.0179445352 0.0309951063
      0.0114192497 0.0114192497 0.0179445352 0.0163132139 0.0179445352</_>
    <_>
      0.0133607406 0.0349434763 0.0349434763 0.0606372058 0.0411099717
      0.0113052418 0.0164439883 0.0267214812 0.0174717382 0.0184994861
      0.0113052418 0.00822199415 0.00924974307 0.0226104837 0.0154162394
      0.0123329908 0.0133607406 0.00513874646 0.0102774929 0.0154162394
      0.0205549859 0.0143884895 0.0184994861 0.019527236 0.0164439883
      0.0369989723 0.0349434763 0.0123329908 0.00924974307 0.0184994861
      0.0184994861 0.0174717382 0.0174717382 0.00719424477 0.0215827338
      0.0215827338 0.0154162394 0.0205549859 0.0164439883 0.0102774929
      0.0277492311 0.0452209674 0.0205549859 0.0267214812 0.0298047289
      0.0215827338 0.0154162394 0.0184994861 0.0143884895 0.0133607406</_>
    <_>
      0. 0.0193798449 0.0116279069 0.0503875986 0.00775193796
      0.0271317828 0.0310077518 0.0155038759 0.0465116277 0.0116279069
      0.00775193796 0.00387596898 0.0426356569 0. 0.0116279069
      0.00775193796 0.0232558139 0.0155038759 0.0271317828 0.0155038759
      0.0387596898 0.0193798449 0. 0.0155038759 0.00387596898
      0.0736434087 0.0542635657 0.0581395328 0.0116279069 0.0310077518
      0.00387596898 0.0155038759 0.0232558139 0.0271317828 0.0348837227
      0.00387596898 0.0155038759 0.0232558139 0. 0.0232558139
      0.0348837227 0.0232558139 0.00387596898 0. 0.00387596898
      0.0193798449 0.0271317828 0.0116279069 0.0155038759 0.00775193796</_>
    <_>
      0.00578034669 0.0173410401 0.0231213868 0.14450866 0.0520231202
      0.0231213868 0.0231213868 0.0115606934 0.0375722535 0.00578034669
      0.0115606934 0.00867052004 0.0202312134 0.00289017335 0.0231213868
      0.00578034669 0.0346820801 0.00289017335 0.0231213868 0.
      0.0115606934 0.00289017335 0. 0.00578034669 0.0115606934
      0.0375722535 0.0346820801 0.0375722535 0.0202312134 0.0173410401
      0.0115606934 0.0462427735 0.0144508667 0.0202312134 0.0115606934
      0.0202312134 0.0115606934 0.00867052004 0.00289017335 0.0231213868
      0.0231213868 0.0202312134 0.0115606934 0. 0.00867052004
      0.0231213868 0.0317919068 0.0115606934 0.0260115601 0.0173410401</_>
    <_>
      0.0039682542 0.0198412705 0. 0.126984134 0.0357142873 0.0277777798
      0.00793650839 0.00793650839 0.0317460336 0. 0.0277777798
      0.0238095261 0.051587306 0.0039682542 0.0198412705 0.0119047631
      0.0158730168 0. 0.0119047631 0. 0.0595238134 0.0119047631
      0.0039682542 0.00793650839 0.0158730168 0.051587306 0.00793650839
      0.0476190522 0.00793650839 0.0476190522 0.0039682542 0.0317460336
      0.0119047631 0.0238095261 0.0158730168 0.0039682542 0.00793650839
      0.0158730168 0. 0.039682541 0.0119047631 0.0634920672 0.0039682542
      0. 0.00793650839 0.0277777798 0.0119047631 0.0198412705
      0.00793650839 0.</_>
    <_>
      0.00344827585 0.0241379309 0.0068965517 0.168965518 0.0379310325
      0.0241379309 0.0172413792 0.0206896551 0.0379310325 0.0068965517
      0.0172413792 0.0103448275 0.0413793102 0.00344827585 0.0103448275
      0.00344827585 0.0310344826 0.0206896551 0.0241379309 0.0137931034
      0.0137931034 0.0103448275 0.0103448275 0.0068965517 0.0137931034
      0.0344827585 0.0103448275 0.0310344826 0.0137931034 0.0379310325
      0.0103448275 0.0344827585 0.0241379309 0.0310344826 0.0172413792
      0.00344827585 0. 0.00344827585 0. 0.0517241359 0.0068965517
      0.0172413792 0.0103448275 0.0137931034 0.00344827585 0.0241379309
      0.0241379309 0.0137931034 0. 0.00344827585</_>
    <_>
      0.0218181815 0.0145454546 0.0145454546 0.112727277 0.0399999991
      0.0290909093 0.0109090907 0.0145454546 0.0327272713 0.00727272732
      0.0254545454 0.0109090907 0.043636363 0. 0.0218181815 0.
      0.043636363 0.00727272732 0.00727272732 0.00727272732 0.0290909093
      0. 0.0109090907 0. 0.0145454546 0.0327272713 0.00727272732
      0.0145454546 0.0181818176 0.0363636352 0.0109090907 0.0290909093
      0.0254545454 0.0218181815 0.0145454546 0.0109090907 0.00363636366
      0.0181818176 0.0181818176 0.0472727269 0.0109090907 0.0290909093
      0.00727272732 0. 0.0109090907 0.0290909093 0.0472727269
      0.0109090907 0.0218181815 0.00363636366</_>
    <_>
      0.0123456791 0.0185185187 0.0154320989 0.0956790149 0.0370370373
      0.0185185187 0.027777778 0.00617283955 0.0370370373 0.0216049384
      0.00617283955 0.0123456791 0.00925925933 0.00308641978
      0.0185185187 0.027777778 0.0401234552 0.00308641978 0.0216049384
      0.00617283955 0.0493827164 0.0123456791 0. 0.00925925933
      0.00308641978 0.0339506194 0.0246913582 0.0432098769 0.0216049384
      0.0154320989 0.00925925933 0.0185185187 0.0185185187 0.0185185187
      0.0185185187 0.0154320989 0.0123456791 0.027777778 0.00925925933
      0.0308641978 0.0216049384 0.0370370373 0.00308641978 0.0154320989
      0.0123456791 0.0246913582 0.0185185187 0.00617283955 0.027777778
      0.00308641978</_>
    <_>
      0.00748129701 0.0224438906 0.0124688279 0.0822942704 0.0124688279
      0.00748129701 0.029925188 0.0324189551 0.0199501254 0.0124688279
      0.0199501254 0.0174563602 0.0224438906 0.0224438906 0.029925188
      0.00498753134 0.0274314228 0.0274314228 0.0199501254 0.0274314228
      0.0249376558 0.014962594 0.00249376567 0.014962594 0.0249376558
      0.0249376558 0.0224438906 0.029925188 0.00997506268 0.0324189551
      0.0399002507 0.0274314228 0.0174563602 0.0124688279 0.0249376558
      0.0124688279 0.0199501254 0.0124688279 0.00249376567 0.0249376558
      0.00997506268 0.00748129701 0.00997506268 0.0324189551
      0.0174563602 0.00498753134 0.0224438906 0.00997506268 0.0199501254
      0.00997506268</_>
    <_>
      0.00777202053 0.0155440411 0.0129533671 0.0725388601 0.0259067342
      0.018134715 0.0155440411 0.0233160611 0.0440414511 0.010362694
      0.0259067342 0.00777202053 0.0362694301 0.0259067342 0.0207253881
      0.010362694 0.0362694301 0.018134715 0.0155440411 0.0284974091
      0.0310880821 0.018134715 0.010362694 0.00777202053 0.0155440411
      0.0310880821 0.0259067342 0.0362694301 0.010362694 0.0129533671
      0.0259067342 0.0388601013 0.0207253881 0.018134715 0.00777202053
      0.00777202053 0.0155440411 0.010362694 0.00777202053 0.0284974091
      0.00777202053 0.00259067351 0.00777202053 0.018134715 0.0207253881
      0.018134715 0.0233160611 0.010362694 0.0207253881 0.018134715</_>
    <_>
      0.00641025649 0.012820513 0.025641026 0.0833333358 0. 0.
      0.0192307699 0. 0.051282052 0.012820513 0.012820513 0.00641025649
      0.0320512839 0.0384615399 0.0320512839 0.012820513 0.0769230798
      0.0320512839 0.0192307699 0.0192307699 0.025641026 0.00641025649
      0.0192307699 0. 0.0192307699 0.0384615399 0.00641025649
      0.051282052 0.00641025649 0.012820513 0.012820513 0.051282052
      0.0320512839 0.00641025649 0.012820513 0.00641025649 0.025641026
      0.0192307699 0. 0.012820513 0.0192307699 0.012820513 0.012820513
      0. 0.00641025649 0.025641026 0.025641026 0.025641026 0.012820513
      0.</_>
    <_>
      0. 0.0260416679 0.010416667 0.109375 0.020833334 0.020833334
      0.010416667 0.010416667 0.0520833358 0.010416667 0.03125
      0.020833334 0.0416666679 0.020833334 0.010416667 0.010416667
      0.0572916679 0.015625 0.00520833349 0.00520833349 0.046875
      0.00520833349 0.010416667 0. 0.046875 0.020833334 0.00520833349
      0.0364583358 0.0260416679 0. 0. 0.0416666679 0.03125 0.046875
      0.00520833349 0. 0.00520833349 0. 0.00520833349 0.010416667
      0.015625 0.00520833349 0.00520833349 0.0260416679 0. 0.0260416679
      0.03125 0.03125 0.015625 0.010416667</_>
    <_>
      0.0110497242 0.0276243109 0.0165745858 0.138121545 0.0110497242
      0.0165745858 0.0165745858 0.00552486209 0.0331491716 0.0276243109
      0.0220994484 0.0441988967 0.0441988967 0. 0.0165745858
      0.0110497242 0.0497237593 0.00552486209 0.0110497242 0.0110497242
      0.0331491716 0.0165745858 0.00552486209 0.00552486209
      0.00552486209 0.0331491716 0. 0.0165745858 0.0165745858
      0.0165745858 0. 0.0220994484 0.0110497242 0.0386740342
      0.0165745858 0.00552486209 0.0110497242 0.0220994484 0.
      0.00552486209 0.0165745858 0.0220994484 0. 0.0552486219 0.
      0.0220994484 0.0276243109 0.0441988967 0.0110497242 0.</_>
    <_>
      0.0090909088 0.00606060587 0.0181818176 0.0757575706 0.0181818176
      0.00606060587 0.0151515147 0.0151515147 0.0303030293 0.00606060587
      0.0242424235 0.0090909088 0.0424242392 0.0212121196 0.0181818176
      0.00303030293 0.0272727273 0.0181818176 0.0121212117 0.0242424235
      0.0151515147 0.0181818176 0.0272727273 0.0151515147 0.0333333313
      0.0121212117 0.0151515147 0.0454545431 0.0090909088 0.0151515147
      0.0212121196 0.0363636352 0.0424242392 0.0181818176 0.0090909088
      0. 0.0151515147 0.0181818176 0.00606060587 0.0242424235
      0.0090909088 0.0151515147 0.0090909088 0.0333333313 0.0272727273
      0.0242424235 0.0272727273 0.0303030293 0.0151515147 0.0121212117</_>
    <_>
      0.0307328608 0.0165484641 0.0260047279 0.0401891246 0.00945626479
      0.0165484641 0.0212765951 0.0378250591 0.0283687934 0.00945626479
      0.00945626479 0.0118203312 0.00472813239 0.0165484641 0.0141843967
      0.0023640662 0.00709219836 0.00945626479 0.0307328608 0.0118203312
      0.0236406624 0.0165484641 0.00709219836 0.0165484641 0.0141843967
      0.00945626479 0.0189125296 0.0260047279 0.0165484641 0.0283687934
      0.0212765951 0.0354609936 0.0118203312 0.0212765951 0.0189125296
      0.0283687934 0.0236406624 0.0236406624 0.0236406624 0.0212765951
      0.0330969281 0.0543735214 0.0118203312 0.0165484641 0.0212765951
      0.0260047279 0.0118203312 0.0118203312 0.0330969281 0.0189125296</_>
    <_>
      0.0139860138 0.0279720277 0.0349650346 0.0372960381 0.0209790207
      0.00932400953 0.025641026 0.0303030312 0.0116550121 0.0116550121
      0.00699300691 0.00699300691 0.0163170174 0.0279720277 0.0139860138
      0.00233100238 0.00932400953 0.0233100243 0.0279720277 0.0116550121
      0.0233100243 0.0186480191 0. 0.0209790207 0.00699300691
      0.0163170174 0.0279720277 0.0139860138 0.00699300691 0.0233100243
      0.0209790207 0.0209790207 0.0163170174 0.0116550121 0.0233100243
      0.025641026 0.0303030312 0.0372960381 0.0186480191 0.0186480191
      0.044289045 0.0396270417 0.0116550121 0.0186480191 0.0163170174
      0.0163170174 0.0233100243 0.00932400953 0.0326340348 0.0349650346</_>
    <_>
      0.0365853645 0.016260162 0.0121951215 0.0447154455 0.0203252025
      0.024390243 0.0121951215 0.024390243 0.0365853645 0.016260162
      0.008130081 0.0040650405 0.016260162 0.008130081 0.0121951215
      0.016260162 0.0203252025 0.008130081 0.024390243 0.016260162
      0.032520324 0.008130081 0.008130081 0.0040650405 0.0121951215
      0.032520324 0.016260162 0.0203252025 0.0121951215 0.0365853645
      0.016260162 0.0365853645 0.016260162 0.008130081 0.0447154455
      0.016260162 0.0121951215 0.0284552835 0.032520324 0.0447154455
      0.0203252025 0.0203252025 0.0040650405 0.0121951215 0.0203252025
      0.040650405 0.0203252025 0.024390243 0.0121951215 0.008130081</_>
    <_>
      0.0199999996 0.0233333334 0.0199999996 0.0533333346 0.0133333337
      0.036666669 0.0199999996 0.0399999991 0.0166666675 0.0133333337
      0.00666666683 0.00666666683 0.0199999996 0.0166666675 0.0133333337
      0.0133333337 0.0233333334 0.0133333337 0.0166666675 0.00333333341
      0.0466666669 0.00999999978 0.00999999978 0.00333333341
      0.00666666683 0.0233333334 0.00999999978 0.0333333351
      0.00666666683 0.0333333351 0.0166666675 0.0266666673 0.0166666675
      0.00999999978 0.0133333337 0.0199999996 0.0233333334 0.0399999991
      0.0133333337 0.0233333334 0.0133333337 0.0633333325 0.0266666673
      0.0133333337 0.0166666675 0.0399999991 0.0233333334 0.00999999978
      0.0133333337 0.00333333341</_>
    <_>
      0.0221402217 0.0405904055 0.0369003713 0.0405904055 0.00738007389
      0.0110701108 0.0184501857 0.0221402217 0.0295202956 0.00738007389
      0.0221402217 0. 0.0184501857 0.0184501857 0.00369003695
      0.0110701108 0.0110701108 0.0147601478 0.0110701108 0.0147601478
      0.0147601478 0.0184501857 0.0184501857 0.0147601478 0.0258302577
      0.0405904055 0.0258302577 0.0184501857 0.00369003695 0.0332103334
      0.00738007389 0.0332103334 0.0110701108 0.0184501857 0.0221402217
      0.0184501857 0.0147601478 0.0295202956 0.00369003695 0.0442804433
      0.0147601478 0.0442804433 0.0147601478 0.0258302577 0.00738007389
      0.0221402217 0.0184501857 0.0110701108 0.0258302577 0.0369003713</_>
    <_>
      0.0209302325 0.0162790697 0.0348837227 0.0372093022 0.0279069766
      0.041860465 0.0162790697 0.030232558 0.0279069766 0.0116279069
      0.00930232555 0.00697674416 0.00930232555 0.0116279069
      0.0116279069 0.00465116277 0.030232558 0. 0.0116279069
      0.0209302325 0.0441860482 0.0325581394 0.0139534883 0.0186046511
      0.00930232555 0.0348837227 0.00697674416 0.0162790697
      0.00930232555 0.030232558 0.0139534883 0.0232558139 0.0232558139
      0.0139534883 0.0116279069 0.0139534883 0.0139534883 0.0279069766
      0.0232558139 0.030232558 0.0325581394 0.0348837227 0.0209302325
      0.00930232555 0.0162790697 0.0255813953 0.0186046511 0.0162790697
      0.00930232555 0.0232558139</_>
    <_>
      0.00821917877 0.0219178088 0.0164383575 0.0849315077 0.0191780832
      0.0246575344 0.0356164388 0.0164383575 0.0328767151 0.00821917877
      0.0109589044 0.0109589044 0.0164383575 0.0054794522 0.0054794522
      0.0027397261 0.0246575344 0.0054794522 0.0219178088 0.00821917877
      0.0465753451 0.01369863 0.0054794522 0.0027397261 0.0027397261
      0.0602739751 0.0273972601 0.0219178088 0.0164383575 0.0246575344
      0.0054794522 0.0191780832 0.0301369876 0.0191780832 0.00821917877
      0.00821917877 0.0328767151 0.0164383575 0.01369863 0.0164383575
      0.0246575344 0.0328767151 0.01369863 0.0219178088 0.0054794522
      0.0328767151 0.0246575344 0.0164383575 0.0273972601 0.0273972601</_>
    <_>
      0.00890207663 0.0178041533 0.0237388723 0.0979228467 0.0207715128
      0.0178041533 0.0267062318 0.00593471806 0.0356083065 0.00890207663
      0.00890207663 0.00593471806 0.0178041533 0.00593471806
      0.00890207663 0.00296735903 0.0267062318 0.00593471806
      0.0207715128 0.0237388723 0.0415430255 0.0118694361 0.
      0.0148367956 0.0178041533 0.0326409489 0.0267062318 0.0237388723
      0.0148367956 0.0237388723 0.00296735903 0.0178041533 0.00890207663
      0.0267062318 0.0207715128 0.0148367956 0.0178041533 0.0207715128
      0.0118694361 0.0267062318 0.0207715128 0.0534124635 0.0178041533
      0.0118694361 0.00593471806 0.0267062318 0.0326409489 0.0178041533
      0.0237388723 0.0207715128</_>
    <_>
      0. 0.0212765951 0.0106382975 0.0957446769 0.0212765951
      0.0212765951 0.0159574468 0.0106382975 0.0478723384 0.00531914877
      0.0212765951 0.0159574468 0.0531914867 0. 0.0212765951
      0.00531914877 0.058510635 0.0106382975 0.0265957434 0.0106382975
      0.0478723384 0. 0.0372340418 0. 0.0265957434 0.058510635
      0.00531914877 0.0531914867 0.0159574468 0.0212765951 0.
      0.0212765951 0.0159574468 0.0265957434 0.00531914877 0.00531914877
      0.00531914877 0.0159574468 0.00531914877 0.0372340418 0.0212765951
      0.00531914877 0.00531914877 0.00531914877 0.00531914877
      0.0212765951 0.0212765951 0.0159574468 0.00531914877 0.0159574468</_>
    <_>
      0. 0.0121457493 0.0080971662 0.0931174085 0.0323886648
      0.0161943324 0.0121457493 0.0080971662 0.0364372469 0.
      0.0121457493 0.0121457493 0.0121457493 0.0040485831 0.0040485831
      0.0040485831 0.0364372469 0.0283400826 0.0202429146 0.0242914986
      0.0323886648 0.0040485831 0.0323886648 0. 0.0323886648
      0.0323886648 0.0080971662 0.0404858291 0.0242914986 0.0404858291
      0.0121457493 0.044534415 0.044534415 0.0242914986 0.0080971662
      0.0080971662 0.0080971662 0.0040485831 0. 0.0364372469
      0.0283400826 0.0283400826 0.0080971662 0.0080971662 0.
      0.0202429146 0.0364372469 0.0364372469 0.0080971662 0.0121457493</_>
    <_>
      0.00401606411 0.0160642564 0.0240963846 0.108433731 0.0120481923
      0.036144577 0.0160642564 0.00401606411 0.0321285129 0.
      0.00401606411 0.0281124488 0.036144577 0.0240963846 0.0200803205
      0.0160642564 0.0281124488 0.0120481923 0.0120481923 0.00401606411
      0.0200803205 0.00803212821 0.00401606411 0.00803212821
      0.0200803205 0.0963855386 0.00803212821 0.036144577 0.0120481923
      0.036144577 0.00803212821 0.036144577 0.0200803205 0.0401606411
      0.00803212821 0.00803212821 0.0120481923 0.0160642564 0.
      0.0200803205 0.0160642564 0.0200803205 0.0281124488 0.
      0.0200803205 0.0321285129 0.00803212821 0.00803212821 0.0120481923
      0.</_>
    <_>
      0. 0.0226537231 0.0161812305 0.0679611638 0.0129449842
      0.00647249212 0.0323624611 0.0194174759 0.0453074463 0.0258899685
      0.0161812305 0.0226537231 0.0258899685 0.0226537231 0.0129449842
      0.00647249212 0.0550161824 0.0161812305 0.0129449842 0.00970873795
      0.0453074463 0.0161812305 0.00970873795 0.0194174759 0.0194174759
      0.0258899685 0.0194174759 0.0485436916 0.00647249212 0.0129449842
      0.00323624606 0.0323624611 0.0226537231 0.0453074463 0.0161812305
      0.0194174759 0.00970873795 0.0226537231 0.00323624606 0.0129449842
      0.00647249212 0.0129449842 0.0129449842 0.00323624606 0.0129449842
      0.0323624611 0.0194174759 0.0226537231 0.0129449842 0.00323624606</_>
    <_>
      0.0177514795 0.0221893489 0.0177514795 0.0754437894 0.0710059181
      0.0147928996 0.0133136101 0.0251479298 0.0266272202 0.0073964498
      0.0162721891 0.00591715984 0.0162721891 0.0251479298 0.00295857992
      0.00591715984 0.00887573976 0.00887573976 0.0147928996
      0.00887573976 0.0207100585 0.00887573976 0.041420117 0.0162721891
      0.00295857992 0.0428994074 0.0251479298 0.0207100585 0.00295857992
      0.0103550293 0.0251479298 0.0103550293 0.0147928996 0.0295857992
      0.0162721891 0.0207100585 0.00443786988 0.0207100585 0.0236686394
      0.0147928996 0.0236686394 0.0680473372 0.0103550293 0.0295857992
      0.0147928996 0.0162721891 0.0147928996 0.0073964498 0.0266272202
      0.0103550293</_>
    <_>
      0.0212765969 0.0273556225 0.0349544063 0.0562310033 0.0562310033
      0.0151975686 0.0212765969 0.0197568387 0.0182370823 0.00911854114
      0.0151975686 0.00455927057 0.0121580549 0.0136778113 0.0106382985
      0.0136778113 0.0212765969 0.00759878429 0.0167173259 0.0121580549
      0.0227963533 0.0121580549 0.0227963533 0.0227963533 0.0106382985
      0.0349544063 0.0319148935 0.0273556225 0.00607902743 0.0106382985
      0.0182370823 0.0197568387 0.00911854114 0.0273556225 0.00911854114
      0.0197568387 0.00151975686 0.0197568387 0.0273556225 0.0227963533
      0.0212765969 0.0805471167 0.00607902743 0.0151975686 0.0197568387
      0.0136778113 0.00911854114 0.0121580549 0.0227963533 0.0151975686</_>
    <_>
      0.00283286115 0.0141643062 0.00283286115 0.147308782 0.0736543909
      0.016997166 0.0113314446 0.0141643062 0.0198300276 0.00849858299
      0.0113314446 0.00849858299 0.0226628892 0.0113314446 0.0283286124
      0.0056657223 0.0254957508 0.00283286115 0.0113314446 0.0056657223
      0.0509915017 0.0113314446 0.0424929187 0.0141643062 0.0198300276
      0.0453257784 0.00849858299 0.0396600552 0.0141643062 0.00849858299
      0.00849858299 0.0056657223 0.0141643062 0.033994332 0.00283286115
      0.016997166 0. 0.0198300276 0.0226628892 0.0141643062 0.0113314446
      0.0481586382 0.016997166 0.016997166 0.00283286115 0.0198300276
      0.0141643062 0.0113314446 0.016997166 0.00283286115</_>
    <_>
      0.0152671756 0.00763358781 0.0178117044 0.0865139961 0.0661577582
      0.0127226468 0.0254452936 0.0152671756 0.0279898215 0.0101781171
      0.0101781171 0.00508905854 0.0254452936 0.0152671756 0.0127226468
      0.00508905854 0.0279898215 0.0101781171 0.0203562342 0.0101781171
      0.0483460575 0.0127226468 0.0407124683 0.00508905854 0.0101781171
      0.0381679386 0.00763358781 0.0381679386 0.00763358781
      0.00763358781 0.0127226468 0.0279898215 0.0152671756 0.0330788791
      0.00254452927 0.0152671756 0. 0.0178117044 0.0101781171
      0.0203562342 0.0178117044 0.0661577582 0.00508905854 0.0101781171
      0.0127226468 0.0279898215 0.0178117044 0.0178117044 0.0203562342
      0.00508905854</_>
    <_>
      0.0380228125 0.0114068445 0.032319393 0.0703422055 0.0684410632
      0.00570342224 0.00380228134 0.0437262356 0.022813689 0.0114068445
      0.00380228134 0.00570342224 0.0114068445 0.0133079849 0.0133079849
      0.0133079849 0.0152091254 0.00950570311 0.00380228134 0.0152091254
      0.0190114062 0.0133079849 0.102661595 0.0133079849 0.00950570311
      0.0380228125 0.00570342224 0.0152091254 0.0171102658 0.0152091254
      0.00760456268 0.0171102658 0.00950570311 0.0190114062
      0.00570342224 0.0133079849 0.00190114067 0.0171102658 0.0532319397
      0.00380228134 0.0190114062 0.0627376437 0.0114068445 0.0342205316
      0.00570342224 0.0190114062 0.00760456268 0.0171102658 0.0133079849
      0.</_>
    <_>
      0.0145190563 0.0217785835 0.0217785835 0.056261342 0.0417422876
      0.0145190563 0.0181488208 0.0199637022 0.030852994 0.00907441042
      0.00725952815 0.0108892918 0.0181488208 0.0163339376 0.00907441042
      0.00907441042 0.0254083481 0.0181488208 0.0217785835 0.0108892918
      0.0145190563 0.0108892918 0.0362976417 0.012704174 0.0163339376
      0.0453720503 0.0272232313 0.0217785835 0.0199637022 0.012704174
      0.0145190563 0.0235934667 0.0272232313 0.0235934667 0.0108892918
      0.0326678753 0. 0.0326678753 0.0181488208 0.00907441042
      0.0199637022 0.0490018167 0.012704174 0.0362976417 0.012704174
      0.0181488208 0.012704174 0.00725952815 0.0163339376 0.00907441042</_>
    <_>
      0.0540069677 0.0243902449 0.0331010446 0.0609756112 0.0278745648
      0.00348432059 0.00522648077 0.0313588865 0.0191637632 0.0121951224
      0.0313588865 0.0156794433 0.0139372824 0.0191637632 0.0331010446
      0.00696864119 0.022648083 0.0121951224 0.0191637632 0.0243902449
      0.022648083 0.0087108016 0.0209059231 0.0261324048 0.0087108016
      0.0174216032 0.0296167247 0.022648083 0.0139372824 0.0087108016
      0.0209059231 0.0121951224 0.0156794433 0.0104529615 0.0121951224
      0.0174216032 0.0191637632 0.0174216032 0.0139372824 0.00696864119
      0.0139372824 0.0470383279 0.0156794433 0.0209059231 0.0261324048
      0.0191637632 0.0104529615 0.0087108016 0.0296167247 0.0121951224</_>
    <_>
      0.0447470807 0.0194552522 0.0291828793 0.0700389072 0.0389105044
      0.00778210117 0.0116731515 0.036964979 0.0214007776 0.00583657576
      0.0214007776 0.0175097268 0.00972762611 0.0175097268 0.0194552522
      0.0116731515 0.0175097268 0.0136186769 0.0155642023 0.0214007776
      0.0214007776 0.0194552522 0.0194552522 0.0194552522 0.0116731515
      0.0175097268 0.0311284047 0.0214007776 0.0116731515 0.0155642023
      0.0194552522 0.0194552522 0.00972762611 0.00972762611
      0.00778210117 0.0175097268 0.0252918284 0.023346303 0.0214007776
      0.00972762611 0.0175097268 0.0583657585 0.00778210117 0.0175097268
      0.0175097268 0.0194552522 0.0136186769 0.00972762611 0.023346303
      0.0116731515</_>
    <_>
      0.0123456791 0.0164609049 0.0205761306 0.115226336 0.0370370373 0.
      0.0164609049 0.028806584 0.0205761306 0.00823045243 0.0164609049
      0.00823045243 0.0246913582 0. 0.0123456791 0.00411522621
      0.0370370373 0.0123456791 0.0205761306 0.00411522621 0.0411522612
      0.00823045243 0.0205761306 0.0164609049 0.0164609049 0.0164609049
      0.0164609049 0.0205761306 0.00823045243 0.00823045243
      0.00411522621 0.0493827164 0.0246913582 0.0123456791 0.0123456791
      0.0205761306 0. 0.0246913582 0.0205761306 0.00411522621
      0.0123456791 0.0823045224 0.00411522621 0.0164609049 0.00411522621
      0.0123456791 0.0246913582 0.0370370373 0.028806584 0.0164609049</_>
    <_>
      0.0266666673 0.0166666675 0.00999999978 0.100000001 0.0166666675
      0. 0.0300000012 0.0199999996 0.0466666669 0.00333333341
      0.0233333334 0.0199999996 0.0300000012 0.0133333337 0.0133333337
      0.00666666683 0.0300000012 0.00666666683 0.0266666673
      0.00999999978 0.0166666675 0.00666666683 0.0300000012
      0.00999999978 0.0133333337 0.0233333334 0.0233333334 0.0300000012
      0.00666666683 0.00999999978 0. 0.0199999996 0.036666669
      0.00999999978 0.0133333337 0.0199999996 0.0133333337 0.0166666675
      0.0266666673 0.00999999978 0.0266666673 0.0300000012 0.00666666683
      0.00999999978 0.00666666683 0.0233333334 0.0399999991 0.0266666673
      0.0266666673 0.0166666675</_>
    <_>
      0.0242130756 0.00968523044 0.0121065378 0.0387409218 0.0387409218
      0.00726392306 0.0145278461 0.0314770006 0.0411622301 0.0193704609
      0.0169491526 0.00968523044 0.0145278461 0.0314770006 0.0242130756
      0.0193704609 0.0242130756 0.0193704609 0.0145278461 0.0338983051
      0.0169491526 0.00968523044 0.0338983051 0.0338983051 0.0145278461
      0.0266343839 0.0145278461 0.0290556923 0.0193704609 0.00726392306
      0.0145278461 0.0290556923 0.0121065378 0.00968523044 0.00726392306
      0.0217917692 0.00726392306 0.0217917692 0.0121065378 0.00726392306
      0.0242130756 0.046004843 0.0121065378 0.0314770006 0.0193704609
      0.0169491526 0.00968523044 0.00968523044 0.0266343839
      0.00968523044</_>
    <_>
      0.0148367956 0.0445103869 0.00593471806 0.0741839781 0.0207715128
      0.0118694361 0.0207715128 0.00593471806 0.0237388723 0.0118694361
      0.0267062318 0.0118694361 0.0296735913 0. 0.0267062318
      0.0118694361 0.0415430255 0.00890207663 0.0178041533 0.0118694361
      0.0326409489 0.0148367956 0.0148367956 0.0148367956 0.0237388723
      0.0356083065 0.0178041533 0.0237388723 0.0237388723 0.0207715128
      0.0118694361 0.0207715128 0.00593471806 0.0356083065 0.0148367956
      0.0207715128 0.0207715128 0.0385756679 0.00593471806 0.0148367956
      0.0267062318 0.0237388723 0.0207715128 0.00296735903 0.0207715128
      0.0326409489 0.00593471806 0.00890207663 0.0207715128
      0.00296735903</_>
    <_>
      0.0176470596 0.0264705885 0.00588235306 0.0735294148 0.0352941193
      0.0264705885 0.0382352956 0.0117647061 0.0294117648 0.00294117653
      0.0147058824 0.0176470596 0.0176470596 0.00882352982 0.032352943
      0. 0.0294117648 0.00882352982 0.032352943 0.00588235306
      0.032352943 0.0176470596 0.00294117653 0.00588235306 0.0176470596
      0.0294117648 0.00294117653 0.0205882359 0.0117647061 0.0235294122
      0.0117647061 0.0176470596 0.00882352982 0.0235294122 0.00588235306
      0.0382352956 0.0117647061 0.0176470596 0.00588235306 0.0264705885
      0.0176470596 0.0411764719 0.0294117648 0.00588235306 0.0117647061
      0.0470588244 0.0147058824 0.0176470596 0.0352941193 0.0117647061</_>
    <_>
      0.0045454544 0.0090909088 0.0227272715 0.0636363626 0.0227272715
      0.0181818176 0.0181818176 0.0045454544 0.0045454544 0.0181818176
      0.0045454544 0.0363636352 0.0181818176 0.0045454544 0.0227272715
      0.0136363637 0.0181818176 0.0090909088 0.0136363637 0.0045454544
      0.0181818176 0.0181818176 0.0136363637 0. 0.0136363637 0.049999997
      0.0136363637 0.0590909086 0.0045454544 0.0181818176 0.0227272715
      0.0272727273 0.0181818176 0.0272727273 0.0272727273 0.0045454544
      0.0136363637 0.0409090891 0.0045454544 0.0318181813 0.049999997
      0.0227272715 0.0318181813 0.0090909088 0.0136363637 0.0318181813
      0.0318181813 0.0227272715 0.0181818176 0.0090909088</_>
    <_>
      0.0040650405 0.024390243 0.0121951215 0.0772357732 0.024390243
      0.0203252025 0.0284552835 0.0040650405 0.0284552835 0.0284552835
      0.0203252025 0.008130081 0.016260162 0.0121951215 0.008130081
      0.008130081 0.0121951215 0.0121951215 0.0121951215 0.0121951215
      0.040650405 0. 0.0121951215 0. 0.024390243 0.073170729
      0.0121951215 0.0284552835 0.0040650405 0.0284552835 0.016260162
      0.0365853645 0.0121951215 0.032520324 0.008130081 0.008130081
      0.0121951215 0.0203252025 0.0040650405 0.032520324 0.032520324
      0.065040648 0.0040650405 0.024390243 0.0040650405 0.016260162
      0.0121951215 0.032520324 0.016260162 0.0121951215</_>
    <_>
      0.00448430516 0.031390138 0.0538116619 0.0448430516 0.0493273586
      0.0358744413 0.0269058309 0.0224215258 0.00896861032 0.0224215258
      0.0269058309 0.00448430516 0.0179372206 0.00448430516 0.0179372206
      0.0134529155 0.0134529155 0.00448430516 0.031390138 0.00448430516
      0.031390138 0.0269058309 0.00448430516 0.00896861032 0.0179372206
      0.0672645792 0.00896861032 0.0134529155 0.00896861032 0.0358744413
      0.00896861032 0.00896861032 0.0224215258 0.00448430516
      0.0269058309 0.0134529155 0.0179372206 0.0179372206 0.
      0.0224215258 0.0269058309 0.0179372206 0.00896861032 0.0179372206
      0.0134529155 0.0358744413 0.0224215258 0.0224215258 0.00448430516
      0.0224215258</_>
    <_>
      0.00882352982 0.0352941193 0.00294117653 0.0617647059 0.0441176482
      0.0147058824 0.0117647061 0.00294117653 0.032352943 0.0147058824
      0.0235294122 0.0147058824 0.0294117648 0.00588235306 0.0235294122
      0.00588235306 0.032352943 0.00588235306 0.0235294122 0.
      0.0294117648 0.0176470596 0.0176470596 0.00882352982 0.0205882359
      0.0264705885 0.00588235306 0.0205882359 0.00882352982 0.032352943
      0.0117647061 0.0294117648 0.0264705885 0.0176470596 0.00882352982
      0.0264705885 0.0264705885 0.0235294122 0.00294117653 0.0235294122
      0.0235294122 0.0294117648 0.0294117648 0.00882352982 0.00294117653
      0.0470588244 0.0117647061 0.0117647061 0.0382352956 0.0176470596</_>
    <_>
      0.0134529155 0.0134529155 0.0201793723 0.0650224239 0.0112107629
      0.0134529155 0.0201793723 0.015695069 0.031390138 0.0224215258
      0.015695069 0.00448430516 0.0112107629 0.0112107629 0.0179372206
      0.0134529155 0.0134529155 0.015695069 0.0246636793 0.00672645774
      0.031390138 0.0134529155 0.00672645774 0.0269058309 0.0179372206
      0.0291479826 0.015695069 0.0269058309 0.00672645774 0.0201793723
      0.0134529155 0.0201793723 0.0246636793 0.0426008999 0.0224215258
      0.0246636793 0.0179372206 0.0134529155 0. 0.0179372206
      0.0336322896 0.0224215258 0.015695069 0.00672645774 0.0224215258
      0.0426008999 0.031390138 0.0224215258 0.0358744413 0.0134529155</_>
    <_>
      0.0173913036 0.0195652172 0.0195652172 0.0673912987 0.0195652172
      0.0195652172 0.0326086953 0.021739129 0.028260868 0.0108695645
      0.0195652172 0.0152173908 0.0108695645 0.0239130426 0.0195652172
      0.00652173907 0.0260869563 0.0108695645 0.0130434781 0.0152173908
      0.0347826071 0.0108695645 0.0108695645 0.028260868 0.00652173907
      0.0369565189 0.0173913036 0.0413043462 0.0130434781 0.00652173907
      0.0130434781 0.021739129 0.0239130426 0.0239130426 0.021739129
      0.021739129 0.0173913036 0.0152173908 0.0130434781 0.00869565178
      0.0173913036 0.0239130426 0.0173913036 0.00217391294 0.0239130426
      0.028260868 0.028260868 0.0152173908 0.0195652172 0.0195652172</_>
    <_>
      0.0193798449 0.0193798449 0.0271317828 0.0775193796 0.0232558139
      0.0116279069 0.00775193796 0.0116279069 0.0348837227 0.0193798449
      0.0348837227 0.0193798449 0.0193798449 0.00775193796 0.0271317828
      0.00387596898 0.0465116277 0.00387596898 0.0116279069 0.0155038759
      0.0232558139 0.00775193796 0.0271317828 0.00775193796 0.0193798449
      0.0387596898 0.00387596898 0.0310077518 0.00775193796 0.
      0.0155038759 0.0348837227 0.0232558139 0.0116279069 0.00775193796
      0.0387596898 0.00775193796 0.0155038759 0.0232558139 0.0116279069
      0.0116279069 0.0232558139 0.0271317828 0.00775193796 0.0155038759
      0.0310077518 0.0271317828 0.0232558139 0.0348837227 0.</_>
    <_>
      0.0315789469 0.0105263162 0.028070176 0.0912280753 0.0350877196
      0.0210526325 0.0245614033 0.003508772 0.0175438598 0.00701754401
      0.0210526325 0.014035088 0.0245614033 0.003508772 0.003508772 0.
      0.042105265 0.014035088 0.0175438598 0.0245614033 0.028070176 0.
      0.0245614033 0.003508772 0.0210526325 0.0666666701 0.0105263162
      0.028070176 0.00701754401 0.00701754401 0.00701754401 0.0245614033
      0.0385964923 0.0456140377 0.014035088 0.00701754401 0.0175438598
      0.0105263162 0.0105263162 0.00701754401 0.0210526325 0.0175438598
      0.00701754401 0.014035088 0.0210526325 0.0210526325 0.0245614033
      0.0385964923 0.0175438598 0.003508772</_>
    <_>
      0.00727272732 0.0363636352 0.0218181815 0.0799999982 0.0399999991
      0.0145454546 0.00727272732 0.0109090907 0.0327272713 0.0145454546
      0.00363636366 0.0290909093 0.0145454546 0.00363636366 0.0327272713
      0.0145454546 0.043636363 0.0145454546 0.0109090907 0.0109090907
      0.0254545454 0.00363636366 0.0145454546 0.00727272732
      0.00363636366 0.0254545454 0.00363636366 0.0472727269 0.0109090907
      0.0181818176 0.00727272732 0.0363636352 0.0254545454 0.0327272713
      0.0181818176 0.0218181815 0.0218181815 0.00363636366 0.00727272732
      0.0145454546 0.0145454546 0.0509090908 0.0109090907 0.00727272732
      0.0109090907 0.0290909093 0.0218181815 0.0290909093 0.0218181815
      0.0109090907</_>
    <_>
      0.0209643599 0.0188679248 0.0188679248 0.0796645656 0.0209643599
      0.0125786159 0.0230607949 0.00628930796 0.0314465389 0.0167714879
      0.0146750519 0.00838574395 0.0125786159 0.0209643599 0.0104821799
      0.00838574395 0.0167714879 0.00838574395 0.0146750519 0.0125786159
      0.0398322828 0.0125786159 0.0146750519 0.0230607949 0.0272536688
      0.0419287197 0.0209643599 0.0209643599 0.00419287197 0.0125786159
      0.0125786159 0.0230607949 0.0188679248 0.0398322828 0.0209643599
      0.0230607949 0.0146750519 0.0272536688 0.00838574395 0.00838574395
      0.0167714879 0.0335429758 0.0230607949 0.0104821799 0.0104821799
      0.0314465389 0.0230607949 0.0104821799 0.0293501038 0.0188679248</_>
    <_>
      0.00239234441 0.00956937764 0.0239234436 0.0669856444 0.0454545431
      0.00956937764 0.0287081338 0.00478468882 0.0287081338 0.0239234436
      0.0143540669 0.0119617218 0.0215310995 0.00239234441 0.0191387553
      0.00717703346 0.0239234436 0.00239234441 0.0239234436
      0.00239234441 0.031100478 0.0119617218 0.0119617218 0.00717703346
      0.00717703346 0.0430621989 0.0358851664 0.0358851664 0.00478468882
      0.0143540669 0.00956937764 0.0263157878 0.0263157878 0.0382775106
      0.0119617218 0.0263157878 0.0263157878 0.0167464111 0.0287081338
      0.0143540669 0.0239234436 0.0502392314 0.0239234436 0.00956937764
      0.00717703346 0.031100478 0.0143540669 0.0119617218 0.0215310995
      0.00478468882</_>
    <_>
      0.00963855442 0.0289156623 0.03373494 0.0771084353 0.031325303
      0.0144578312 0.0144578312 0.00722891558 0.0361445807 0.01686747
      0.00963855442 0.00963855442 0.0192771088 0.0024096386 0.0120481933
      0.0120481933 0.03373494 0.00722891558 0.0216867477 0.00481927721
      0.048192773 0.00722891558 0.0192771088 0.00963855442 0.0144578312
      0.0361445807 0.0216867477 0.0433734953 0.00963855442 0.0144578312
      0.0120481933 0.0265060253 0.0192771088 0.0192771088 0.0120481933
      0.0240963865 0.031325303 0.0120481933 0.00963855442 0.00963855442
      0.0120481933 0.0361445807 0.01686747 0.00481927721 0.00963855442
      0.031325303 0.0265060253 0.0192771088 0.0265060253 0.0144578312</_>
    <_>
      0.00961538497 0.028846154 0.022435898 0.118589744 0.00961538497
      0.00641025649 0.00961538497 0.0192307699 0.05448718 0.00641025649
      0.022435898 0.022435898 0.025641026 0.00961538497 0.00641025649
      0.00961538497 0.028846154 0.0160256419 0.00961538497 0.012820513
      0.00961538497 0.00320512825 0.022435898 0.00641025649 0.022435898
      0.0705128238 0.012820513 0.05448718 0.012820513 0.012820513
      0.00961538497 0.0384615399 0.00961538497 0.0160256419
      0.00641025649 0.0160256419 0.00961538497 0.025641026 0.012820513
      0.00961538497 0.0192307699 0.0160256419 0.00961538497
      0.00961538497 0.00961538497 0.0352564119 0.0320512839 0.025641026
      0.012820513 0.</_>
    <_>
      0.0178571437 0.0250000004 0.0250000004 0.157142863 0.0392857157
      0.010714286 0.0142857144 0.00714285718 0.0285714287 0.
      0.0178571437 0.0285714287 0.021428572 0. 0.00357142859 0.010714286
      0.0357142873 0.00357142859 0.021428572 0.00714285718 0.032142859
      0.00357142859 0.0142857144 0. 0.0178571437 0.0464285724
      0.00357142859 0.0535714291 0.0178571437 0.00357142859
      0.00357142859 0.032142859 0.0357142873 0.021428572 0. 0.0250000004
      0.010714286 0.0178571437 0. 0.010714286 0.021428572 0.0607142858
      0. 0.00714285718 0.010714286 0.0250000004 0.0250000004
      0.0142857144 0.00714285718 0.00357142859</_>
    <_>
      0.0191693287 0.0159744397 0.025559105 0.073482424 0.0191693287
      0.0127795525 0.00958466437 0.0191693287 0.0351437703 0.00319488812
      0.025559105 0.0127795525 0.0351437703 0.00638977624 0.05111821
      0.00958466437 0.025559105 0.00638977624 0.00958466437
      0.00319488812 0.025559105 0. 0.0127795525 0.00319488812
      0.0191693287 0.0319488794 0.00638977624 0.0447284356 0.025559105
      0.0191693287 0.0159744397 0.0319488794 0.025559105 0.0127795525
      0.00958466437 0.0127795525 0.00958466437 0.0159744397 0.0159744397
      0.00958466437 0.0191693287 0.0638977587 0.0191693287 0.00319488812
      0.0223642178 0.0415335447 0.0223642178 0.00958466437 0.025559105
      0.00638977624</_>
    <_>
      0.00854700804 0.0227920227 0.0142450146 0.111111112 0.0170940161
      0.0170940161 0.0227920227 0.0113960113 0.0341880322 0.0113960113
      0.00854700804 0.00854700804 0.0227920227 0.0113960113 0.0113960113
      0.00569800567 0.0284900293 0.00854700804 0.0227920227 0.0113960113
      0.0313390307 0.0113960113 0.00569800567 0.0170940161 0.00854700804
      0.05982906 0.0541310534 0.0313390307 0.0113960113 0.0113960113
      0.0170940161 0.0284900293 0.0142450146 0.0370370373 0.00569800567
      0.0113960113 0.0170940161 0.0170940161 0.0113960113 0.00854700804
      0.0227920227 0.0227920227 0.0142450146 0.00854700804 0.0170940161
      0.0370370373 0.00854700804 0.0199430194 0.0199430194 0.00854700804</_>
    <_>
      0.0389105044 0.0350194536 0.0350194536 0.0525291823 0.0175097268
      0.00194552529 0.0155642023 0.0622568093 0.0136186769 0.00778210117
      0.0136186769 0.0155642023 0.0116731515 0.0350194536 0.0214007776
      0.0194552522 0.0175097268 0.00972762611 0.0214007776 0.0175097268
      0.0447470807 0.0136186769 0.0330739282 0.0155642023 0.0116731515
      0.0272373538 0.0272373538 0.023346303 0.0136186769 0.00972762611
      0.0194552522 0.0175097268 0.0214007776 0.0155642023 0.00389105058
      0.00972762611 0.0155642023 0.0155642023 0.0175097268 0.00778210117
      0.0136186769 0.0330739282 0.00778210117 0.0350194536 0.0252918284
      0.0194552522 0.0116731515 0.0116731515 0.00389105058 0.0116731515</_>
    <_>
      0.0202020202 0.0404040404 0.0202020202 0.0606060587 0.0404040404
      0.00673400657 0.0101010101 0.0538720526 0.0202020202 0.0101010101
      0.0101010101 0.0134680131 0.00673400657 0. 0.00336700329 0.
      0.0168350171 0. 0.0168350171 0. 0.0168350171 0. 0.0572390556
      0.00673400657 0.0134680131 0.0471380465 0.00336700329 0.0538720526
      0.0101010101 0.0303030293 0. 0.0404040404 0.00336700329
      0.0404040404 0.00673400657 0.00336700329 0.0101010101
      0.00336700329 0.0639730617 0.0168350171 0.0101010101 0.0808080807
      0.0101010101 0.0505050495 0. 0.0202020202 0.00673400657
      0.0235690232 0.0134680131 0.00673400657</_>
    <_>
      0.0193548389 0.0322580636 0.0258064512 0.0290322583 0.0290322583
      0.00967741944 0.0258064512 0.0193548389 0.0451612882 0.0032258064
      0.00967741944 0.0129032256 0.0225806441 0. 0.0193548389 0.
      0.0290322583 0.0032258064 0.0225806441 0.0064516128 0.0258064512
      0.0032258064 0.0290322583 0.0032258064 0.0129032256 0.0677419379
      0.0290322583 0.0580645166 0.0225806441 0.0354838707 0.0064516128
      0.0290322583 0.0387096778 0.0258064512 0.00967741944 0.00967741944
      0.0064516128 0.00967741944 0.0354838707 0.0258064512 0.0032258064
      0.0193548389 0.0129032256 0.0354838707 0. 0.0193548389
      0.0322580636 0.0129032256 0.0064516128 0.00967741944</_>
    <_>
      0.00964630209 0.0225080382 0.0192926042 0.0546623766 0.0321543403
      0.0321543403 0.00643086806 0.0610932484 0.0257234722 0.00964630209
      0.0128617361 0.0160771701 0.0128617361 0.0128617361 0.0225080382
      0.00964630209 0.0160771701 0. 0.0128617361 0.00321543403
      0.0385852084 0.0128617361 0.0482315123 0.00964630209 0.00643086806
      0.0546623766 0.00964630209 0.0128617361 0.0160771701 0.0321543403
      0. 0.0128617361 0.0321543403 0.0257234722 0.00643086806
      0.0160771701 0.00643086806 0.0257234722 0.0514469445 0.0353697762
      0.0225080382 0.0418006405 0.00643086806 0.0128617361 0.00321543403
      0.0385852084 0.00643086806 0.00643086806 0.0128617361
      0.00321543403</_>
    <_>
      0.0176211447 0.0352422893 0.0176211447 0.0484581478 0.0110132154
      0.00440528616 0.0176211447 0.0198237877 0.0462555066 0.0110132154
      0.0176211447 0.00881057233 0.0198237877 0.0330396444 0.0374449342
      0.0132158585 0.0132158585 0.0198237877 0.0110132154 0.0352422893
      0.0220264308 0.00881057233 0.0110132154 0.0176211447 0.0110132154
      0.0396475755 0.0110132154 0.0220264308 0.0132158585 0.0110132154
      0.0242290739 0.0352422893 0.0154185016 0.0110132154 0.00881057233
      0.0220264308 0.0132158585 0.0198237877 0.0198237877 0.00440528616
      0.0176211447 0.0220264308 0.0110132154 0.0198237877 0.0440528616
      0.0308370031 0.0220264308 0.0132158585 0.0308370031 0.00881057233</_>
    <_>
      0.011792453 0.0188679248 0.0047169812 0.0495283008 0.011792453
      0.0094339624 0.011792453 0.0212264154 0.0306603778 0.011792453
      0.0259433966 0.0047169812 0.0259433966 0.0825471729 0.0330188684
      0.023584906 0.011792453 0.0259433966 0.011792453 0.0400943384
      0.0330188684 0.011792453 0.0165094342 0.023584906 0.0094339624
      0.0353773609 0.0165094342 0.0212264154 0.0283018872 0.0141509436
      0.0566037744 0.0141509436 0.0165094342 0.0165094342 0.0070754718
      0.0165094342 0.0141509436 0.0047169812 0.0094339624 0.0070754718
      0.0141509436 0.0212264154 0.0047169812 0.0141509436 0.0448113233
      0.0165094342 0.0070754718 0.0094339624 0.0141509436 0.0141509436</_>
    <_>
      0.0149253728 0.0149253728 0.00248756213 0.0920398012 0.0124378111
      0.0174129345 0.0149253728 0.0248756222 0.0323383063 0.00995024852
      0.0174129345 0.0174129345 0.0124378111 0.0621890537 0.019900497
      0.0248756222 0.0298507456 0.0124378111 0.019900497 0.0323383063
      0.0248756222 0.0149253728 0.019900497 0.0174129345 0.00995024852
      0.0248756222 0.00995024852 0.027363183 0.0298507456 0.00497512426
      0.027363183 0.0298507456 0.0223880596 0.0149253728 0.0174129345
      0.0149253728 0.027363183 0.00497512426 0.00746268639 0.00995024852
      0.00746268639 0.0124378111 0.00248756213 0.019900497 0.0298507456
      0.0223880596 0.0223880596 0.0124378111 0.00995024852 0.0149253728</_>
    <_>
      0.0131578948 0.0175438598 0.00438596494 0.0833333358 0.0219298247
      0.00877192989 0.00877192989 0.0131578948 0.0219298247
      0.00877192989 0.0175438598 0.0263157897 0.0131578948 0.0570175424
      0.00438596494 0.0175438598 0.0219298247 0.0219298247 0.00877192989
      0.0219298247 0.0219298247 0.0131578948 0.0307017546 0.0131578948
      0.0263157897 0.0570175424 0. 0.0526315793 0.00438596494
      0.0131578948 0.0307017546 0.0307017546 0.0131578948 0.0307017546
      0.00438596494 0.0219298247 0.00438596494 0.00877192989
      0.0131578948 0. 0.0131578948 0.0394736826 0.00877192989
      0.0131578948 0.0350877196 0.0394736826 0.00877192989 0.0263157897
      0.00877192989 0.00438596494</_>
    <_>
      0.0102739725 0.0102739725 0.00342465751 0.0719178095 0.0102739725
      0.00684931502 0.0171232875 0.00684931502 0.0513698608
      0.00684931502 0.0171232875 0.00684931502 0.0239726026 0.0273972601
      0.0205479451 0.00684931502 0.0308219176 0.0205479451 0.0102739725
      0.0513698608 0.0205479451 0.0102739725 0.0308219176 0.0273972601
      0.0171232875 0.0308219176 0. 0.0513698608 0.0205479451
      0.0102739725 0.0445205495 0.0308219176 0.0308219176 0.0376712307
      0.00342465751 0.0102739725 0.01369863 0. 0.0102739725 0.01369863
      0.00684931502 0.0102739725 0.00342465751 0.0239726026 0.0410958901
      0.0239726026 0.0308219176 0.0205479451 0.00684931502 0.00684931502</_>
    <_>
      0.00829875562 0.00829875562 0.00829875562 0.0746887997
      0.00829875562 0.00414937781 0.00414937781 0.00829875562
      0.0414937772 0.00829875562 0.0414937772 0.00414937781 0.0207468886
      0.0705394223 0.0207468886 0.0124481339 0.0124481339 0.0124481339
      0.0124481339 0.0456431545 0.0248962678 0. 0.0165975112
      0.0165975112 0.0331950225 0.0497925356 0.00414937781 0.0373443998
      0.0207468886 0.00414937781 0.0248962678 0.0373443998 0.0248962678
      0.0331950225 0.00829875562 0.0124481339 0.0124481339 0.0165975112
      0.0207468886 0.00829875562 0.0165975112 0.00414937781
      0.00829875562 0.0207468886 0.0497925356 0.0207468886 0.0165975112
      0.0207468886 0.00414937781 0.00414937781</_>
    <_>
      0.0390390381 0.0180180185 0.0120120123 0.0660660714 0.0240240246
      0.00300300308 0.0150150154 0.0120120123 0.0270270277 0.00900900923
      0.0240240246 0.0150150154 0.0120120123 0.00300300308 0.0180180185
      0.00600600615 0.0270270277 0.0150150154 0.0300300308 0.0240240246
      0.0300300308 0.00600600615 0.00900900923 0.0120120123 0.0180180185
      0.0270270277 0.0270270277 0.0300300308 0.00600600615 0.0240240246
      0.0120120123 0.0270270277 0.0270270277 0.0330330357 0.0210210215
      0.0180180185 0.0150150154 0.0180180185 0.0240240246 0.0180180185
      0.0270270277 0.0210210215 0.0270270277 0.0330330357 0.00600600615
      0.0210210215 0.0330330357 0.0180180185 0.0120120123 0.</_>
    <_>
      0.0303030312 0.0247933883 0.0220385678 0.0881542712 0.0275482088
      0.0137741044 0.0192837473 0.0137741044 0.0303030312 0.0165289268
      0.0247933883 0.0110192839 0.0220385678 0.00826446339 0.0110192839
      0.00275482098 0.0358126722 0.00275482098 0.0303030312 0.0110192839
      0.0165289268 0.0137741044 0.00550964195 0.0165289268 0.0137741044
      0.0495867766 0.0220385678 0.0358126722 0.00550964195 0.0220385678
      0.00275482098 0.0247933883 0.0330578536 0.0358126722 0.00826446339
      0.0165289268 0.0192837473 0.0165289268 0.0165289268 0.0137741044
      0.0192837473 0.0165289268 0.0137741044 0.0137741044 0.0137741044
      0.0192837473 0.0247933883 0.0192837473 0.0137741044 0.0110192839</_>
    <_>
      0.0106951874 0.0213903747 0.00534759369 0.0909090936 0.0160427801
      0.0160427801 0.0160427801 0.00534759369 0.0481283441 0.00534759369
      0.0267379694 0.0213903747 0.00534759369 0.00534759369 0.0106951874
      0.0160427801 0.0374331549 0.0106951874 0.0213903747 0.0160427801
      0.0106951874 0.00534759369 0.00534759369 0.00534759369
      0.0267379694 0.0534759387 0. 0.0534759387 0.0213903747
      0.0213903747 0.0106951874 0.0534759387 0.0374331549 0.0320855603
      0.0160427801 0.0106951874 0.00534759369 0.0267379694 0.00534759369
      0.0106951874 0.0106951874 0.0267379694 0.0106951874 0.00534759369
      0.0106951874 0.0427807495 0.0320855603 0.0320855603 0.
      0.0106951874</_>
    <_>
      0. 0.00505050505 0.0202020202 0.075757578 0.0454545468
      0.0101010101 0.0101010101 0. 0.0404040404 0.0151515156
      0.0252525248 0.0303030312 0.0303030312 0. 0.0353535339
      0.00505050505 0.0505050495 0.0252525248 0.0202020202 0.00505050505
      0.0202020202 0.0101010101 0. 0.00505050505 0.0151515156
      0.0606060624 0. 0.0404040404 0.0252525248 0.0101010101
      0.0101010101 0.0656565651 0.0252525248 0.0404040404 0. 0.
      0.0151515156 0.0101010101 0. 0.0252525248 0.0151515156
      0.0353535339 0.00505050505 0.0151515156 0. 0.0303030312
      0.0202020202 0.0303030312 0.0151515156 0.00505050505</_>
    <_>
      0.0259740259 0.0259740259 0.019480519 0.0649350658 0.0324675329
      0.012987013 0.019480519 0.0292207785 0.0519480519 0.0162337665
      0.00649350649 0.0162337665 0.012987013 0.00324675324 0.012987013
      0.0097402595 0.0292207785 0.0097402595 0.012987013 0.019480519
      0.0422077924 0. 0.0292207785 0.0162337665 0.0162337665
      0.0454545468 0.012987013 0.0259740259 0.0097402595 0.0097402595
      0.0162337665 0.0324675329 0.019480519 0.0227272734 0.00649350649
      0.012987013 0.0162337665 0.019480519 0.012987013 0.0162337665
      0.019480519 0.019480519 0.0097402595 0.0227272734 0.00649350649
      0.0357142873 0.0259740259 0.0162337665 0.0227272734 0.00649350649</_>
    <_>
      0.0109374998 0.0265625007 0.0296874996 0.0531250015 0.0343750007
      0.0109374998 0.0187500007 0.0250000004 0.0203125011 0.00625000009
      0.0171875004 0.0109374998 0.0171875004 0.0484375022 0.0125000002
      0.00937500037 0.0203125011 0.0078125 0.0234375 0.0109374998
      0.0203125011 0.00625000009 0.0234375 0.0171875004 0.0187500007
      0.0187500007 0.0421875007 0.0234375 0.0125000002 0.0171875004
      0.0453125015 0.0109374998 0.0140625006 0.0203125011 0.0218749996
      0.0140625006 0.0234375 0.0125000002 0.00937500037 0.0140625006
      0.0125000002 0.0515624993 0.0078125 0.00937500037 0.0265625007
      0.03125 0.0171875004 0.0109374998 0.015625 0.0171875004</_>
    <_>
      0.0167504176 0.0284757111 0.0368509218 0.0502512567 0.0167504176
      0.00837520882 0.0117252935 0.0335008353 0.0201005023 0.00670016743
      0.0100502511 0.00837520882 0.0167504176 0.0586264655 0.0134003349
      0.00837520882 0.0234505869 0.00670016743 0.0150753763 0.0100502511
      0.0217755437 0.0134003349 0.0368509218 0.0234505869 0.0134003349
      0.0301507525 0.0435510874 0.0167504176 0.00335008372 0.0150753763
      0.0385259613 0.0184254609 0.0150753763 0.0167504176 0.0100502511
      0.0217755437 0.0251256283 0.0167504176 0.0268006697 0.0234505869
      0.0217755437 0.0335008353 0.0217755437 0.0134003349 0.0184254609
      0.0167504176 0.0134003349 0.00837520882 0.0134003349 0.00837520882</_>
    <_>
      0.0387096778 0.0354838707 0.0161290318 0.0838709697 0.0290322583
      0.0161290318 0.0161290318 0.0225806441 0.0354838707 0.00967741944
      0.0129032256 0.0064516128 0.0129032256 0.0387096778 0.0064516128
      0.0032258064 0.0193548389 0.0064516128 0.00967741944 0.00967741944
      0.0258064512 0.0064516128 0.0483870953 0.0161290318 0.0193548389
      0.0290322583 0.0451612882 0.0258064512 0.0032258064 0.0129032256
      0.0354838707 0.0161290318 0.0161290318 0.0064516128 0.
      0.0129032256 0.0129032256 0.0129032256 0.0193548389 0.0129032256
      0.0129032256 0.0451612882 0.0193548389 0.0258064512 0.0258064512
      0.0064516128 0.0258064512 0.0225806441 0.0064516128 0.0032258064</_>
    <_>
      0.0134228189 0.0246085003 0.0111856824 0.0604026839 0.0111856824
      0.0134228189 0.0201342292 0.0201342292 0.0335570462 0.00447427295
      0.00447427295 0.0134228189 0.0089485459 0.0961968675 0.0111856824
      0.00447427295 0.0290827751 0.00447427295 0.0089485459 0.0089485459
      0.0111856824 0.00447427295 0.0447427295 0.0201342292 0.0134228189
      0.0246085003 0.076062642 0.0201342292 0.0134228189 0.00447427295
      0.0290827751 0.0290827751 0.0246085003 0.0313199088 0.00447427295
      0.0223713648 0.00671140943 0.0111856824 0.0111856824 0.0178970918
      0.00447427295 0.0246085003 0.00447427295 0.0290827751 0.038031321
      0.0223713648 0.0290827751 0.0134228189 0.00223713648 0.0089485459</_>
    <_>
      0.0207373276 0.0184331797 0.0207373276 0.0437788032 0.0299539175
      0.00230414746 0.0115207378 0.0276497696 0.0322580636 0.0161290318
      0.00921658985 0.0115207378 0.0161290318 0.0483870953 0.00921658985
      0.00460829493 0.0368663594 0.00460829493 0.00691244239
      0.0161290318 0.0115207378 0.0138248848 0.0990783423 0.0115207378
      0.0138248848 0.0253456216 0.0253456216 0.0207373276 0.00460829493
      0. 0.0184331797 0.0322580636 0.0115207378 0.0161290318
      0.00921658985 0.0184331797 0.0138248848 0.0322580636 0.0184331797
      0.00230414746 0.0161290318 0.0299539175 0.0207373276 0.0552995391
      0.0138248848 0.0322580636 0.00921658985 0.0138248848 0.00921658985
      0.0138248848</_>
    <_>
      0.0196850393 0.0236220472 0.0236220472 0.0433070883 0.0452755913
      0.00590551179 0.0137795275 0.0295275599 0.027559055 0.0236220472
      0.00787401572 0.00393700786 0.00787401572 0.0590551198
      0.00984251965 0.00787401572 0.0196850393 0.0118110236 0.0196850393
      0.00984251965 0.0354330689 0.0137795275 0.0413385816 0.0137795275
      0.0157480314 0.0255905502 0.0413385816 0.0196850393 0.00393700786
      0.0118110236 0.0236220472 0.0157480314 0.0236220472 0.0236220472
      0.00590551179 0.00787401572 0.00984251965 0.00984251965
      0.0196850393 0.0137795275 0.00984251965 0.0492125973 0.00984251965
      0.0295275599 0.0295275599 0.0314960629 0.00590551179 0.00196850393
      0.0295275599 0.0137795275</_>
    <_>
      0.021428572 0.021428572 0.0142857153 0.0761904791 0.0142857153
      0.0166666675 0.00714285765 0.00714285765 0.0500000007
      0.00476190494 0.0166666675 0.0142857153 0.0166666675 0.00476190494
      0.0166666675 0.00238095247 0.00952380989 0.0142857153 0.021428572
      0.00714285765 0.0285714306 0.021428572 0.00238095247 0.00714285765
      0.0261904765 0.0666666701 0.0333333351 0.0404761918 0.0166666675
      0.00952380989 0.00952380989 0.0238095243 0.0142857153 0.0309523828
      0.0142857153 0.00952380989 0.00952380989 0.0142857153
      0.00952380989 0.0142857153 0.0166666675 0.052380953 0.0190476198
      0.0119047621 0.00952380989 0.0476190485 0.021428572 0.0333333351
      0.0166666675 0.0119047621</_>
    <_>
      0.0116550121 0.0279720277 0.00932400953 0.0862470865 0.0116550121
      0.0116550121 0.0163170174 0.0116550121 0.0349650346 0.0139860138
      0.0163170174 0.00699300691 0.0209790207 0.00932400953 0.0139860138
      0.00466200477 0.0186480191 0.0116550121 0.0163170174 0.00932400953
      0.0303030312 0.00699300691 0.00233100238 0.00233100238
      0.0139860138 0.044289045 0.0163170174 0.0349650346 0.0186480191
      0.0163170174 0.00932400953 0.0186480191 0.0233100243 0.044289045
      0.0186480191 0.0209790207 0.0163170174 0.0139860138 0.0209790207
      0.0139860138 0.0209790207 0.0396270417 0.0303030312 0.00932400953
      0.00932400953 0.0536130555 0.0279720277 0.0279720277 0.0209790207
      0.00932400953</_>
    <_>
      0. 0.0251046009 0. 0.13389121 0.00836820062 0.0125523005
      0.00418410031 0.00836820062 0.0502092019 0.00418410031
      0.0125523005 0.0125523005 0.0167364012 0. 0.020920502 0.0125523005
      0.0585774034 0.0167364012 0.0167364012 0.0292887017 0.0376569033
      0.00836820062 0.00836820062 0.00836820062 0.0167364012
      0.0627615079 0.00418410031 0.0376569033 0.00836820062 0.0167364012
      0.00418410031 0.0460251048 0.0125523005 0.0543933026 0.00836820062
      0.00836820062 0.00836820062 0.020920502 0.0167364012 0.0167364012
      0.00836820062 0.020920502 0.00836820062 0.00836820062
      0.00418410031 0.0334728025 0.0292887017 0.0292887017 0.00418410031
      0.00418410031</_>
    <_>
      0.0110701108 0.0147601478 0.0147601478 0.0996309966 0.0110701108
      0.00738007389 0.0147601478 0.00738007389 0.0664206669
      0.00369003695 0.0258302577 0.0147601478 0.0184501857 0.
      0.0221402217 0.0110701108 0.0590405911 0.0221402217 0.0147601478
      0.0221402217 0.0405904055 0.00369003695 0.00738007389
      0.00369003695 0.0258302577 0.0405904055 0.00369003695 0.0553505532
      0.0184501857 0.0147601478 0.00369003695 0.0110701108 0.0258302577
      0.0553505532 0.00738007389 0.0147601478 0.0110701108 0.00738007389
      0.00738007389 0.0184501857 0.00738007389 0.00369003695
      0.0184501857 0.0221402217 0. 0.0405904055 0.0369003713
      0.0295202956 0. 0.00369003695</_>
    <_>
      0.00374531839 0.00749063678 0. 0.0823970065 0.018726591
      0.0224719103 0.00749063678 0. 0.018726591 0.0224719103
      0.0149812736 0.0112359552 0.0337078646 0.0149812736 0.0337078646
      0.018726591 0.0524344593 0.0337078646 0.0149812736 0.0149812736
      0.018726591 0.0224719103 0. 0.00749063678 0.0224719103
      0.0636704117 0.00374531839 0.0337078646 0.0224719103 0.0262172297
      0.0112359552 0.037453182 0.0337078646 0.0299625471 0.00374531839
      0. 0.00749063678 0.018726591 0.0149812736 0.0149812736
      0.0112359552 0.018726591 0.0262172297 0.018726591 0.00749063678
      0.0449438207 0.0224719103 0.018726591 0.0112359552 0.</_>
    <_>
      0.0141643062 0.0141643062 0.0254957508 0.0708215311 0.0283286124
      0.0141643062 0.0113314446 0.00849858299 0.0453257784 0.0226628892
      0.0226628892 0.0141643062 0.0254957508 0.0056657223 0.016997166
      0.0113314446 0.0283286124 0.00283286115 0.00849858299 0.0141643062
      0.033994332 0.016997166 0.00849858299 0.0113314446 0.016997166
      0.0679886639 0.0226628892 0.0311614722 0.0198300276 0.0226628892
      0.00283286115 0.0311614722 0.0141643062 0.033994332 0.0113314446
      0.00849858299 0.0113314446 0.0226628892 0.0283286124 0.0311614722
      0.0113314446 0.0141643062 0.0141643062 0.0226628892 0.0141643062
      0.0254957508 0.0198300276 0.00283286115 0.0113314446 0.0113314446</_>
    <_>
      0.0126050431 0.0252100863 0.00840336177 0.126050428 0.021008404
      0.00840336177 0.0252100863 0.00420168089 0.0294117667
      0.00840336177 0.0168067235 0.021008404 0.021008404 0.0126050431
      0.00840336177 0.00840336177 0.0546218529 0.00420168089
      0.0168067235 0.00840336177 0.0378151275 0.00420168089 0.021008404
      0.00840336177 0.0294117667 0.0294117667 0.0168067235 0.0252100863
      0.0126050431 0.021008404 0.00420168089 0.0168067235 0.0336134471
      0.0294117667 0. 0.021008404 0.00840336177 0.0378151275
      0.0168067235 0.0126050431 0.0336134471 0.0294117667 0.00840336177
      0.00420168089 0.00840336177 0.0168067235 0.0336134471 0.021008404
      0.00840336177 0.00840336177</_>
    <_>
      0.0269360263 0.0101010101 0.0235690232 0.0808080807 0.0336700343
      0.0134680131 0.0101010101 0.0235690232 0.0101010101 0.0101010101
      0.0134680131 0.0235690232 0.0235690232 0.00336700329 0.0269360263
      0.0168350171 0.0370370373 0.00336700329 0.0235690232 0.0168350171
      0.0336700343 0.00673400657 0.0505050495 0.0202020202 0.00673400657
      0.0404040404 0.00336700329 0.0269360263 0.0168350171 0.0134680131
      0.0101010101 0.0168350171 0.0168350171 0.0168350171 0.00336700329
      0.0134680131 0.00673400657 0.0202020202 0.0202020202 0.0370370373
      0.0370370373 0.0639730617 0.00336700329 0.0134680131 0.00336700329
      0.0202020202 0.0168350171 0.0168350171 0.0134680131 0.</_>
    <_>
      0.0155279506 0.0155279506 0.00931677036 0.0962732956 0.0155279506
      0.00931677036 0.0279503111 0.0155279506 0.0465838537 0.024844721
      0.0186335407 0.00621118024 0.00931677036 0.0186335407 0.024844721
      0.0124223605 0.0341614932 0.00621118024 0.0155279506 0.0124223605
      0.0279503111 0.0124223605 0.00621118024 0.00931677036 0.0217391308
      0.0590062141 0.0155279506 0.0341614932 0.0124223605 0.00931677036
      0.00310559012 0.0372670814 0.0279503111 0.0465838537 0.00621118024
      0.0124223605 0.0217391308 0.0124223605 0.0124223605 0.0124223605
      0.0186335407 0.024844721 0.0124223605 0. 0.00621118024
      0.0465838537 0.0124223605 0.0155279506 0.0217391308 0.00621118024</_>
    <_>
      0.00377358496 0.0150943398 0.0188679248 0.147169814 0.00754716992
      0.0113207549 0.0264150947 0.00754716992 0.0339622647 0.0188679248
      0.0264150947 0.00377358496 0.0264150947 0. 0.00754716992
      0.00377358496 0.0188679248 0.0150943398 0.0150943398 0.0188679248
      0.0603773594 0.0113207549 0. 0.00754716992 0.00754716992
      0.0452830195 0.00754716992 0.0716981143 0.0113207549 0.00754716992
      0.0113207549 0.0301886797 0.0150943398 0.0377358496 0.
      0.00754716992 0.0264150947 0.0150943398 0.0113207549 0.0113207549
      0.0188679248 0.0188679248 0.00377358496 0.0150943398 0.0113207549
      0.0490566045 0.0188679248 0.0150943398 0.0113207549 0.0150943398</_>
    <_>
      0. 0.0297619049 0.0119047621 0.095238097 0.00595238106
      0.00595238106 0.0119047621 0. 0.0416666679 0.0178571437
      0.0297619049 0.0119047621 0.00595238106 0.0357142873 0.0476190485
      0.0119047621 0.0238095243 0.00595238106 0.0357142873 0.00595238106
      0.0357142873 0.00595238106 0.00595238106 0. 0.0476190485
      0.0595238097 0. 0.0773809552 0.0119047621 0.0119047621 0.
      0.0297619049 0.0416666679 0.0535714291 0.00595238106 0.00595238106
      0.0119047621 0.0119047621 0. 0.00595238106 0.0238095243
      0.0119047621 0. 0.00595238106 0. 0.0238095243 0.0297619049
      0.0416666679 0. 0.00595238106</_>
    <_>
      0. 0.0220264308 0.00440528616 0.127753302 0.00440528616
      0.00440528616 0.00881057233 0.00440528616 0.0396475755 0.026431717
      0.0132158585 0.0440528616 0.026431717 0.0132158585 0.0132158585
      0.0132158585 0.0352422893 0.0176211447 0.0308370031 0.0176211447
      0.0352422893 0. 0.0132158585 0.00440528616 0.0352422893
      0.026431717 0.0132158585 0.0308370031 0.0308370031 0.00440528616
      0. 0.0396475755 0.0396475755 0.052863434 0.00440528616
      0.00440528616 0. 0.00881057233 0.00440528616 0.00881057233
      0.0220264308 0.0132158585 0.0220264308 0.0220264308 0.0176211447
      0.0220264308 0.0352422893 0.0220264308 0. 0.</_>
    <_>
      0.00952380989 0.0142857153 0.0142857153 0.119047627 0.00952380989
      0.0238095243 0.00476190494 0. 0.0380952395 0.0142857153
      0.0238095243 0.00952380989 0.0190476198 0.00476190494 0.0333333351
      0.00952380989 0.0380952395 0.00952380989 0.0190476198
      0.00952380989 0.0333333351 0.0142857153 0.0190476198 0.
      0.0238095243 0.0571428612 0.00476190494 0.0380952395 0.0238095243
      0.00476190494 0. 0.042857144 0.0333333351 0.0380952395 0.
      0.00476190494 0.0142857153 0.00952380989 0.00476190494
      0.00952380989 0.00952380989 0.0190476198 0.0190476198 0.0285714306
      0.0142857153 0.0285714306 0.0333333351 0.0476190485 0. 0.</_>
    <_>
      0.00722021656 0.0216606501 0.00722021656 0.101083033 0.0144404331
      0.0180505421 0.0144404331 0.00722021656 0.0469314083 0.0108303251
      0.0216606501 0.0108303251 0.0180505421 0.0252707582 0.0216606501
      0.0108303251 0.0361010842 0.0108303251 0.0180505421 0.0216606501
      0.0361010842 0.00722021656 0.0144404331 0.00722021656 0.0288808662
      0.0397111923 0.0216606501 0.0324909762 0.0144404331 0.0144404331
      0.0108303251 0.0361010842 0.0252707582 0.0216606501 0.00722021656
      0.0144404331 0.0144404331 0.0108303251 0.0108303251 0.0108303251
      0.0216606501 0.0288808662 0.00361010828 0.0180505421 0.0108303251
      0.0252707582 0.0397111923 0.00722021656 0.0108303251 0.0108303251</_>
    <_>
      0.0375722535 0.0231213868 0.0144508667 0.0838150233 0.0144508667
      0.0115606934 0.0404624268 0.00867052004 0.0346820801 0.0202312134
      0.0173410401 0.0173410401 0.0317919068 0.00289017335 0.0289017335
      0.00578034669 0.0491329469 0.0144508667 0.0346820801 0.00867052004
      0.0317919068 0.00289017335 0.0115606934 0.00289017335
      0.00867052004 0.0346820801 0.0144508667 0.0606936403 0.0173410401
      0.0144508667 0.00289017335 0.0202312134 0.0144508667 0.00289017335
      0.0115606934 0.00867052004 0.0289017335 0.00867052004
      0.00867052004 0.0115606934 0.0173410401 0.0289017335 0.0317919068
      0.0202312134 0.00578034669 0.0231213868 0.0144508667 0.0115606934
      0.0144508667 0.0144508667</_>
    <_>
      0.0120120123 0.0270270277 0.0180180185 0.126126125 0.0270270277
      0.0240240246 0.0210210215 0.0150150154 0.0390390381 0.00600600615
      0.0210210215 0.00600600615 0.0270270277 0.00300300308 0.0210210215
      0.00600600615 0.0270270277 0.00900900923 0.0120120123 0.0150150154
      0.0240240246 0.0180180185 0.00300300308 0.0150150154 0.00900900923
      0.0810810849 0.0270270277 0.0210210215 0.0150150154 0.0120120123
      0.0120120123 0.0180180185 0.0180180185 0.0300300308 0.00900900923
      0.0240240246 0.0270270277 0.0150150154 0.00600600615 0.00900900923
      0.0150150154 0.0120120123 0.0150150154 0.0150150154 0.0120120123
      0.0240240246 0.0240240246 0.0120120123 0.00300300308 0.0120120123</_>
    <_>
      0.0330188684 0.0330188684 0.0141509436 0.103773586 0.0188679248
      0.0094339624 0.0141509436 0. 0.0566037744 0.0047169812
      0.0094339624 0.0141509436 0.0283018872 0.0094339624 0.0283018872
      0.0094339624 0.0613207556 0.0047169812 0.0141509436 0.0188679248
      0.0330188684 0. 0.0047169812 0. 0.0377358496 0.0377358496 0.
      0.0518867932 0.0141509436 0.0094339624 0.0188679248 0.047169812
      0.0188679248 0.0283018872 0. 0. 0.0047169812 0.0094339624
      0.0047169812 0.0047169812 0.0188679248 0.023584906 0.0141509436
      0.0188679248 0.0094339624 0.0283018872 0.047169812 0.0141509436
      0.0141509436 0.</_>
    <_>
      0.00980392192 0.0147058833 0.00980392192 0.0686274543 0.0147058833
      0.00980392192 0.0294117667 0.00490196096 0.0784313753
      0.00490196096 0.00980392192 0.0441176482 0.0441176482 0.
      0.0147058833 0.00980392192 0.0588235334 0.0245098043 0.0294117667
      0.00490196096 0.0441176482 0.00490196096 0.00490196096 0.
      0.0245098043 0.0147058833 0.00490196096 0.0588235334 0.0343137272
      0.00980392192 0.0196078438 0.0343137272 0.0294117667 0.0147058833
      0.00980392192 0.00980392192 0.00490196096 0. 0. 0.0294117667
      0.00490196096 0.00980392192 0.00490196096 0.00980392192 0.
      0.0441176482 0.0539215691 0.0343137272 0. 0.</_>
    <_>
      0.00854700897 0.021367522 0.021367522 0.0897435918 0.021367522
      0.021367522 0.00427350448 0.00427350448 0.0641025677 0.0128205139
      0.0170940179 0.021367522 0.021367522 0. 0.0341880359 0.0128205139
      0.0341880359 0.0128205139 0.0128205139 0.00427350448 0.0170940179
      0.00427350448 0.0128205139 0.00427350448 0.0170940179 0.0726495758
      0.00427350448 0.0299145319 0.0256410278 0.0170940179 0.
      0.0427350439 0.0256410278 0.0170940179 0.0128205139 0.0170940179
      0.0299145319 0.00854700897 0.00427350448 0.0170940179 0.0170940179
      0.00854700897 0.0128205139 0.0470085479 0.00427350448 0.0470085479
      0.0170940179 0.021367522 0. 0.00427350448</_>
    <_>
      0.0231788084 0.0331125818 0.00331125828 0.105960265 0.0165562909
      0.0132450331 0.00993377529 0.00331125828 0.043046359 0.0231788084
      0.0132450331 0.0132450331 0.0198675506 0.00331125828 0.00662251655
      0.00993377529 0.0264900662 0.00662251655 0.0198675506 0.0264900662
      0.0264900662 0.0198675506 0.0198675506 0.00993377529 0.0198675506
      0.0562913902 0.0132450331 0.0364238396 0.00993377529 0.0198675506
      0.00331125828 0.0198675506 0.0198675506 0.0331125818 0.
      0.0165562909 0.00993377529 0.0198675506 0.0165562909 0.0165562909
      0.0264900662 0.0331125818 0.0198675506 0.0364238396 0.00662251655
      0.0264900662 0.00662251655 0.0264900662 0.00331125828
      0.00662251655</_>
    <_>
      0.0206185561 0.0335051529 0.0128865978 0.103092782 0.0154639166
      0.0128865978 0.0231958758 0.00515463902 0.0335051529 0.0128865978
      0.0231958758 0.0283505153 0.0283505153 0.00257731951 0.0231958758
      0.00515463902 0.0463917516 0.00515463902 0.0360824727
      0.00773195829 0.0206185561 0.010309278 0.0283505153 0.00515463902
      0.010309278 0.0309278332 0.0180412363 0.0412371121 0.010309278
      0.010309278 0.00257731951 0.0489690714 0.0128865978 0.0283505153
      0.00773195829 0.0257731955 0.0128865978 0.010309278 0.00515463902
      0.0128865978 0.0180412363 0.0154639166 0.0128865978 0.0257731955
      0.00257731951 0.0309278332 0.0231958758 0.0154639166 0.010309278
      0.0128865978</_>
    <_>
      0.0174418613 0.0203488376 0.0145348832 0.133720934 0.0319767445
      0.0145348832 0.0174418613 0.0174418613 0.0261627901 0.0116279069
      0.0145348832 0.00872093067 0.0232558139 0.00872093067 0.0174418613
      0.00581395347 0.0290697664 0.0145348832 0.0290697664 0.0116279069
      0.0290697664 0.0145348832 0.00290697673 0.00581395347 0.0145348832
      0.0523255803 0.0232558139 0.0348837227 0.0116279069 0.0290697664
      0.00581395347 0.0174418613 0.0145348832 0.0203488376 0.00872093067
      0.0203488376 0.0232558139 0.00872093067 0.00872093067 0.0232558139
      0.0203488376 0.0174418613 0.00872093067 0.00581395347
      0.00290697673 0.0348837227 0.0203488376 0.0174418613 0.0174418613
      0.0174418613</_>
    <_>
      0.0102040814 0.0306122452 0.0102040814 0.137755096 0.0306122452
      0.0204081628 0.0153061226 0.0204081628 0.0408163257 0.00510204071
      0.0255102031 0.0255102031 0.0102040814 0.00510204071 0.0357142836
      0.00510204071 0.0153061226 0.00510204071 0.0255102031 0.0357142836
      0.0357142836 0. 0.00510204071 0.00510204071 0.0102040814
      0.0561224483 0.00510204071 0.0714285672 0.0153061226 0. 0.
      0.0663265288 0.0153061226 0.0255102031 0. 0.0102040814
      0.00510204071 0.00510204071 0.00510204071 0.0102040814
      0.0153061226 0.0153061226 0.00510204071 0.00510204071
      0.00510204071 0.0357142836 0.0357142836 0.0153061226 0.00510204071
      0.00510204071</_>
    <_>
      0. 0.00423728814 0.00847457629 0.097457625 0.00423728814
      0.00847457629 0.0338983051 0.00423728814 0.0847457647
      0.00847457629 0.0254237279 0.0254237279 0.0211864412 0.00847457629
      0.0381355919 0.012711864 0.0254237279 0.00847457629 0.0169491526
      0.012711864 0.0423728824 0.00423728814 0.00847457629 0.00423728814
      0.0254237279 0.0593220331 0.00847457629 0.0550847463 0.0338983051
      0.00847457629 0.012711864 0.0381355919 0.0423728824 0.0381355919
      0.00423728814 0.00847457629 0.00847457629 0.012711864 0.
      0.0254237279 0.00847457629 0.0211864412 0. 0.0169491526 0.
      0.0296610165 0.0169491526 0.0169491526 0. 0.</_>
    <_>
      0.0240963846 0.00803212821 0.0120481923 0.076305218 0.0321285129
      0.00803212821 0.00803212821 0.0160642564 0.0441767052
      0.00803212821 0.0200803205 0.0160642564 0.0401606411 0.
      0.0281124488 0.00803212821 0.0562248975 0.0240963846 0.00803212821
      0.00401606411 0.0441767052 0. 0.00401606411 0.00803212821
      0.0240963846 0.0843373463 0. 0.0240963846 0.0321285129
      0.00803212821 0. 0.036144577 0.0240963846 0.0401606411
      0.00401606411 0. 0.0160642564 0.00803212821 0. 0.0240963846
      0.0160642564 0.0321285129 0.00401606411 0.0240963846 0.00803212821
      0.0401606411 0.00803212821 0.0240963846 0.00803212821 0.0120481923</_>
    <_>
      0.032738097 0.0267857146 0.00595238106 0.0773809552 0.0267857146
      0.020833334 0.0178571437 0.00297619053 0.0446428582 0.032738097
      0.00595238106 0.00595238106 0.0119047621 0.00297619053
      0.00595238106 0.0119047621 0.032738097 0.020833334 0.0148809524
      0.020833334 0.0267857146 0.032738097 0.0178571437 0.0148809524
      0.020833334 0.0535714291 0.0119047621 0.0416666679 0. 0.020833334
      0.00892857183 0.0386904776 0.0119047621 0.0297619049 0.00595238106
      0.0148809524 0.00595238106 0.0148809524 0.0178571437 0.020833334
      0.0148809524 0.00892857183 0.0178571437 0.0267857146 0.0148809524
      0.0238095243 0.0148809524 0.0119047621 0.0178571437 0.0148809524</_>
    <_>
      0.00956937764 0.0263157878 0.0167464111 0.0502392314 0.0263157878
      0.00478468882 0.0239234436 0.0215310995 0.0334928222 0.0119617218
      0.0167464111 0.0119617218 0.0143540669 0.00478468882 0.0263157878
      0.00478468882 0.0287081338 0.0119617218 0.0263157878 0.0167464111
      0.0215310995 0.0119617218 0.0215310995 0.0143540669 0.0119617218
      0.0239234436 0.0239234436 0.0358851664 0.0143540669 0.0119617218
      0.0143540669 0.0358851664 0.0191387553 0.0263157878 0.0119617218
      0.0239234436 0.0263157878 0.0239234436 0.00478468882 0.0143540669
      0.0191387553 0.0215310995 0.0287081338 0.0358851664 0.00717703346
      0.0287081338 0.0239234436 0.0215310995 0.0167464111 0.0167464111</_>
    <_>
      0.00524934381 0.0262467191 0.0209973752 0.0682414696 0.0236220472
      0.0183727033 0.0262467191 0.0183727033 0.0419947505 0.0104986876
      0.0157480314 0.00787401572 0.0236220472 0.0131233595 0.0104986876
      0.00787401572 0.0183727033 0.0104986876 0.0157480314 0.0104986876
      0.0393700786 0.0183727033 0.00787401572 0.0157480314 0.0157480314
      0.0498687662 0.0341207348 0.0393700786 0.00524934381 0.00787401572
      0.00787401572 0.028871391 0.0183727033 0.0236220472 0.0209973752
      0.0209973752 0.0367454067 0.028871391 0.0157480314 0.0157480314
      0.0183727033 0.0183727033 0.0104986876 0.00262467191 0.00524934381
      0.0157480314 0.0314960629 0.0157480314 0.0131233595 0.0236220472</_>
    <_>
      0.00625000009 0.0187500007 0.03125 0.106250003 0.0187500007
      0.0218749996 0.0125000002 0.00625000009 0.0187500007 0.0250000004
      0.0250000004 0.00312500005 0.0187500007 0.0125000002 0.00312500005
      0.0125000002 0.0218749996 0.0125000002 0.0218749996 0.00625000009
      0.0250000004 0.015625 0.015625 0.0187500007 0.0187500007
      0.103124999 0.00937500037 0.0281250011 0.0125000002 0.0218749996
      0.00937500037 0.0343750007 0.0218749996 0.0187500007 0.0125000002
      0.0281250011 0. 0.0187500007 0.0125000002 0.0281250011
      0.0125000002 0.0250000004 0.00625000009 0.00312500005
      0.00937500037 0.0250000004 0.0250000004 0.0125000002 0.0187500007
      0.00625000009</_>
    <_>
      0.024324324 0.0216216221 0.0297297314 0.0567567572 0.0297297314
      0.0297297314 0.0297297314 0.0351351351 0.0378378406 0.00540540554
      0.0081081083 0.00540540554 0.0108108111 0.0189189203 0.00270270277
      0.00540540554 0.024324324 0.0108108111 0.024324324 0.024324324
      0.0135135138 0.0108108111 0.00540540554 0.0135135138 0.0270270277
      0.0189189203 0.0081081083 0.0405405425 0.0162162166 0.0324324332
      0.0162162166 0.0378378406 0.0216216221 0.0189189203 0.0189189203
      0.0081081083 0.00540540554 0.0162162166 0.0081081083 0.0324324332
      0.0108108111 0.0378378406 0. 0.0351351351 0.0189189203
      0.0108108111 0.0324324332 0.024324324 0.0108108111 0.0135135138</_>
    <_>
      0.00842696615 0.0280898884 0.0561797768 0.0421348326 0.0337078646
      0.0224719103 0.00842696615 0.0140449442 0.0224719103 0.00561797759
      0.00561797759 0.0112359552 0.0140449442 0.0337078646 0.00561797759
      0.0112359552 0.0337078646 0.00842696615 0.0196629222 0.0140449442
      0.00842696615 0.0140449442 0.0140449442 0.0140449442 0.0112359552
      0.0870786533 0.0280898884 0.0280898884 0.00842696615 0.0224719103
      0.0140449442 0.0337078646 0.0252808984 0.0196629222 0.0112359552
      0.0140449442 0.00842696615 0.0196629222 0.0224719103 0.0308988765
      0.0196629222 0.0308988765 0. 0.00280898879 0.0168539323
      0.0196629222 0.0252808984 0.0196629222 0.0140449442 0.0168539323</_>
    <_>
      0.0181268882 0.0211480372 0.0120845921 0.0574018136 0.0241691843
      0.0181268882 0.0241691843 0.00604229607 0.0271903314 0.0332326293
      0.00604229607 0.00604229607 0.0392749235 0.0090634441
      0.00302114803 0.00604229607 0.0241691843 0.00604229607
      0.0151057402 0.00604229607 0.0362537764 0.0120845921 0.0090634441
      0.0120845921 0.0211480372 0.0664652586 0.0332326293 0.0483383685
      0.0120845921 0.0151057402 0.00604229607 0.0302114803 0.0271903314
      0.0332326293 0.0151057402 0.0090634441 0.00604229607 0.0302114803
      0.00604229607 0.0120845921 0.0211480372 0.0453172214 0.0090634441
      0.00604229607 0.0120845921 0.0453172214 0.0151057402 0.0120845921
      0.0211480372 0.0090634441</_>
    <_>
      0.0287539922 0.0383386575 0.0127795525 0.11821086 0.0223642178
      0.00958466437 0.0351437703 0.00958466437 0.0287539922
      0.00638977624 0.025559105 0.0159744397 0.0351437703 0.00958466437
      0.0191693287 0.00958466437 0.025559105 0.00638977624 0.0223642178
      0.00638977624 0.0287539922 0.00958466437 0. 0.00638977624
      0.0223642178 0.0607028753 0.0191693287 0.0351437703 0.00319488812
      0.00638977624 0.00319488812 0.0191693287 0.0191693287 0.05111821
      0.0127795525 0.00319488812 0.0127795525 0.0223642178 0.00319488812
      0.0127795525 0.00958466437 0.0319488794 0.0127795525 0.00958466437
      0.00638977624 0.0383386575 0.0191693287 0.00319488812 0.0127795525
      0.0191693287</_>
    <_>
      0.0161290318 0.0129032256 0.0064516128 0.119354837 0.0258064512
      0.00967741944 0.0161290318 0.0032258064 0.06129032 0.0064516128
      0.0129032256 0.0064516128 0.0225806441 0.0064516128 0.0129032256
      0.0032258064 0.0322580636 0.0064516128 0.0161290318 0.0032258064
      0.0290322583 0.0161290318 0.0032258064 0.00967741944 0.0354838707
      0.0741935447 0.00967741944 0.0258064512 0.0129032256 0.00967741944
      0.0032258064 0.0516129024 0.0322580636 0.0387096778 0.0064516128
      0.0161290318 0.0322580636 0.0064516128 0. 0.0193548389
      0.0193548389 0.0064516128 0.0129032256 0.0161290318 0.
      0.0225806441 0.0354838707 0.0258064512 0.00967741944 0.0193548389</_>
    <_>
      0. 0.0197044332 0.0147783253 0.0935960561 0.0344827585 0.
      0.0147783253 0.00985221658 0.0443349741 0.0147783253 0.024630541
      0.0295566507 0.0147783253 0. 0.0295566507 0.00985221658
      0.0295566507 0.00492610829 0.0147783253 0.00492610829 0.0591133013
      0.0147783253 0.0197044332 0. 0.0394088663 0.0591133013 0.
      0.0443349741 0.0197044332 0. 0.0197044332 0.00985221658
      0.0147783253 0.103448272 0.00492610829 0. 0.00492610829
      0.0147783253 0.00492610829 0.00985221658 0.0147783253 0.0147783253
      0.00985221658 0.0147783253 0.00985221658 0.0344827585 0.024630541
      0.024630541 0. 0.</_>
    <_>
      0. 0.0075757578 0.0075757578 0.109848484 0.0075757578 0.0075757578
      0.0151515156 0.0037878789 0.037878789 0.0113636367 0.0113636367
      0.0265151523 0.0416666679 0.0075757578 0.0075757578 0.0075757578
      0.037878789 0.0303030312 0.0113636367 0.0189393945 0.0303030312 0.
      0.0075757578 0. 0.0265151523 0.0492424257 0.0037878789
      0.0568181835 0.0227272734 0.0037878789 0. 0.0454545468
      0.0454545468 0.037878789 0.0113636367 0.0037878789 0.0113636367
      0.0037878789 0. 0.0075757578 0.0151515156 0.0227272734 0.
      0.0416666679 0.0075757578 0.0530303046 0.037878789 0.0303030312
      0.0037878789 0.0113636367</_>
    <_>
      0. 0.0303030312 0.00432900432 0.125541121 0.0216450207
      0.00432900432 0.00432900432 0. 0.0259740259 0.0173160173
      0.0303030312 0.00865800865 0.0216450207 0.00432900432 0.0303030312
      0.00865800865 0.0173160173 0.012987013 0.012987013 0.00865800865
      0.038961038 0.00432900432 0.00865800865 0. 0.0303030312
