<?xml version="1.0"?>
<opencv_storage>
<opencv_ml_svm>
  <format>3</format>
  <svmType>C_SVC</svmType>
  <kernel>
    <type>RBF</type>
    <gamma>1.0000000000000001e-05</gamma></kernel>
  <C>0.5</C>
  <term_criteria><epsilon>1.1920928955078125e-07</epsilon>
    <iterations>1000</iterations></term_criteria>
  <var_count>2</var_count>
  <class_count>2</class_count>
  <class_labels type_id="opencv-matrix">
    <rows>2</rows>
    <cols>1</cols>
    <dt>i</dt>
    <data>
      0 1</data></class_labels>
  <sv_total>32</sv_total>
  <support_vectors>
    <_>
      29. 149.</_>
    <_>
      128. 6.</_>
    <_>
      73. 65.</_>
    <_>
      44. 146.</_>
    <_>
      125. 106.</_>
    <_>
      139. 52.</_>
    <_>
      101. 149.</_>
    <_>
      117. 136.</_>
    <_>
      3. 144.</_>
    <_>
      110. 102.</_>
    <_>
      94. 108.</_>
    <_>
      81. 119.</_>
    <_>
      104. 126.</_>
    <_>
      74. 138.</_>
    <_>
      106. 151.</_>
    <_>
      116. 123.</_>
    <_>
      110. 170.</_>
    <_>
      107. 201.</_>
    <_>
      158. 231.</_>
    <_>
      192. 144.</_>
    <_>
      130. 188.</_>
    <_>
      112. 226.</_>
    <_>
      238. 150.</_>
    <_>
      213. 139.</_>
    <_>
      104. 134.</_>
    <_>
      104. 203.</_>
    <_>
      153. 119.</_>
    <_>
      194. 169.</_>
    <_>
      188. 182.</_>
    <_>
      194. 134.</_>
    <_>
      192. 173.</_>
    <_>
      101. 196.</_></support_vectors>
  <decision_functions>
    <_>
      <sv_count>32</sv_count>
      <rho>0.029608845710754398</rho>
      <alpha>
        0.5 0.5 0.28470035336281668 0.5 0.5 0.5 0.5 0.5 0.5 0.5 0.5 0.5
        0.5 0.5 0.5 0.5 -0.5 -0.5 -0.5 -0.5 -0.5 -0.5
        -0.28470035336281668 -0.5 -0.5 -0.5 -0.5 -0.5 -0.5 -0.5 -0.5
        -0.5</alpha>
      <index>
        0 1 2 3 4 5 6 7 8 9 10 11 12 13 14 15 16 17 18 19 20 21 22 23 24
        25 26 27 28 29 30 31</index></_></decision_functions></opencv_ml_svm>
</opencv_storage>
